0.7589619208661074, 0.5617647427947994, -0.9544693255033674, 0.14547279732329677, 0.9210725349155269, -0.6393553723054333, 0.8554185076021743, 0.17724588406861597, 0.7416640456887016, 0.6560342740292961, -0.08608347826383311, -0.4787478214118406, 0.9866488295432971, -0.4357487154165085, 0.05321634187135338, -0.1712433212430986, -0.7649267580772734, 0.5972399307820173, -0.5672654387180562, -0.0036767506553321283, -0.7021010546896131, 0.1689303545692975, -0.13303147545759275, -0.43573118249224985, -0.7921248467840243, -0.4080823570666732, 0.6471654545565011, -0.17846175930031527, 0.9255018747302381, 0.04935844094825059, 0.6224615003387002, 0.35677772270562613, 0.8148558668569186, -0.4651074164478608, 0.8377892673840595, 0.820161867563699, -0.34451285351090877, 0.667980257715882, 0.00255080205049385, -0.7116223994519626, -0.5863924738447974, -0.4724072960974999, -0.9015083536419815, 0.034223486891776345, 0.16585982893130202, 0.004485641897901571, 0.7985875149271628, 0.8617280925311692, -0.7775682989957549, 0.6305595150688619, 0.5187026503164391, 0.6215451510284977, -0.9242119430838212, -0.09375818888484266, -0.27907638838565707, 0.1997769184184932, 0.964126708081757, -0.07835835153926896, -0.3965283180303547, -0.6695611623778166, -0.0749998615154821, 0.6874596789268999, 0.2918879469396669, 0.8643851211910558, -0.37415179979092317, -0.41417905234012053, -0.2478383799917938, -0.7230386966110096, 0.14646846830962512, 0.41975177769785565, 0.7153021332168183, -0.33454602109224574, 0.9037521691949821, 0.0915121042176934, 0.7666670250294827, 0.2692458806451572, 0.9307126388139775, -0.030051173464302083, 0.4842491731541436, 0.3643122779483363, 0.28600531174650734, 0.7511342565861663, -0.6850474219798892, -0.17583783578053103, -0.4370300781173304, -0.30570925314781405, 0.4382125689480978, 0.49015526696127165, 0.6297482608734479, 0.71906535230121, 0.8231899093266488, -0.9749087296833752, 0.8375076946118665, -0.7999423458916588, 0.17881615396019046, -0.723919311882151, 0.579730538634768, 0.4067857887631454, -0.6301700635190297, 0.8905531554701915, -0.8939200213298779, -0.85924271122292, 0.9697875862474346, -0.759453454518477, -0.7962141543120556, 0.8613875554746149, -0.966555148379626, -0.22650929252237573, 0.5114144869666082, 0.12403778158070411, 0.09431683490665699, 0.8811454819650917, -0.4923020258789219, -0.7578089280171885, 0.9715744112739506, -0.11827124682105405, 0.3435611527649687, -0.7462082082713308, -0.7550156346758843, -0.32340234984897176, 0.08606060756282696, 0.1800927172410487, 0.8132623717878855, -0.46538643607905184, 0.7105442938924664, -0.17756832860913074, -0.5623795763029249, 0.9761656475595446, 0.799384644579872, 0.36245053701766383, -0.6451226118478963, 0.16510619964446716, 0.0763439357396789, 0.5007953119785333, -0.784317679089092, 0.926267134476173, -0.6792384363317494, 0.30028640767853054, 0.667585212723846, 0.31174889074149914, 0.23874999639415573, -0.90786475068772, -0.23926791663655544, 0.9706464835886073, -0.4044001775848285, -0.17816510361934812, -0.07005755751866705, -0.12588459553717346, 0.01850043172285587, -0.9062899393027135, 0.8058267808914816, -0.546826788296404, -0.4566036714929309, -0.728828128330415, 0.6569875420372091, 0.2603101183535008, -0.07462901368119312, 0.7219680593412645, -0.6103597764896302, -0.5256526097985228, -0.3837654175338492, -0.8600854634571997, -0.8847537575151185, 0.34453007845744765, 0.03931306277505775, -0.3070106782665565, 0.4556995831905666, 0.2773924715381666, -0.23782357935524234, 0.39458524311474563, -0.03406447507006338, -0.8846328040338238, -0.39566766933170094, 0.4750991736817676, -0.371305912111074, 0.7014476609031761, -0.31280195962025625, 0.9771162148830657, -0.05573545014803516, -0.008736579513762388, 0.41242069386993485, -0.32811208165634365, 0.5593281282634595, 0.22034257448084182, 0.19212002448474652, -0.7361491734677288, 0.7013089498345892, -0.1245633665914323, -0.6553322147496001, 0.02753411671805117, -0.8569450211483307, -0.8373012461767846, 0.5374415384182072, 0.6571703433511384, -0.9932255557241654, 0.04479790668495487, 0.6168220865575595, 0.8179214489874007, 0.13492042220294342, 0.5502362772471763, 0.2851743501999209, 0.7288359383415868, -0.7430429792740132, -0.2149378801384345, -0.8685332083793742, 0.8244788763290087, -0.049942921275613505, 0.9884174822348091, 0.05944323704494647, -0.6283808024975317, -0.8655881459312018, -0.18169832020762633, -0.3746435459679933, 0.23567871515843408, -0.6376059921229189, 0.7101482783548874, -0.36990245374428476, -0.8950397608688871, 0.16443720574421983, 0.18702893725949488, -0.6913965506385813, -0.09780699482234079, 0.7592817286757829, -0.26536349829420836, 0.5122905786273027, 0.535179725115075, 0.651030471810053, 0.12909268243505023, 0.5272485549919896, 0.6702312026007626, -0.9846376078658097, -0.9921409581080634, -0.6015958803391275, 0.8244961266775013, 0.04796607192667102, 0.3820316150744809, -0.5474654972456445, 0.08276975686143806, -0.23818570072230538, -0.9616102300126179, 0.6254712464086205, 0.768737377030936, 0.9414330022423767, -0.13675534443751602, 0.6089544838779142, -0.6432631898928884, -0.8609371323612462, -0.4956554958557502, -0.9317800085280763, -0.025340987119661262, 0.3826141857164773, -0.08638880651459835, -0.437119178226411, 0.88282847299688, 0.8220643685716669, 0.1964416086892149, 0.7448740549120243, -0.6927423504196608, 0.9613869011694205, -0.20646559740711234, -0.5465399309292607, -0.7954406557452085, -0.08331741937038584, -0.28661934721434656, -0.3165855147653416, 0.39791436085033594, -0.9505318048567624, 0.9855913475480071, 0.20075803396812675, 0.7698793000088298, -0.9892154080100231, 0.8491417876375515, 0.9287203184346406, -0.24190191893873214, 0.20602037251104055, 0.23499083089420636, -0.8644350381278603, -0.5341560475612135, 0.37075470217711093, 0.21145092527389586, -0.10853265204585738, -0.5343398523193117, 0.16175090253978475, 0.06171157602137378, 0.5600055352173456, 0.006029924128626796, -0.025843349867364918, 0.9869775501352185, -0.08679360121647517, 0.12624756157992523, -0.06269991213368042, 0.5168172896538317, -0.2567207172357555, 0.38509494009197054, 0.8696480301906648, -0.9937253999982363, 0.07183179392370609, 0.627619356392797, -0.12004094840288859, 0.07600505327980289, 0.02245469879633588, -0.043459108277055236, 0.17282539928078333, -0.7896690138821567, 0.15012412935163022, -0.3286205872669341, -0.1705109140134391, 0.15977671543136762, 0.8955362733904608, -0.5962216817199009, 0.5122062567552468, 0.1360792416517238, 0.541512345984362, 0.04603184971617047, 0.16240522155038706, -0.6820010046954799, -0.41978144206826684, 0.3628309344359393, 0.3455178363717224, -0.605973468025133, -0.9884259144514624, -0.9087820176263242, -0.8898672834912049, -0.19556390195208562, -0.1662350401250614, -0.17478988771000958, -0.06320523716201776, -0.8926857468197027, -0.4515214057671091, -0.7464549042494177, 0.9918832024094599, -0.18475932407491613, 0.32542380591508024, -0.650192361549264, -0.29822081010417945, -0.5090464976979696, 0.3536806857691863, 0.8193009771696194, -0.4504484945023466, -0.2877250557858464, -0.7033920333679278, 0.5518494291528366, 0.3132153779133884, 0.9132412847165929, 0.15416742070613632, 0.32310128031846563, 0.8778897941510022, 0.7466817764515317, 0.5016312630219186, 0.5545736300457651, -0.8368369419057085, 0.16813982046443443, 0.32070612545545263, -0.7912137449959047, 0.35073828834300813, -0.7185648358032173, 0.25427520725211306, -0.2812817535928118, 0.6651029425097377, 0.4323549670838851, 0.24885623518693656, -0.9476664300826219, -0.9652681511548662, -0.2800105796682646, 0.44356475194678735, 0.6996925707804087, -0.7410245672480575, 0.28507957145083584, -0.4786725175380253, -0.07859055347573185, 0.32163309095258197, 0.8047889626993137, 0.42359060605026055, 0.6893949297037663, 0.6530659852114757, 0.35070394258634563, 0.11994778335793344, 0.8413941077174922, -0.22455171812609875, -0.8808399383696206, 0.4422060625304398, -0.8132873179658158, -0.2870409795844322, 0.5639651908374437, 0.024410241340211636, 0.19193380607026422, -0.5000297171827401, -0.21978398002830057, 0.3407527789443534, -0.00896593428490955, -0.33092826389393637, -0.4968387665661653, -0.983175150300498, 0.7289977048712792, -0.9550734169373134, 0.28135091934010514, 0.45374730051032874, 0.3580784882640844, -0.11382077201127849, 0.031403616630838904, 0.8726917689961358, -0.22052314004067308, 0.6432038641644346, 0.14430375812943175, 0.38123659438205726, -0.8674272252778892, -0.9647954815696709, 0.6641267490845693, -0.5930822401262812, -0.7156317530984595, 0.48033198881885286, -0.5453809879587792, -0.6550416318539727, 0.9128047334868927, -0.7120112991823282, 0.23060667602098528, 0.4551737466089243, 0.17642826277155121, -0.5211048314726747, -0.8461638344067137, 0.24789489208842785, 0.4185720047612558, -0.05490993758797913, -0.14899883143053883, -0.23646652145882485, -0.8358491003360251, -0.5034514007330904, -0.6894447142785647, -0.6633878030439375, 0.8111921488517406, 0.4955204997913645, -0.7462868588843878, 0.3182515764545071, -0.5212265925498465, -0.6497553831630252, -0.49736712662662486, -0.7578216746661712, -0.8006198901498058, -0.22261150444053435, 0.9459833377160405, 0.1188430035462853, 0.21043974891315886, 0.676502158744329, -0.9933367491095368, -0.2672885139684926, -0.9397906413337551, -0.4452674269874204, -0.17424393345276123, 0.02285202508278039, -0.10175574204013316, 0.9783221350718696, -0.9190788217127608, 0.3841053604813882, 0.7994730190929198, 0.6534213573928087, -0.21167086405556246, -0.9744557333203443, -0.8841404961610109, -0.03881833521588951, 0.5590270411329874, 0.9222398285273719, -0.8560323239402345, 0.8345345739018011, -0.6889535148773527, -0.8535716782941101, -0.8461017908876955, 0.3544642772938156, 0.04000705464611043, -0.5054638451841269, -0.8404626803334065, -0.6620755575020063, -0.2751953558119711, -0.8298770254444086, -0.6427589701940235, 0.22757745206742053, -0.9576156237837876, 0.3789900337264478, 0.3192807342586177, -0.8300343760109414, 0.2634446643826831, 0.7108474099294666, 0.5352036694202729, 0.6227133940799665, -0.6744563545278679, -0.9538060637207244, -0.07049474903000674, 0.5567341269247172, -0.2864248423047393, 0.09219198882459056, 0.733656448137904, -0.1925143703061296, -0.07154654376521652, 0.7098415453174793, 0.6779047198477668, 0.3999801823033142, 0.4993355577142211, -0.8255545078751747, 0.8032217942692184, 0.5054923913053841, -0.5205269519914624, 0.571663452648651, 0.766646890576143, 0.9561460736710714, -0.7819685691711269, -0.06932176671733892, -0.43328004998360004, -0.3886634798013042, -0.7977565656527439, -0.07133012116975612, -0.946521484130477, 0.029994594127587648, -0.3671292034293525, 0.07921460117302925, 0.8350308311974499, -0.125042197012599, -0.28413772228822176, -0.17696974574691215, 0.4564431482791034, 0.32042501242184396, 0.1986591093357737, 0.5483783639268958, -0.9346403196391797, 0.5710020201065373, -0.4192900007600875, -0.7679825046225484, -0.6119365641431607, 0.5946147506005073, 0.704827172264892, -0.16310679135728168, -0.2741819275354689, 0.1073322437289479, -0.1269369001145959, -0.3475680766596312, -0.9512264024023911, -0.7907206915412002, 0.9356383315123129, -0.26158684969652657, 0.9208470616205042, 0.6734012975033419, 0.5536481203275689, -0.7063499790311241, -0.31936720824541864, 0.5396188441050112, -0.6811588446619443, -0.2209465609334862, 0.8822760980445299, 0.0059116899924711586, 0.6493272156011094, 0.037013340229146374, 0.16503232115074895, 0.5384168571167696, -0.25732366022871456, 0.8401835106073599, 0.6993065411733344, -0.15116552658927884, -0.7731106545320279, -0.005425705201652198, -0.2680676896014922, -0.8721395580371061, 0.99781435772977, 0.8415403567630984, 0.03769433790621557, -0.6370030572417182, 0.6217077908426365, 0.7573288708962118, 0.01989273472722819, 0.5191745426575927, -0.46868977789409305, 0.8454065744181667, 0.5733409658379909, -0.9884473686140458, -0.22711911371457605, -0.46155676788604993, 0.02884129063105867, -0.764863350978316, 0.230103300977891, -0.4720874330074316, -0.30356736435913856, 0.36918292436102673, 0.44704895552894763, 0.9993868100482908, 0.6098979295972622, -0.06703566821149676, -0.08562760461213692, 0.11622866250119412, -0.5719329459300286, 0.4520800645780023, 0.49705783789133196, -0.8486858178515286, -0.13066069222829424, 0.45057971070690184, 0.5944970656438593, 0.4257779940216988, -0.37056671892986004, -0.8301975999006792, -0.9950876248629836, -0.5765023772650033, 0.807180957632321, 0.25348600308926383, -0.5043229353527146, 0.6017928559727903, -0.7574524860093648, 0.6893629703235282, -0.2744922905571694, -0.7555571966029029, -0.728370874512134, 0.8165321965234693, 0.005611658074551773, 0.616763710527749, -0.006286054387542261, -0.29428996068455526, -0.1790069579066338, 0.4793906850683478, -0.443878302064449, 0.4631820601296819, 0.07126162617708798, -0.3794860534490194, 0.9303624184269756, -0.1601562763526294, 0.964230722015857, -0.693985758218026, 0.9701296983892265, -0.9041870952415358, 0.8126556523978925, 0.5748578992165556, 0.054002281691801546, 0.5906218502648874, 0.5852184192389875, 0.9964201212800614, -0.5039326991632012, -0.12142046921322791, -0.2962456728287004, -0.7977868018659284, 0.7209471595936998, 0.5117358405662864, -0.6613443071040297, -0.5596171776640531, -0.9527401863107423, -0.6519672104340977, -0.3372758679185559, 0.2624900734269937, -0.5372181695853442, 0.3423439468826295, -0.8651459861374993, 0.06782911637371924, 0.535216620944575, 0.8703957395092157, -0.9821843834495905, -0.6842865146960506, 0.11678552497896644, -0.5945049524409711, 0.010013594641183232, -0.8651233084792236, 0.9362225043917756, 0.3053743846786665, 0.025166465950900996, 0.892349037538188, -0.5561402610631414, 0.7145402457678529, 0.28342157277824476, 0.21095573808306733, -0.4173540903795503, -0.6999311394822394, 0.8539373493492712, -0.5834935528523626, -0.7599440941058018, 0.11012181225492212, 0.9392264583848742, 0.7788875652400775, -0.5945163177388719, -0.5050266392108569, -0.8305123323557397, 0.06685153245395759, -0.6810583789055344, 0.9133858186381192, -0.6514533649576666, 0.44105248236726036, -0.6198009762632639, -0.25330489259312805, -0.8824810847114226, 0.2310924285934226, -0.17218586330984054, -0.7682638431266349, -0.6066251940670317, -0.36786539067809154, -0.7930075059067871, -0.43427022527593007, -0.2628557869937609, -0.6416207775628269, 0.2325668249268278, 0.12003310962475489, 0.29453475990630285, -0.42608787468720655, -0.0639965068950441, -0.054491389578915195, -0.5758233324140813, -0.6836523530912428, 0.1279799130342547, 0.9422447460733332, 0.9128452312319759, 0.22870320280116374, 0.09529642697811913, 0.7081393141585617, -0.8776874564911346, 0.27233069021312306, -0.8204978046387865, 0.4949745225116198, -0.8812423095753832, -0.8774321132568008, 0.3461028560311572, -0.9218777285632938, 0.6991727006022599, 0.23441827877354005, -0.5483551477665778, -0.22725251557902415, -0.058606684289327804, 0.810292443768299, 0.8419682253012419, 0.2833864125422607, -0.8443272972488607, -0.3615412424118958, -0.0413741988007974, -0.9510072205560971, 0.8004691302923834, -0.4260843786569448, 0.4501728449575466, -0.6787411676167032, -0.5655633264243496, -0.8675860464371135, 0.3712559259397312, 0.5450286168238649, 0.6574640455233738, 0.6107687040665828, -0.5174643618838553, 0.19222836417067635, -0.9285457739243617, -0.45653663352543594, -0.23798286501900723, -0.2113672424241475, -0.2108495496306526, 0.8760559365496898, 0.6839556311820172, -0.6677697270954839, -0.829916007509105, -0.40502724542356305, -0.6592955953033213, 0.9265737201881292, -0.9612897783734917, 0.5676359265613067, 0.17363583132026839, -0.5183232420396986, 0.8243738337570019, 0.1354461492656276, 0.04086838802630477, 0.28523473941394695, -0.09366829626959694, 0.601796103795313, -0.8752447470741489, 0.07509843506851799, -0.2712450419945467, -0.6890984337055446, -0.7732548474898318, -0.08035235070337388, 0.42058355482870224, -0.5571315411269571, 0.49468931231907964, 0.020603762330999364, 0.01031058725355094, -0.5640631351685423, 0.3503466347612334, -0.7007428565507261, 0.933546365163382, 0.27065573849423386, 0.07722368411763436, 0.003976694998256924, 0.4799444422607957, 0.7618175347597529, -0.3354910338634276, 0.8305588284871814, 0.5933258103178054, -0.5534250467946955, -0.2512215868024408, -0.1251021036701987, 0.30151781191952276, -0.41679185693952103, 0.6646994196351981, -0.6694339589759248, 0.7202307624762321, 0.8206664068629486, -0.0987272640819874, 0.723731128127125, -0.4337475418128258, 0.07844928635157733, 0.8386913856812697, -0.30124989287461545, 0.7154995307408176, 0.04627660580716686, 0.7393919661671804, -0.4390618662913024, 0.741090135578486, 0.9400595527488858, 0.5425405809206103, 0.31764023354569937, -0.45564415133937497, -0.1587170179186974, 0.842145668547859, 0.2795310499642385, 0.32527558865803297, 0.9534534299762458, 0.2563054461003198, 0.00679938543499059, 0.21188624393643773, -0.8087541575543002, 0.8589476737146393, 0.33747294815304363, 0.7514656763057972, 0.8935068912443058, -0.6802723968387889, 0.29029089428732147, -0.8604033387602514, 0.32705288402074273, 0.62744641680368, -0.040443978540580794, -0.3455319052793031, -0.28868789223324587, -0.4809588823456441, -0.8451852772329491, -0.648960649132093, 0.20654537592468758, 0.37337509942748404, 0.47880763431743945, -0.5339578990885154, 0.46329010466097986, -0.8767699645540352, -0.3229875113524543, -0.8781890818493139, -0.13006014429315105, 0.21820648511525098, 0.8965431821414807, 0.3268420726078185, -0.7727843784085289, 0.2968632085915246, 0.5373520372646761, 0.5440897179927731, -0.729365858745177, 0.19061352737806314, 0.7210341711261421, 0.05672918487911405, -0.8304992177805872, -0.5005446804255405, -0.9924711409010052, -0.20578053703810495, -0.17709429018335854, 0.7154597956594515, -0.5318324628425062, -0.10235896357223395, 0.9447512533337736, 0.8795100301563117, 0.2033078998911051, -0.6447309366401814, -0.8393238249983237, -0.3732177834126704, 0.48795437567990696, 0.4499059827846288, 0.05919153857088211, 0.10050255857709045, -0.5226503325407961, 0.05630536417780818, -0.4166479252516353, -0.013048935795682448, 0.6328772926585491, 0.6166230614622348, 0.943438201408417, -0.15368072655585863, 0.08124431698905421, 0.3586006951533658, -0.29557604045239283, 0.5683713897609437, -0.8812191525508246, -0.6341955548756777, 0.08179460603005517, 0.9419917968242772, 0.9501683945186055, 0.10614865084150682, 0.6427392537477383, 0.781842468640602, -0.4820248295136931, 0.48144890413969277, -0.9964209886331201, 0.16914307202092504, -0.6273162271129127, 0.041708598800894725, -0.06208075530709878, -0.535641814763643, 0.06845571188914712, -0.6505379576439394, -0.1724565353763321, 0.1148928910692113, -0.6127675894652163, -0.10078453510922203, 0.4078013236998026, -0.9942970812048841, 0.06166701015617204, 0.2152942478659794, -0.08896647292339965, -0.13621641815046104, 0.36920043892090804, -0.34655594363489506, -0.5660200204255874, -0.7942239965677083, 0.9754935663868243, 0.18863228261750487, -0.7124231684795856, -0.019780301650136778, 0.2036215810879498, 0.764047476750001, 0.5682002033622615, 0.3525857557893213, -0.27522155679999405, 0.13690164971849517, 0.865818929519975, -0.18275609982955632, 0.9673434211119012, -0.8920686698181994, -0.10460259435741603, 0.0903745044886981, 0.4405996935274623, -0.6852914902703382, -0.8161342010876071, -0.1562692906423191, -0.746397919763794, 0.012720158084937427, -0.44095222310104054, 0.928976074064708, -0.07687708892716705, -0.10411801506359275, -0.6234927623376547, 0.4037996480704693, -0.5655787071720022, 0.5496304419442084, -0.20482839139139308, 0.15386863340974832, -0.5908546530638765, -0.18737483767020913, 0.4008950690587061, -0.4259855667367336, 0.15602356694198138, 0.36477207178460525, 0.8615696351361519, 0.9176382030972183, -0.8235277729403043, 0.8609503846113673, -0.5145435198227482, -0.9876368597326592, -0.14591384651532024, -0.22036333440090616, -0.8070639950148915, 0.6142453951240061, -0.34573322461374323, -0.4210561087167375, -0.752231758039078, 0.3822209378889434, 0.5775676164819721, 0.012787581712912388, 0.8316647893520999, 0.3051380522105671, -0.21695866350299564, 0.037489042547762086, 0.38263310812577167, 0.7734787735800219, 0.7553157194442441, -0.710995847536938, 0.1111309813897341, 0.44868566580291014, 0.4856456002629097, -0.8374371573537982, 0.7178653007158244, 0.11022434081384835, 0.23598524432468992, 0.6912320564787695, 0.43648018338692385, -0.5167621744979041, -0.6600518302401304, -0.14530512979037735, 0.9298903597984642, -0.6368589677061487, -0.9581158975151081, 0.9373810463355188, 0.19649466418252914, 0.06897665660996122, 0.5844998635003644, 0.244458332998021, 0.840219522219187, 0.16401608030193815, 0.5836266729326061, -0.7770907808095444, 0.543148196055377, 0.8719040543139192, 0.720604652604107, -0.2127864041215468, -0.07204488584769031, -0.12762385999286718, 0.9150206318358007, -0.8914613009225694, 0.21731766723305124, -0.03502258360827559, 0.07790582461814388, -0.03212911219675907, 0.48502370925812843, -0.8593764079344579, 0.9345741359676696, 0.21871258614075795, 0.6022588144386196, 0.5775609989963177, 0.34156695164212025, 0.13141834330258662, 0.3596308736602938, 0.9555263404486274, -0.1879441067817802, -0.17036221915255823, 0.7868576250545454, 0.9012088936751819, 0.016921258973590314, -0.783795729879222

-0.33362936559245693
-0.8858001345264832

