0.6144865433395367, -0.5723357264364584, 0.6781595243203374, -0.5055199072602278, -0.3252595059146606, -0.11056309172985734, 0.15186873149704036, -0.9649599461681018, -0.8887842792081667, -0.36107742250405434, 0.14016488428337157, 0.5254916078367898, 0.1105739187733967, -0.15410307306744497, 0.8301132645042055, -0.40007706941726845, -0.04479800880367369, -0.872402233813517, 0.6060567649688444, 0.28144471808611116, 0.1840363169511686, 0.5206961074747212, -0.662724410805062, 0.8966110303222584, -0.1450122407923017, 0.3425867038773004, -0.7729242758233017, 0.8705904300572815, 0.9414083229577341, -0.17752150355653207, 0.6840366050254352, 0.16311825589694018, 0.14638803090282582, 0.949824384105679, -0.9205174941209731, 0.02415517947367163, -0.11699463364647489, -0.4172487022117235, -0.8928869662192149, -0.1333399628906855, -0.329048198454031, -0.7427934465687285, 0.2531657481346852, 0.7050446826957817, 0.07022869786758035, -0.4325242782688168, -0.39160055343618705, 0.9036691717949874, 0.3599033580457345, -0.42168071332845103, 0.6393406918861786, -0.0012144735508374804, 0.6100954783449548, 0.8875534805301777, 0.18721999977108816, 0.7500903006542545, -0.5588681340044044, -0.4997465613211587, 0.7993831830245592, -0.7430463161940029, 0.8201758026207664, 0.814066090398067, 0.9281875261104524, 0.725183470198494, 0.3547896181636223, -0.7246082429880669, 0.50033834801352, -0.6611558046680701, 0.8779768104060515, -0.09012954921500027, 0.7600782400266985, -0.5859546027379396, 0.41561623723689767, -0.40272769171540124, -0.019428594132614663, 0.9575395849577366, 0.7847563272527736, 0.07570486249068442, 0.05729658034624041, -0.7545313220567575, 0.24871380297259105, -0.4181496336706112, -0.7407919514398493, 0.7366509623075845, 0.5878375505327693, 0.5106719997544482, 0.34456948667035414, -0.9146851814146992, -0.7093466997080093, -0.6439989036937463, 0.07245013063368355, -0.4968740019512481, 0.1358296841576181, 0.1790572939219781, 0.9308021891175695, -0.8035685721569226, -0.168933256917418, -0.2986328549667914, 0.27969713434695453, -0.8707374548738509, -0.013574483960361095, 0.6846976621808682, -0.6422675762607195, 0.0947033463029292, 0.7019132046147656, 0.778380279926568, -0.28631468200485966, -0.5246021134870613, -0.8220013883131658, 0.3502540026858951, 0.32541544229253616, 0.9273449154959259, 0.9103658259983434, 0.07576782911958824, -0.09129392137989512, -0.7007766277553364, -0.9279869669494136, -0.11389853076098544, -0.9289684876873279, 0.1710734900171691, 0.09906400850110164, -0.10305452463782538, 0.7900813049743809, 0.04427083130479281, 0.0012935630973018863, 0.7916130327828326, 0.9799148606894437, -0.6898661293039341, -0.7239543708466079, 0.14240431042313073, -0.15617503276438982, -0.6279536400180088, -0.5598972582240109, -0.03787092055758645, 0.26386359827758565, 0.6045000597588142, -0.748094528382754, 0.6783471317363752, 0.011858281186041042, -0.671166474395051, -0.5466229868925105, 0.45032331459155683, 0.34625215654927244, -0.10695819471022427, -0.5661711452245775, 0.3890819931428424, 0.8963432670136029, 0.8785398652803684, 0.8133451072566447, 0.35804735462176884, -0.1500859442238207, 0.3393370462328156, 0.6542038647152655, 0.7362191425470408, 0.9950605659043246, -0.9582303896366984, -0.6413857231312572, 0.20839486634398385, 0.4338343911161031, 0.03175568005056206, 0.9006620149163669, 0.36661276149149025, 0.919040242264523, 0.1771583272566286, 0.2552778050915441, -0.39416266102274555, -0.0793297536766766, 0.14884399429618522, 0.6146126185859062, 0.02981354998894492, 0.009114321418701277, -0.17004119118783523, 0.9450195723872958, 0.38957825865748696, -0.037925736808388066, -0.043689448492316485, 0.7283331551123822, 0.6493715743888673, -0.7328122551764285, -0.7393534370865202, 0.43123452860081635, -0.5317551156510163, 0.2934272484422973, 0.813576688859373, 0.10528136103446695, 0.2701906821725837, -0.8835287577721931, 0.9309517242989616, 0.21939524251992837, -0.6213782543462829, -0.6147147910489847, -0.6448621425841929, -0.7782007344126853, 0.44017248106012175, 0.925524113925412, 0.25538358339467204, 0.373842163316392, -0.2170608663700513, -0.016221812599321428, -0.6235138528996056