0.8618188996687143, 0.8842129982863643, -0.3744354517807133, -0.12719268428022523, 0.10780603291021087, 0.08176202588032384, 0.6588528262667835, -0.4947649411276588, -0.17338812504833023, 0.2888550820353603, -0.3599520889473196, 0.6446131770496198, 0.009807132245935149, -0.5629338243860159, -0.18163291158673978, 0.34838841612895766, -0.0999546138097209, -0.42838093482022216, 0.8269083809388262, -0.31931639827401315, 0.12158909965746414, -0.4988703688590496, 0.8210864252292496, -0.5724479344454763, 0.14556771991966314, -0.3921763880708514, -0.09241705325899607, -0.4666566718750648, 0.82355237873873, -0.1830715514989598, -0.6907476706696813, -0.4473306643357873, -0.7036955207454032, -0.9246863725396197, 0.422056584160297, 0.6242250665952018, -0.7642450248220429, -0.06290264465800699, 0.5462645314292824, 0.784013443895369, 0.7314891668131698, 0.46826624761846714, 0.75315927520331, 0.2970731165940528, 0.3872155177876839, 0.8790245987274419, -0.6742998373956861, -0.53200983555003, 0.3529702438643627, -0.7607666772943305, 0.7256759228830798, -0.363147368392003, 0.5309412799750528, -0.8911136228341505, 0.6083762193842128, 0.7418856849767734, -0.49947796412398504, -0.6497098182565346, -0.5689875612635977, -0.9430380492767578, -0.9577940000175946, 0.6346949836031075, 0.024059014163450243, -0.7329488555154946, -0.5134207522291596, 0.21576529080249163, -0.8314816395212183, -0.15060775221867528, 0.007549514969076521, -0.2542856733033132, -0.8534012582563131, 0.2750687824392508, 0.626709751013, -0.7531075801626621, -0.8452005140782723, 0.8791403264667119, -0.3034794506677041, 0.7478292812552438, -0.5951762202770341, -0.6337906463123397, -0.5668615955464935, -0.744787191499916, 0.07685128267761954, -0.6676990894567605, 0.018060614957145615, -0.8511834284069744, 0.3261726081684402, 0.1439434287393888, -0.20884315793505048, 0.48515646906078524, -0.40736620674208557, 0.5909500956629536, 0.8783221732377584, -0.09643588114213864, 0.7427970681016101, -0.5405470358758866, -0.1937918338024589, -0.7310866284047897, 0.7567896922382844, -0.9231325927612775, 0.8385116882295107, 0.5916982884786297, 0.7119623756664828, 0.8762031550115681, -0.889665406287826, -0.20487843216667945, -0.3540670215791881, 0.4668515124448893, 0.25921141288298677, 0.24425037222544765, -0.6745250155132927, -0.5962178591096667, 0.15685457484427467, 0.0434713492629657, 0.09623693099153519, -0.4353910578927447, 0.1920510595869671, -0.5023370381104459, 0.5544337097229866, 0.2547373766318739, 0.059217752998155015, -0.10350877568003969, -0.18840564169152962, 0.5871434234447672, 0.3329647133369118, -0.8638070566608786, 0.09840899974375872, 0.270811731111982, -0.8429684450361365, -0.24875052139869314, 0.2341078142187385, -0.717497005378402, -0.6929597475742231, -0.507784705275977, -0.6916712473050417, 0.7747359342858495, 0.7023845715698922, -0.5119757131224698, -0.7635814885227559, 0.02806639519803955, 0.33194800890182763, 0.32653022541932764, -0.31875866046804857, -0.581698554002769, -0.5971183807201086, -0.4683110917811024, -0.9282304159988304, -0.6938735199650521, 0.32319401495333966, -0.49755320172338235, 0.7155760531712667, -0.39206105017007853, -0.23485532344744953, -0.15257621354869633, -0.8891744380526536, 0.13299669948100945, 0.37579054580022375, 0.35637495589224066, -0.4286320449043153, -0.5023741957823851, 0.9135343750470621, -0.5815023434605187, 0.9697306893887627, -0.5022661248403857, 0.6338665169099482, 0.05005173776264127, -0.3774186929263177, -0.9232232126476874, 0.35753752338467293, -0.9493747745191612, 0.6664416727397484, -0.4686890943818274, -0.6160064872122164, 0.4869860941595674, 0.16829220394575928, -0.6769339068018723, 0.15098880525446678, -0.8241331871195847, 0.19280901660803051, 0.3628683773409185, 0.6916954432069891, 0.2188136055428218, -0.18959999441941067, 0.4916878169999954, -0.25809157988211395, -0.7896945589610813, -0.580193471715855, 0.18749090169221105, -0.6323268544320373, -0.38824581566688643, -0.7231752151049509, 0.8014160678767535, -0.5111436504496509, 0.6489704453609064, -0.6881176874204495, 0.4251300577664259, 0.2180271845899353, 0.22148729337665451, 0.8566714725801974, 0.49746971270594