0.8087417604051028, -0.44088048933213597, -0.8005759791777344, -0.7751230322819734, 0.37407171672308065, 0.20295237288159534, -0.3862072400960178, 0.42801815528824355, -0.7109801144604808, 0.8523076582648597, 0.659913253347705, -0.5585531548721473, -0.07323117659059855, -0.5585828225212462, 0.980687083146232, 0.794680218085445, -0.6613914652405875, 0.6478659310184379, -0.4104459769792842, 0.31348127549728916, -0.8306479240838357, 0.08870641848275414, -0.6745476062422084, -0.36822595403884895, -0.004682162063065252, -0.5108736341508924, 0.832913576402066, 0.6522015734304669, -0.8254471348555172, -0.3079713788454226, -0.24354139820227008, -0.6019856015627747, -0.6706030580572562, -0.23027376767814067, -0.5223687566719999, 0.07056865692071632, 0.9116688299029, 0.1925706594114649, -0.2019445192511068, 0.6851909052260043, -0.5737808819524756, -0.6835696626399357, -0.386734219690621, -0.3113197203536943, 0.7075721521823086, -0.21187957788354242, 0.9966371877688454, 0.28171456994960814, -0.6091985692460259, 0.8485545917222682, -0.6421143170370536, 0.7237136762781647, 0.11373434280522471, -0.5595078822018106, 0.9132832092514259, 0.33139588521447755, 0.2690786298967408, -0.42255311683662433, 0.2892017693759769, -0.22471517331609556, -0.9269243710956165, -0.1482749310809607, -0.4824967986913147, -0.5878912999243079, -0.9689666568746951, -0.8436212738080593, 0.24021538730826117, 0.004240097838976365, -0.7830970397478487, -0.2495196259519683, 0.788872603419161, -0.5219531426545616, 0.5283419177122366, -0.7315172078108818, 0.02243158246127873, 0.0032665028065008736, 0.2593875525757004, 0.20656035990424967, 0.4694143822533018, 0.37486153904681213, 0.2344321879571545, 0.12295934357292279, -0.19916834485154916, -0.5576018736530726, -0.5738368954136441, -0.5483203754644168, 0.09603167318853434, -0.740680615487942, -0.2616368609853044, -0.3739616873453371, -0.841509060053012, 0.8268544750737884, 0.6476602291722239, -0.9062406383609015, 0.12008798761544484, -0.5177556308198138, -0.8965666262009986, 0.5714436617322807, -0.13747413953241766, -0.3627249312405178, 0.8753374226734212, 0.8521360910950333, -0.5614964046396088, -0.12872191819972484, -0.189090060041134, -0.7307493419681927, 0.11114092128108723, -0.6182783933816778, -0.041688248969641434, 0.3406373924032789, -0.06287821582979593, -0.5640979393381794, -0.639958958052487, -0.25114116469283665, -0.09264464358080207, -0.21018829156641808, -0.4424416679962129, 0.5773944969558407, -0.7209699814650952, 0.5287248000873008, -0.38829731708132753, 0.6645177063625158, 0.39870568360791364, 0.4561187408869625, -0.08685971112059711, -0.11671945359211924, 0.485591403306684, -0.786842650072997, 0.29239720400637786, -0.8363445578612558, 0.6946479429936028, -0.12371195406473609, 0.19606317308843946, -0.41438563731513245, 0.5844028882480186, -0.06032262400772446, -0.32128016840975915, 0.30719378320307095, -0.2258035213872518, 0.920450354325312, -0.9419328011502708, 0.6996352922729298, 0.756703258354816, 0.7217819496032872, 0.48069908982271375, 0.7968165109327684, -0.7846457187846928, 0.9910397848887172, 0.247385279058793, -0.09012260042531971, -0.47435880886004383, 0.9637458169012987, 0.12419098517849472, -0.6053316445167367, -0.5086627170519746, -0.0155639989754052, 0.26622494217892817, 0.09077188068807539, -0.7886399763943164, -0.8025220597315871, -0.5626271646143668, 0.9739721368697185, 0.25299704106451454, -0.8850475367041363, -0.09402722905233685, -0.726918188519648, 0.8192386055558679, 0.18950325959802666, -0.0656036980065726, -0.45860269061908543, 0.43933944125031127, -0.6146127070583183, 0.09749768147293902, -0.3402588478805725, -0.7082009664492852, -0.22261664604133505, -0.6442416956500545, 0.41501609060587163, -0.09710089563675542, 0.052237175675209385, -0.47002018757851616, 0.5317516235828603, 0.7445179684854366, 0.025739533067883284, -0.5226231283406653, -0.7461557236183217, 0.0024874738699438305, -0.7583547282813203, 0.44389271397471697, 0.06626392113999044, 0.2696309840089776, -0.1275398747722229, 0.6259901897541896, -0.8852570714162857, -0.9714869655996631, -0.1465643334787763, 0.18012719187596096, -0.9623636880731194, 0.009411560996595153, -0.6448252237941352
-0.36053215063238647, 0.46992310582117397, -0.5994102724639363, 0.38000564926194225, -0.014993526137856875, 0.7551703104682801, 0.5410396507799827, 0.3644345740524657, 0.6995930264177479, -0.17174725950473552, -0.016466285384512405, -0.8620321855925426, -0.026112173113945522, -0.8408278514780203, 0.21580292800574433, -0.635416079649705, -0.11069001198832785, 0.8871275609684244, 0.39584724689347933, -0.7559905410880315, 0.6989170028507333, -0.26716166634401123, -0.4757599463081812, 0.3540468695126818, -0.251147229969677, 0.9248495292804467, -0.832348195567513, -0.9862501176124769, 0.3162918791769958, 0.4986419719172219, 0.5903927423422167, 0.8782577891994834, -0.6815879966002295, 0.6982584738177046, -0.46949691993736425, 0.4184855850420946, 0.5623503022400551, -0.6008634041710299, -0.14140221234286005, -0.3662773165951534, 0.782521948653587, -0.20579826493024928, 0.35183410988115726, 0.6169105338875063, 0.025958151740135837, -0.14252922326943787, 0.23240432139967637, 0.21558516012616546, 0.6500750200579557, 0.016095666951439665, 0.5708466190296114, -0.26668751088067655, 0.5194023818075553, 0.25480653403385184, -0.732546569457761, -0.05993982578849142, 0.07770942705939267, 0.6808056117869531, -0.7160576792397036, -0.6610448806538786, 0.15805927133761988, -0.9019833041177172, -0.13060140365111653, -0.9967343885454546, 0.2806122446819897, 0.3993473662958563, 0.04708014811139328, 0.4906561055970942, 0.5046177276989668, -0.3729354411786204, -0.4357866712850565, 0.6990386764730908, 0.34777973294100467, 0.5306685534006261, -0.19742592572843357, 0.9668304058644919, 0.36837537338313264, 0.9377682618719507, 0.40053313954290837, -0.017822085626758206, -0.754375958758119, 0.135011749306964, -0.4026859866082511, -0.1718856810759638, 0.2310661636879471, -0.780480084881926, 0.8785691829793253, -0.04258975396787981, 0.25665251703157843, -0.2532016564916061, 0.44759370574745116, 0.5361764514202602, -0.3002116961812953, -0.963585404218971, 0.012731107153048394, -0.5052256035371054, -0.7384180052612936, 0.9634466738736908, 0.42241351829178614, 0.11281657927700249, 0.06343165990460023, 0.6379420868663409, 0.9405157426552991, 0.6267308300383408, 0.20088063000604758, -0.023666190208102452, -0.8435812764008029, -0.20531864326583477, 0.35611787675803763, -0.9430547620177906, 0.8245291992857315, 0.5901121843615943, -0.4018632231094243, -0.7598265085357985, -0.6822623548043962, 0.48368709148495115, -0.7092794881220511, 0.8211679723642806, -0.5824379716893352, -0.14408646809786246, 0.2224727207021571, 0.13914662178687953, -0.6057280847991174, 0.018360749690356504, 0.6402508764178595, -0.6484634049297927, 0.28229370690433825, 0.24854376186712193, -0.978186226102805, -0.6345850474518258, 0.7739633554429569, -0.20190609466612072, 0.17962511175784587, -0.9687436224037501, -0.6314245448018634, -0.2652542045195689, -0.23365163971940162, -0.1635576087510281, -0.34984793673419146, 0.5135524214361744, -0.4853739990543031, 0.7161109173613832, -0.39197188507738, -0.03821637476562473, -0.4875277158062467, -0.8513934549507272, 0.3334461357179035, -0.2803900329694862, -0.9663280851424978, -0.03175855424222642, 0.36332993153695353, 0.5354106203575133, 0.23691941247008808, -0.87505251001174, 0.6566731954468455, 0.7088251884836466, 0.466164586177158, 0.5211934533401681, 0.13352686346349457, -0.9566262744431454, -0.6988844426807819, 0.5933395503862033, -0.3834987823354027, -0.13071569578598993, -0.8791968358562267, -0.7409650949770727, 0.6806554848477355, -0.7784825485672314, -0.79452494043351, -0.044283004904300115, 0.346800536343971, 0.4071859394819709, 0.1266759382000711, -0.1962906162771137, -0.8454565397827435, -0.4149265959031783, -0.040010203151228656, -0.8736049410678135, -0.14839755455993867, 0.9323174139227277, -0.38736460958241065, -0.14112468910569562, -0.9747369190705438, 0.17213901436542245, 0.23833509605177286, 0.7774550834678744, 0.14055355190641244, -0.4817571422144803, 0.4475434672800945, -0.7294707724796352, -0.9702623115497263, -0.47796644506121655, -0.6227461818772547, -0.3212508982030074, -0.407463054095857, 0.03768988958453936, -0.3689304677027093, -0.6820901976405831, 0.27875227608150194, 0.21466635543786072
0.09349767331153627, 0.1581433850304186, 0.792844396133922, 0.972427235344561, -0.31845496012313607, -0.42661316444558206, 0.1213613379297263, 0.11578506362380633, 0.905945765958704, -0.15756071998257773, 0.2808388318436759, -0.3993665037303954, 0.917930441952066, -0.9516633555597794, 0.6801880369590819, -0.040311715890567146, -0.08405431425443011, 0.7350684985415609, 0.9000454317636818, 0.6974377255660886, 0.18709902032123962, 0.3014566653461234, 0.9876382228962881, -0.08333381405399092, 0.8349747066785455, -0.27266596825421485, -0.10969829962337742, -0.7285179353833479, 0.6024013347266559, -0.8539445170230398, -0.21404433915603063, 0.056788920868824665, 0.4912322343972962, 0.08347627606101674, 0.6153968691976508, -0.6758036893208905, -0.13741631019651832, -0.07716945646042676, -0.3589896690712061, -0.1839161739073988, -0.948414532388785, 0.7714274044610584, -0.48628791649195097, 0.5047554336328267, -0.7588929332680137, -0.8564030559432418, 0.6703590237316602, -0.34649271889428385, 0.32146429647064867, 0.8213876170334932, -0.9085096516307267, 0.7866654276809423, 0.17300496164962095, -0.0870722001033529, -0.7249222765796092, -0.2819023487609837, -0.7010490918644132, 0.7795623536413082, 0.3368915727425018, -0.813938456928832, -0.5310315108303756, -0.3136296323990505, 0.628704451312658, 0.9460137603270654, 0.9196306401505115, -0.7834879678257277, 0.09668111651528176, 0.17479622868740421, -0.18400444553057815, -0.3967523025713027, -0.8337976983830224, -0.6012286189294289, 0.6215743466958243, -0.19163339109116437, 0.47960198070675664, -0.06412558396471664, 0.40914788049839196, 0.08871775561854217, 0.9967848475015282, -0.05205481504625844, 0.10279923556352945, -0.4226878203159967, -0.9964126138880779, -0.592648304867239, -0.21515803168623934, -0.7824843928988086, 0.45881437523692914, 0.7296847917706233, -0.6245959080051293, 0.5092890907972836, 0.9416926816677882, -0.594197432873034, 0.9266502372581817, -0.8463083700014945, 0.831382400999242, 0.07559281794369828, -0.17241020388818581, 0.7025795604079682, -0.32407578701978634, -0.09011213740801609, 0.7271018147403717, -0.26702768852128345, -0.6392273038951555, 0.07471009228721155, -0.13060335404215379, -0.04969756916867579, 0.33897354689773385, -0.386683781244809, 0.8703691056801421, -0.46123690612553764, -0.6899298565741858, -0.3431624964440164, 0.6734318332375331, 0.19269882256300158, 0.8641016069326074, 0.2417191223209614, -0.9098609320027974, -0.45101796880124634, -0.18489122078150003, 0.8497276065471027, -0.37137908661196656, -0.2591792876909888, -0.8177866444722153, -0.43981153062541184, 0.9417767025077043, -0.7745929801411224, -0.12391626371503096, 0.8538457331930546, 0.6574264202660882, -0.34303624831844753, 0.8251086834702757, -0.9917066385833042, 0.250895036243415, -0.5326796185466919, 0.23784529206894311, 0.04004940060453262, 0.41278784857386797, -0.0006804991817519534, -0.9949978839116081, -0.18394888821654734, -0.47206597157447633, -0.7060039268204749, 0.5027756898120898, -0.10380111911242569, 0.5535326291256326, -0.048382889838989016, -0.6400228559720613, 0.43454487434578476, 0.11127985080920057, -0.03260612722159728, -0.16487116361490417, -0.6787679881037715, -0.007666967793094773, -0.4534350617589754, 0.5923938194673698, 0.6851870941170899, 0.7098844287147171, -0.425131197312532, -0.347610260016552, -0.4403842082076209, 0.41923543947842684, -0.664313987312061, -0.5049012214361304, 0.05117084354915411, -0.34725340540436134, -0.8638034937603698, -0.7095596715750924, -0.08607543214815985, -0.8646841931230175, 0.32701663366075123, -0.6643038833887219, -0.3048822531326128, -0.03581132557707453, 0.3634721167908336, -0.7374583390710668, 0.31173877957594254, 0.18240959780406632, 0.35011400794347797, -0.5317202104481812, -0.9134528017213475, 0.9004007423020444, 0.6773401543914097, -0.7546652608898259, -0.20956087647040114, -0.008100859229715382, 0.9363539250486219, -0.4116324455315694, 0.7550988369978926, -0.7817279231025459, -0.1333606906258183, -1.0001306625216282, 0.500956802086032, -0.7782234757833584, -0.22638068839638195, -0.4702082874286216, -0.6848998166004127, 0.8462369879276763, 0.5233877618352286, 0.6181859186319205, -0.5342862037989409
0.90998489982869, -0.20152302542848663, -0.718834434531434, 0.3239992087880249, -0.698327835686647, -0.46508041963097063, 0.9092589953311401, 0.31086076983888417, 0.5683734171817862, -0.15418592606211015, -0.018255478393858354, -0.056892110011568325, 0.7577137412206248, -0.7759174230342789, 0.3248043431316231, 0.984134809546832, 0.6776790406876153, -0.13451200250119902, -0.840866083749883, 0.850043558534529, 0.9033723419771161, 0.5346837188169883, -0.5675296670445082, 0.02779905796197161, 0.8013474059124222, -0.5577721611865949, 0.7470610576704954, -0.007387692015414851, 0.49653734545029465, -0.15676038200711637, -0.9977016141279668, -0.7647777437431648, 0.04010326708886147, 0.44991067516754313, -0.24496536583331535, -0.0005012173696193726, 0.9044227255574846, 0.345175678482256, 0.47074522973176397, -0.16212387675921883, -0.011755048838763292, 0.9469829556171814, 0.9919835434018655, -0.5495864551743159, -0.7519673806220913, 0.9321727523837156, 0.14767793388358902, -0.7010862172961148, 0.6882266718571449, 0.957858970185232, -0.6508759375498091, 0.9082303428780155, 0.7234189650059624, 0.8020010660418277, -0.15347532023075966, 0.4951392294135588, 0.7845840257688136, -0.6393085068834662, 0.2589856535459306, -0.9693055084302495, 0.2890517525884885, -0.8396833591745523, -0.457539281654973, -0.8117549753818519, -0.15349153928237436, 0.45788745751153526, -0.25305775590358115, -0.5320248462828493, -0.13181834598380532, -0.10132071354795266, -0.705301396004103, 0.3003131640797726, 0.8664366577416122, -0.9607867230165973, -0.5891427361797026, 0.6826506002841995, -0.10543263600635659, -0.6193904449554982, -0.760816192970073, 0.5923667646984095, -0.8677643580874937, -0.07336882745945446, -0.40331146435788273, 0.056434374268397085, -0.07952994568551616, -0.11321679216371378, 0.8298473888464678, -0.49324778222049454, 0.11766155472601375, 0.45432079088357774, 0.040847445145111315, -0.4235756952578014, 0.35320451056541113, 0.9462561095166016, 0.7615549036438195, 0.833403752221758, 0.31455971011907746, -0.19695608874824652, 0.03485886929488103, -0.41343405592415694, 0.20528988493542635, 0.8533944129404774, -0.9465263427172116, 0.6209145882355425, -0.007175225871680751, 0.21782674273278282, 0.324657657835365, -0.25716953757060146, 0.4839893362316889, 0.004525715061103045, -0.6414552597843476, -0.6885600467642482, 0.16632816400086084, 0.8754943817006194, 0.14538387924874716, 0.1584539207149577, 0.059880638250605404, 0.4912117991217317, -0.7545037147723498, 0.9426093185978548, -0.1529558751274191, 0.8898971501258174, 0.2001711059728893, -0.256121595060769, 0.5704676851141811, 0.053034509354574, -0.5270685533253356, -0.06389812849995995, -0.7618234589151075, -0.13038701782820286, 0.005626792905446749, -0.9254424028359557, 0.6378580470872289, 0.5943295388574351, -0.36020028679044414, 0.9648889961184579, -0.45876666734102417, 0.6915822480576983, -0.4163198558326786, 0.9091784115058782, -0.4578946784106209, 0.672256156625927, 0.48021015727347194, -0.5639296413046737, -0.705467610513532, -0.028853558664631167, 0.6072687068651454, -0.16910524819426126, -0.7949678906228622, -0.7031608964410317, -0.5121011176956554, 0.9528637729675988, 0.2610455199642503, -0.6110042391397523, 0.3009268840555802, -0.10401410919293612, -0.9905114612760754, 0.5838607218460894, 0.7737934537389327, 0.8545359721707536, -0.5702535779031204, 0.9651469615561069, 0.6860855021814942, 0.4466173329995198, -0.273884091801246, 0.976818386047595, 0.5701655042359627, -0.12356419659619407, -0.4828661380244771, 0.8420517354777878, 0.8118450166026877, -0.008626301695651001, -0.8639494412753504, -0.16753788768959935, -0.9687807091160191, 0.8358902801102241, 0.09861214412935095, 0.6043756441323677, -0.028574880413639876, 0.05464550333885061, -0.6207682890120311, 0.19033388697351333, -0.6609793356003374, -0.6645643238176308, 0.7940129031884361, -0.6985713772149071, 0.21598956334417907, 0.17679058582192794, 0.45489807869429316, 0.6395934623813445, 0.46497103118866107, 0.7339244530548624, 0.14049765624525154, 0.5691261125234691, 0.0697158172192693, 0.8679336129901027, 0.9282875035258211, 0.48892294242393114, 0.3726996888931694, -0.2965512512224951
-0.8258036048572703, 0.05417073832584569, 0.16676825379900106, 0.7438534295853811, -0.367765028681463, -0.8695407008384327, 0.03360740361705216, -0.4516142495727821, -0.4212945175557829, 0.7486488391716568, -0.2201674556882255, 0.4064115797305866, -0.9197574989882527, 0.5505347540083951, -0.05267631864199258, 0.8282202875936109, 0.9666340670584447, -0.8539117659930293, 0.19607415280591123, -0.5303735966582687, -0.08792789406574393, 0.5076267791087883, 0.2460743532633664, 0.4261512203537922, -0.42966450573956, -0.9791539304765405, 0.23944876200230888, -0.3944556206696835, -0.13967886738113952, -0.30483816836026356, 0.3781704008501963, 0.30803727364959976, 0.8371698707758617, -0.07213346168518209, 0.6598984532450524, 0.9946731634820881, -0.8676995052605417, -0.4143216500348113, 0.050865467919124725, -0.09784343269942074, 0.7981937153512345, 0.37878267493201534, -0.6208884775128161, 0.205402484343835, -0.006594162072408345, -0.6865951678890364, 0.3710065190481456, -0.554446768624063, -0.46752185316358125, -0.9726981462658763, -0.040648710948253966, 0.31542424300155614, 0.4670742181928436, -0.24330611608404576, 0.059576498775977475, 0.16596906359818897, 0.3341707540083655, 0.02873608935539881, -0.7818134890450292, 0.11177640557436799, 0.6947487412926071, 0.8857897930115803, 0.38427003826711986, -0.5863416812851416, -0.5137771797823719, -0.44214852933426113, -0.5042117611714891, -0.6997701079395942, -0.5073429787435042, 0.4504061688330056, -0.43012817373150114, 0.18122197625634048, 0.8205212945457006, 0.2729831280163633, -0.44670014104601496, -0.28189272852872305, -0.318263902111492, 0.6620212896507851, -0.23933765916045963, -0.6837379851923889, 0.05348610282739788, 0.9226822268744406, -0.8941754209729349, -0.7062135696897412, 0.5337241920244704, -0.8728473385800407, -0.4008887356068058, 0.3278220607242991, -0.4582116496218537, 0.0003705588984393729, -0.0077222990644348986, -0.6558949541769948, 0.26180345382702347, 0.9439649325771867, 0.8403094622790115, 0.44723375578868124, -0.8363654852106124, 0.5654556379000816, 0.275120857027269, -0.7392045613368201, -0.059814263843336844, -0.5265078389569879, 0.27070477085195443, 0.639885216899581, 0.8644918644282594, 0.5462831522986213, -0.5260005553195048, -0.40408173489670823, 0.2148524106741602, 0.10524618404979505, -0.1880273060576765, -0.9426427243317758, -0.6953872670178198, -0.29396661747455755, 0.49999543627571674, 0.3500133802882554, 0.8917853667577673, 0.5948924546624835, -0.9725873244442739, 0.5234369386917779, -0.37073923770362444, 0.544393226325513, -0.2398254600797476, 0.9873809271927546, 0.282955752752013, -0.29422644128341524, -0.4321378107515698, -0.5399349051948996, -0.9012610135853115, 0.005986867103907901, -0.784264922078074, -0.41587720168748327, -0.7185062711823708, 0.826503990195457, -0.2083439095548696, 0.9776551701603917, -0.40436619798437384, 0.49906114762761716, -0.30594139663871245, -0.12460555371206643, -0.5771762124427494, -0.3135886186131698, -0.5574048672051102, -0.853278013411696, -0.4197343334283796, 0.7546072389184352, 0.5491955153994118, 0.0636659812130817, -0.9184332546788907, 0.2454716519847272, 0.8024251922526529, -0.5627681890043157, 0.4053563382252752, -0.8239755886888775, 0.34159218802213653, 0.22445007409122897, -0.5460082918531183, 0.9896110091657364, 0.05525592704775397, 0.4984888073733662, -0.6975732279281708, -0.9386572307022103, -0.41319478815681276, 0.201288935508128, -0.8842778265788906, -0.09132986368618727, -0.40813542262390706, 0.5095159077186083, -0.5487701721533251, -0.5347524462496522, 0.8269302098856735, -0.03327373815345281, -0.013184554274742757, -0.6293369256254961, -0.49586442374244344, -0.3927061587196951, -0.1301687764725012, 0.8014830538544764, -0.021456712420514303, -0.8584172070351153, -0.20612133870497903, -0.19878782314561103, 0.05256899158759902, 0.7429263222958641, 0.5565056833455992, -0.26203420865014787, 0.9723600005523575, -0.3070846516783139, -0.6037163994099408, -0.23443884988308375, -0.8572839705616596, -0.6549871917923303, -0.40149678280063616, 0.7641389026828816, 0.001629490756246444, -0.05181974039402067, -0.25251937129570196, 0.9306555651940016, -0.47068303879973084, -0.39065664383597126
-0.5516595182899472, 0.9791065305088225, -0.6505557662583182, 0.12761460642688613, 0.3555577844723424, 0.4919349486560059, -0.04201563650840632, 0.832238678947202, -0.13069452111898636, 0.4199481312011252, -0.6049006114961956, 0.399889345796783, 0.6300782553897754, 0.5721867776727357, 0.7629546011079256, -0.7501394824899941, 0.7675611504578598, -0.6413088323255091, -0.7741391823545274, -0.9644547250132035, -0.7460354227517694, 0.5940648451479541, -0.8767065392045367, 0.1231846819866923, -0.3326393946720462, -0.1120029227734954, -0.2446431965846846, 0.5178415198797318, -0.23711943384768783, -0.310845431295893, 0.2639439246999183, 0.008007283549378515, -0.3895399471338502, 0.5302919461481888, -0.22852792471032976, -0.5981709568818402, 0.21712810914029576, -0.7898810693407182, -0.8769848237737111, 0.6636409844360219, 0.08815438496593812, -0.7838585499391759, -0.683624998862051, -0.029654050161504363, -0.3379839610737196, 0.5348714865748839, -0.3315824565833428, 0.23632070324163565, -0.8229491955447418, -0.523853175783992, 0.18593172054374932, -0.8408583854157471, 0.9308701254556272, -0.7514182315063549, 0.7812889953942089, 0.9798137768885288, 0.2891051579409019, -0.8427181103057345, 0.33259579217546564, 0.9977187481806683, -0.4831474317230607, -0.8401291522064265, -0.37328396896823357, 0.4501796232711489, -0.8707293952232201, -0.4702170031330884, 0.226057941965949, -0.9066772116889181, 0.4647060618264048, 0.6067592870799934, 0.11230296049284831, -0.258365133393064, -0.47565917855275575, -0.34899986761289375, -0.5402964246352646, 0.12607355459984707, 0.15093052942497748, -0.6127138207480426, -0.4912156523390087, 0.10669532305693512, -0.3229708397450213, 0.9994912240624441, 0.25235748655634016, 0.040291600266980136, 0.8847783611399308, -0.4182233256192529, -0.39057231639362255, 0.5803946712243987, -0.6671839078382822, 0.49608894411959625, 0.14775394481684093, 0.9776622071654215, -0.9261817272199182, -0.2195216409958898, -0.3148759521950546, 0.2620516997667019, -0.08930291579331669, 0.8307432917851958, -0.5518750669354816, -0.5505539746717208, -0.05946424163320294, 0.6808009636660834, -0.5801354550791984, -0.470361268405167, 0.24468294542002206, 0.195869175485978, -0.520916463755826, -0.6328737782870905, -0.765375358059384, 0.20261033335832143, 0.7293953267590039, 0.6226006523751297, -0.7845537020175586, 0.3683194374942584, 0.9967716620745415, 0.6448602654825981, 0.4262925242270068, 0.9001534615654991, -0.36134974414757753, -0.22378381249070847, -0.09899431370777097, -0.9630955288608382, -0.8080043772154841, -0.42788836122367063, 0.38897318411610365, -0.6789393439491919, 0.0585627408947739, 0.5938459600416288, -0.12252482780174004, 0.4421625677993796, 0.016654624771176227, 0.07002576982073179, -0.4537128665073618, 0.5218995962491373, 0.7020894406712418, -0.9131587106211724, 0.0740386680180855, 0.3073249269185582, 0.2129965606025418, 0.5434328392585338, -0.5266901176398021, 0.25660324048095884, 0.4900413589355604, -0.9310812468651305, 0.35133030894016704, 0.992280759642828, -0.7170347468602919, 0.07643176084357871, -0.33632204539751503, 0.19941493323032358, 0.17048073996109978, -0.19781186440031215, -0.872798568749811, -0.15206908619472428, -0.23578919852946045, 0.6827054765031847, -0.24744154431855647, -0.45800279498172525, 0.30550534477919267, -0.9334644174289797, -0.14401438599228394, 0.44663099840156634, -0.4125085649586005, 0.4482314082006383, 0.399895964128729, -0.8822181055708154, 0.08956141181841533, 0.46977158345117, -0.8106366759468232, -0.16857266046955563, -0.8218776650873184, -0.07318972724685067, 0.26145622288489, -0.6394934299534172, 0.31028568553555835, 0.39144975611208926, -0.9827160221419284, -0.47764636123720555, 0.004381617096376682, 0.8108057639871534, -0.18328765069687536, 0.9727705430264761, -0.7523722994110621, -0.5727137536662039, 0.9595583420370905, -0.7828547799329141, 0.12276637767451697, 0.18767230344103325, -0.12078965034662001, -0.5535229415005268, -0.6653369653282717, 0.7916214391946174, -0.9208422258784424, 0.7951503288602896, -0.4200417757864451, 0.11368425612119805, 0.06518426710747273, -0.41780877059762606, -0.10474539659008948, -0.867570807995397
-0.8596302921345976, -0.48088506685744964, 0.5341958341481976, 0.3390737645068411, 0.8843073248227041, -0.0019551996939118983, 0.25235500784978615, 0.2864161446646803, -0.7104075421924114, -0.12662324930249616, 0.2187996206623799, 0.4564831704337283, -0.39741330185756363, -0.8680212464671901, 0.24312959020701652, -0.040635009949056236, 0.0790648574582969, -0.5336547584816992, 0.200733666861858, 0.9343264966315122, 0.15140966893507615, 0.09116331391498508, 0.5851760346620226, 0.9054621179832476, -0.9539439898837453, 0.9670048108988659, -0.08032201256787963, 0.9074845519928649, -0.9663965120632283, 0.9628990866105528, 0.027062374715740016, 0.09402237510350722, 0.29079379468697186, -0.6112499993478556, 0.6320110657697137, 0.7940426313909923, -0.31712145703671807, -0.4920131197754703, 0.8473370604922826, -0.5725301466859983, 0.45722574319997467, 0.03721134335086162, 0.4384846108204762, -0.17789261140802984, -0.6725268796899998, 0.13354869816450518, -0.9508750038505397, 0.12269948313188227, -0.5157691379877815, 0.9389788128235458, -0.7156459508014346, 0.9729496008316814, -0.9824510897456141, 0.5821909534294857, -0.8252278132463684, -0.06060885328125138, -0.28068861431556064, 0.09695161554860465, -0.654368344226777, 0.043518519398044415, -0.7519668303012139, 0.5858970528778524, -0.7438188907404354, 0.6266236847925208, 0.6910814827376768, 0.6882782795815311, 0.8363243296068648, 0.06295346647422724, 0.2683726162398822, -0.41499014409828083, -0.11935895815921205, -0.8609776262356673, -0.993052658442099, 0.12510693101089568, 0.7100079891169288, 0.5891749380307614, 0.602738038796898, -0.35422808348623763, 0.6132529447420181, 0.9788407920668079, 0.9503936320107298, 0.6644750404136682, 0.12586482108712263, -0.9991652526125426, 0.7530000147043817, 0.5220439015844829, 0.22748014608596162, 0.5461274624761243, 0.05989856289261187, -0.7433142067390963, 0.7444299813012238, -0.7389420585206841, 0.4545293397019337, 0.14951220725685174, -0.28175405235134804, 0.4840381400934553, -0.605050117965504, -0.3888352764685956, -0.952755244544461, 0.18657099719668868, -0.43635290707918717, -0.7510335153870984, -0.9423163417769839, -0.21734283007664176, -0.0668304324590773, 0.7930084776110892, 0.7688594612299845, 0.6470761423035606, 0.902792003769668, -0.9392119590244602, 0.5590486744360615, 0.020609045672315973, 0.3329186294631692, -0.4422579839516961, -0.6664209410278924, 0.5764315273751207, -0.2463865590012636, 0.2066550635224054, -0.37353174108317566, 0.868299984038618, 0.9256266446530489, 0.2655620653125803, 0.04873977607689575, 0.4998751108020802, 0.5916012386747004, 0.3374553034412834, -0.11383301622165333, 0.9733067537602873, 0.5198232894034721, 0.0775085929986358, -0.20693623061967387, 0.10720148211895744, 0.2704106715192447, -0.7539709817923582, 0.827136226802154, -0.8565926907251322, 0.3646050783585147, -0.10659871202646908, -0.13288000121623023, -0.6428307985092812, 0.30847018361138545, -0.07566324367340801, 0.7809012187362514, -0.3419100464442685, -0.2119365971718825, -0.18209042091769506, -0.4120235910537275, 0.33000781044727173, -0.9912691841658229, -0.32310329763553314, -0.5547918734328067, 0.06492118692811537, 0.4885180592550522, -0.9794266726132784, 0.8244501911350786, 0.011383097936438156, 0.5515652188849179, -0.3580538505056176, 0.22572502578900078, 0.3759800545674414, 0.8671133577148381, 0.42437235301163967, -0.22269664817998738, -0.24280954069882002, 0.606621691725145, 0.6262242891347409, -0.4231377165497581, 0.321401252259332, 0.577919445709697, 0.5993855142552859, 0.18881498638010913, -0.19954007525430756, -0.3479917716637185, 0.3008748643497214, 0.04884607399713493, 0.4341045102081373, 0.7639439581740388, 0.1885123078139986, 0.48810925476945, -0.8858526010753391, -0.7881204673785972, -0.7096902288676302, -0.39943398221368437, -0.390797866766444, 0.4322766567853705, 0.09036242017781247, 0.5972345879085434, -0.8998577414107175, -0.010888471066851552, 0.8088326324582985, 0.9272552057855389, -0.775426517463287, 0.7484631109657844, -0.4725052407051102, -0.34230037347981496, -0.15831086389933854, 0.8215317142283237, -0.07346836611593521, -0.509821690635786, -0.9501852234948703
-0.13168938572427133, 0.8194030619348182, 0.867477597293638, 0.22652786156966623, -0.003793254187903958, -0.2549338019377721, 0.8565919678276077, 0.7266244036659294, -0.9544226303892538, 0.8318280617781871, -0.5504229180714233, -0.7546851601207121, -0.08304388523279144, 0.17724709006028905, 0.2867793011817663, 0.5084119137742956, 0.950697396906844, -0.9713664573266119, 0.7905618633278851, 0.04407271545688846, 0.37321735477463747, 0.17617272955679136, -0.7106229279177055, 0.026468655362870373, -0.12966513976211405, 0.7586224178082454, -0.37430404149658275, -0.06932501361649558, -0.7654763760632453, -0.42710869245692384, 0.5210636870158785, -0.832447115386683, 0.2305272711705682, -0.7231260268596403, -0.31564274201691456, -0.4522917184681104, 0.7005193840959133, -0.014957799908726937, 0.8030040475589513, -0.8481794332289346, -0.20001955595675097, 0.9430264841649034, -0.05212719157762145, -0.13567610781566977, -0.6419841934822647, 0.621642413053163, 0.32580640571738717, 0.27644603904686177, 0.044690295492018924, -0.15912847172882436, 0.7007136322337505, -0.33990982086305993, 0.9994776692390038, 0.22452886776134512, 0.9195904257344939, -0.7809882615529329, -0.5243805442954693, -0.4806234231995396, -0.9519037867766315, -0.8076213377802984, 0.6123285729372481, -0.18811292374772548, -0.42547426285585305, 0.3961975172399833, 0.43731642283923067, 0.45741250681645973, -0.9945751805428008, -0.8221016856977538, 0.5066870443132787, 0.7382879763577123, -0.39540070334864036, -0.13080877121850493, -0.9001299259818099, 0.8537635423441877, -0.25956471216581684, -0.09199459679468233, 0.639352680796163, 0.11703303425764117, 0.8460056353708277, 0.2187855118968922, -0.3845203596073575, -0.8246979358758337, 0.7953287452175202, 0.4839344517944122, 0.9336666477018128, -0.5144540855232295, 0.4301231402757735, 0.5784827203409258, 0.7744901444833869, -0.6658308764953853, -0.40266762319313215, 0.03957129317408947, -0.3506186234445865, 0.29768108138279653, 0.1885649357223913, 0.32224380788958623, 0.275721231094984, -0.4563932728218417, 0.04427610208867739, -0.5500190325904756, -0.45196201773928046, -0.790053118231972, -0.9636265133767487, -0.7684953597180928, 0.4766324362065742, -0.6719204784682741, 0.7029493910311964, 0.7423832455267688, 0.004007941885792679, 0.9991503086854673, -0.14389179776659916, -0.010182461889892466, -0.8549643916488103, -0.5155515359142111, 0.5525470182771688, 0.027234870895861095, -0.6819381492265933, 0.3068636611712601, -0.9945723647753745, -0.974020185194073, 0.1381328407137851, -0.45975702874319074, -0.5532221060939605, -0.33132324937093843, 0.5516587098156172, -0.6462608906709453, 0.7107357424561491, 0.22614743135311294, 0.194008175638581, 0.8594482901922389, 0.8010893992715018, 0.6266942612608145, -0.22223732857572287, -0.12417637874775067, 0.8437420842348781, 0.5665854486724133, 0.6690209844731094, 0.9737368268149802, -0.13724093816127275, 0.7363749646352613, 0.4115100399362164, -0.807118097347599, 0.02123450607630629, -0.6966634749258176, 0.9967962881992989, 0.4644134039798231, 0.5651384817775507, 0.35822900463242424, -0.122299288551165, -0.2769002355379242, 0.46500668629367914, 0.49101786382980867, 0.19326068236891644, -0.678157210986625, 0.5020888405727608, -0.4175849577153778, -0.8939778759030407, -0.9475780145821349, 0.9148039002057097, -0.012485366491713923, 0.8272140300958025, 0.46294301851329034, 0.3698948212873648, -0.18454082300452532, -0.4407808575864351, -0.6551345894764383, -0.157490227069191, -0.24252887372531226, -0.9653598388217404, 0.1734653775349182, 0.618359483137429, 0.2682947356363357, -0.07055215141627874, 0.5550524788763892, 0.5458350209308076, 0.42110257758010233, -0.529673920277637, 0.6133923520185723, -0.9744286203131517, -0.8453218579734868, 0.8165170598979248, 0.7035408611279568, -0.6169210638948774, 0.6998078046073759, -0.6611599045592087, -0.5125816676537754, -0.5826113151591595, -0.7369843550550677, 0.6632014858748411, 0.15316092917372842, 0.520555753454638, -0.054118147563006355, 0.6233125747296041, -0.9652164091285625, -0.5051920120294587, 0.280793123157638, -0.6889605138791698, 0.693616550570714, -0.7663764998778809, -0.14109904081358846
0.8498023090576433, 0.6126270953148594, 0.9428507667814524, -0.7305591372537963, 0.09522001860548016, 0.9693890180304487, -0.21156862658255596, -0.6857513047193381, -0.714674132787771, -0.5577572353996308, -0.5826238041805788, 0.373607940332248, -0.7105345072192881, 0.5896841881139668, -0.2004482634471827, -0.6103356488211263, -0.7839793397299283, -0.6411696861349726, 0.24356564312977916, -0.9236445385559295, -0.04578988402156635, 0.039438815116952124, -0.7192793379388646, 0.030585491098178933, -0.18384162849427382, -0.31775692525072297, 0.03917378164799201, -0.5365668448165031, 0.06088013656608213, -0.9530643139066232, 0.8788815277851588, -0.8670769608236467, 0.09976353878992236, -0.9122381519879273, -0.5108168628155593, -0.8845016213399038, 0.6565800193399681, 0.05691197964940012, -0.07337810360408571, -0.37670296078380927, 0.937105820094319, -0.8704713128039236, -0.8461620687029183, 0.10017384781082689, -0.036612212439041475, -0.5488592256627585, 0.8357475550975945, -0.24031443406921807, 0.920513276788896, -0.48777728278534455, -0.26270110506842737, -0.3080988926444143, 0.22604695286186544, 0.10349989411270057, -0.03608136922683804, -0.30746051580781975, 0.7667835133317907, -0.3935992167478891, 0.9664870435925919, 0.3292339465823634, 0.19754943276808376, 0.8924970190195414, 0.028109251882876336, 0.8194607835621018, 0.17493858421676683, 0.8884068688464605, -0.9159172935184923, 0.11208873535927161, -0.06507490670463076, 0.9920763781998146, -0.6404201000815901, 0.9634560611790556, 0.9196652210361531, -0.7775378727420652, -0.4676070485718129, 0.990779222310781, 0.21418385653136615, -0.07132743550979784, 0.13790065472152543, -0.7522758608425916, -0.38613478356593417, 0.8967243736093423, -0.36496009240385135, 0.1646434595023326, -0.46799198712264306, 0.8222575689514462, 0.5140512614622662, -0.0355116501475409, 0.6311939428663161, 0.15917766028761549, 0.7758898178020386, -0.06172085956550414, 0.44180520702785064, 0.9088675037488073, -0.566927888694776, 0.5252682548635154, 0.8179726929846595, -0.7010354471964058, -0.7995863667270241, -0.32158348139194026, -0.16047958955875555, -0.09419589418607868, -0.5214188506943288, -0.37130534639558826, 0.5844217896127206, 0.8831499012660321, -0.8465777785985583, 0.38483740685697426, 0.3162582150780534, -0.33260977633345884, -0.8163107707072117, 0.30543683351318063, 0.36389705421938506, 0.23692497696715312, 0.41354864142980813, 0.2127541250017515, 0.03840155920319926, 0.14787751717584185, 0.4045470893385259, 0.976375619738002, -0.5983288012239, 0.7165967535041343, 0.14210638227132744, 0.30069824894236774, -0.6343302600586064, 0.24915998226035152, 0.15554012992456542, -0.5403529327671935, 0.5599989456708527, -0.5903129768826519, -0.2910368859007666, 0.41989058452247185, -0.0430396819723078, -0.24951623249165567, 0.9039360602993263, -0.663498950577844, -0.7629422875825723, -0.8606214233720507, 0.004906128059589649, -0.526383045398173, -0.014885423092465, -0.2406274422913283, 0.6855549379258514, -0.7044230146598526, -0.3021629575765443, 0.9139958811266007, 0.3526794681748268, 0.7483007500867305, 0.7023600738129265, -0.6874011887882272, -0.4681191090703654, 0.6447054765343398, -0.5058792349636909, -0.3088088188074335, -0.19813032037580963, -0.4170601825196997, 0.3931830664785675, 0.7262955315713365, -0.4169856155637308, -0.42290980556487706, -0.8551785894781201, -0.30237732756087826, 0.7731085273059893, 0.09008848294273092, -0.30684013584258246, 0.8926767988632922, -0.48931872039436053, 0.602607260462119, -0.638267094097754, -0.4950073276881171, 0.9028690262195094, -0.9250090238560484, -0.182400610081981, 0.7342701461078536, -0.5249938039900651, 0.0379993044686337, -0.0022402039780785466, 0.9704114825727996, -0.37387191323568636, 0.9962421484693602, -0.49958361364759946, -0.32348858386443674, 0.07537184213921083, -0.3913105576725186, 0.8716449168186083, -0.06489534976497546, 0.9607703987408877, -0.8513006963933687, -0.28992537053069606, -0.8192400602616314, 0.5999062564448744, -0.03487515392582972, -0.7610559100729194, -0.9507605807678724, 0.23014238152226763, 0.5515000422395292, -0.4106034199052274, -0.6465634704698507, -0.8926950632071349, -0.9776805781718579
-0.679748203748869, -0.009325399991516228, 0.057269743479167495, -0.35982862757077266, -0.24895085069349324, -0.7176195418594069, -0.6645784950494495, 0.4016369357443725, 0.4658730213163499, 0.06901073654125928, -0.7569719607963152, 0.0038747561324181333, 0.9124775931815329, 0.8989443883823044, 0.6066803614005314, -0.1552847630713331, -0.5589977305923876, -0.9566252202161415, -0.5924152244190768, -0.22289995480335661, -0.0055357748327375805, -0.6924266256507, -0.523270870755427, 0.8017326260741127, 0.8606487438449342, -0.5337702390589413, 0.5054549256686495, 0.4384412178802068, -0.8678751760694556, 0.6148255600145885, 0.36515399290981804, -0.36143624424282433, -0.6647845435580964, -0.8413145261631861, 0.48831363557222945, -0.6664580536726591, 0.652565430390362, 0.48978159788454045, 0.712995355390457, 0.4055907917946838, -0.807603855545302, 0.4795541401724766, 0.770287334242259, -0.6667515466279507, 0.8788014828334999, -0.17074409252564782, -0.44502112234668567, 0.2326636079397656, -0.7644580343227564, -0.7710740631687831, 0.9274920372049513, 0.4480072574956702, -0.6902529032929744, 0.5088473704888521, 0.3040073255878637, -0.23063661550715644, 0.08719331259288536, 0.9700217057576619, -0.14314529024536496, -0.5290542139789649, 0.33651708430245236, 0.9697859539520934, 0.8011745172421946, 0.8742183519138845, 0.7183783176291114, 0.7502377047364369, -0.5306720672845993, 0.2629253862251314, -0.9741258372291554, -0.6357161117401634, 0.6230288250573015, -0.31127837092614674, 0.16682571836420607, 0.9748557042034, 0.2559851025358612, -0.10887634226437302, 0.6213209853604301, -0.4695776963789355, 0.7741577099848314, -0.15323632712609778, 0.0013144127568761345, -0.27392702508492317, 0.9980855083669743, -0.9291669989817531, 0.6272090302812215, -0.03002304671270737, -0.9314029792508659, 0.06771616180552627, 0.4702111649850529, 0.22826697702007331, 0.35193897025538234, 0.04835564019024408, -0.16971926344083385, -0.7631011073053031, -0.28739133672379436, -0.430104959444774, -0.23696000222200325, -0.4914995044738459, -0.495761118932403, 0.2799241065555, -0.895817221907839, -0.7991799758063471, -0.6017719247234136, 0.7499181366590127, -0.9397144037756395, 0.4910360434840757, 0.8260234455186839, 0.1472667034832451, -0.47424606006021286, -0.18262949128137623, -0.8962317572861083, 0.7634623412379992, 0.10451939654525699, -0.23300476695481093, 0.35582233208711633, -0.3672375145007896, -0.0007166794233659788, 0.9970700748706025, -0.6658857693692538, -0.7184687132312341, -0.5299033298682212, -0.22459733372090138, 0.8576952030335551, -0.5237651050236906, -0.5806957235731753, -0.6773922232961825, -0.8897715202727718, -0.8255882980139463, 0.3852445725899838, -0.8002133545959053, 0.7229287211323492, -0.9340736313606829, 0.8601111140539117, 0.18903210580224547, -0.11585074341512362, -0.21986059835306687, -0.5010054033433978, 0.8876262940064464, -0.5853442747239569, 0.5911816960886411, 0.8279571900569267, -0.009989891847628019, -0.6395613338392151, -0.8291382691036792, 0.4827910021544711, 0.8077876660159434, 0.721171814383508, 0.6070550418491585, -0.25564536830151335, 0.33973985163210174, -0.9140938742265542, 0.2763479827680068, 0.1472322089832587, -0.8489843707676388, 0.7284337013846117, -0.9011477456489029, 0.9101566003897112, -0.8176971182378379, -0.9521894414436702, -0.04584017858745886, 0.33927385688705247, -0.25307690409895117, 0.18956435800751267, -0.8924600618329351, 0.11809631977291019, -0.5851897578830133, -0.7173435044647889, 0.015521975756702305, 0.5149871128590259, -0.3119622581491105, 0.12359338558076276, -0.17788722398922313, -0.12027293098290479, -0.38577364169413925, 0.42833320608020026, 0.43066534889329805, 0.6806253011538521, 0.7457186330651979, 0.3260922625764927, -0.4297596212985636, 0.8726068052349326, 0.5874307711239709, 0.24433454874624316, -0.05401658054896805, 0.6328033510799517, 0.001270554688427746, -0.7916733353259947, -0.16838175508909692, 0.6933872476746842, -0.6144292500700845, -0.4391146036360703, 0.6583342393671707, -0.6768252432653697, -0.3370185586539215, 0.31430059963057677, 0.7103937803828047, -0.9550897018768029, 0.5892603074996964, 0.1842582461183342, -0.4890485357165791
-0.049144342786674386, -0.01788714960621259, 0.8321578717679824, 0.7793152342861065, 0.21923251667124638, 0.5789650481040541, -0.6029726630005603, -0.8673988553826951, 0.07044857564252337, 0.6404205323146747, -0.17476589913555132, 0.9165382654343118, 0.9299493920969584, 0.7789488263417443, -0.8628209501133801, 0.06239911558481611, -0.2900861649514581, -0.17170625325202454, 0.05786933522046763, 0.0978737015799779, -0.10568990321120891, 0.16865962050751981, 0.4963385597293254, 0.4798558341330904, -0.6185872067563597, -0.05929993843107442, 0.08108949067422802, 0.08105802011460618, -0.671710663196848, 0.29034668193548235, 0.7142816665821914, 0.6953081256114431, -0.9847599207538228, -0.9868214042032686, 0.21452342434854516, -0.8515491510920699, -0.1594731053831023, 0.7604944307285803, 0.9080920207123965, -0.5668257575904383, 0.31577000710550934, 0.06339510670075282, 0.5541152507834125, 0.8283976731509873, -0.07669648729333908, -0.19161518241952363, 0.5272159137978698, -0.3365518546279856, -0.8169675742408089, 0.9437587285243542, 0.10793193218523889, 0.8359504848373616, -0.4038166197125227, 0.7545930829514387, -0.20661205027795554, -0.2640981630281944, 0.5307639928454033, -0.577870030807537, -0.19066521519600652, -0.748470407645328, -0.22670416198933058, 0.17682818754351448, 0.3079350489868873, -0.19955906203726934, 0.35174031960865976, -0.6090926843616383, 0.738687407148803, -0.6504340819717829, 0.6735359626963163, 0.829864235257008, 0.9232274003184852, 0.7454756762407103, -0.5062336261237663, 0.08981530908422694, -0.8785175283202907, -0.6858681847851661, -0.8517502080113004, -0.01794303169487003, 0.16442262877896618, -0.7364206196051232, 0.02847077136421916, -0.8994488916406984, 0.3684358613791476, 0.5869492382915582, -0.3851400937543237, -0.6774358539700425, -0.40355421027701405, -0.6735689869578229, 0.09928381341238703, 0.11875256066592901, -0.13863390744325937, 0.8396718239873376, 0.39373480170718755, 0.7649963193956503, -0.24026150805048715, -0.4531859260052523, -0.7303074582196754, 0.8678863251191261, -0.37542377816398287, -0.8393466034335021, 0.7423498269107901, 0.39531152455039853, 0.6472572093806256, -0.7840475708896197, 0.7322261822465355, -0.8593431213188466, -0.9527060548419386, -0.5505524736234858, 0.7143090913273148, -0.9713320975347218, -0.4928146588590507, -0.048558789061147044, -0.4870960266039261, 0.22272773579461844, -0.2938351409213301, 0.18791503621995972, 0.0783235559314329, -0.16375273961161962, -0.8998849008756125, -0.7542952433567404, -0.2931875098424508, -0.26500929388082434, -0.5123962104931281, -0.7890825594925989, 0.7858236637762019, -0.3669496405622847, 0.5840122011021885, 0.175694121128782, -0.43545261305765415, 0.9265987646945645, 0.3171199355191717, 0.13640861807028454, -0.02134013153390795, 0.513328471772768, -0.589759756437954, -0.7617289823276993, 0.767457220225873, -0.4129469921351272, 0.5872681970614178, 0.2126741085826137, 0.4629001170766814, -0.7986176248226712, 0.6257297173251556, -0.042825036375702216, 0.5497433433240752, -0.7627478409700557, 0.8958945677887478, 0.8921826740972524, -0.15984511179064131, -0.2808275948876634, 0.6869965751139858, 0.8169229498488264, -0.6681453022608089, 0.4767868712173094, -0.48870568436303496, -0.09689351859891304, 0.15616786810404315, 0.5293691009367394, -0.23207630741028076, -0.4123237717551695, 0.5210361922156957, 0.3015641392153962, -0.2916946789028813, 0.8605323178570549, 0.6152883431259273, -0.02049699331563374, 0.12721297651869382, 0.6996970908569458, -0.27983251371347795, -0.9641000116242312, -0.6810254723842318, 0.28161774604796846, -0.8199861093092208, -0.4849106045571765, 0.06457061787153098, 0.10967100983349588, -0.2810489749007677, 0.014765386759564108, 0.31224975402266514, 0.7985804922780787, -0.8853057776423252, -0.31273566358373706, 0.7450123853519856, -0.8819955135626305, -0.15150374956011364, -0.5662521268646528, -0.794216669764464, -0.8213791320327765, -0.1375115628178042, 0.12302532517847087, -0.2570610027506778, 0.3296160608936195, 0.11743055125660057, -0.5411540317028909, -0.49269755031072826, -0.5132630044391986, 0.7905210456880011, 0.16423064601069742, 0.7354471372038743, -0.5527878004063898
0.9083738788800927, 0.2997124277770514, 0.5442863467765304, -0.45192625983932044, 0.6370009082520812, -0.009412881775273812, 0.6671590885986545, -0.257516469577064, -0.22267434552442963, -0.08678657922041012, 0.9293662240179386, 0.15778006110844392, 0.19407553051010765, 0.9661902737889467, -0.6267539279723403, -0.5733070022199629, -0.7462189691021733, 0.04970344762279064, -0.9117454026104911, -0.8545327704223238, 0.7132134057905539, -0.43576744927248384, -0.7824819756853001, 0.2902360688409542, -0.1860529077779901, -0.08975869275559109, 0.13266743664863812, -0.2580070917981848, 0.05461829969017003, 0.2213573871713304, -0.7070475353127526, 0.27051997379974646, -0.46431582769431495, 0.25098721060349866, 0.37270678170086946, 0.30081896935999897, -0.08153401715128193, -0.407321720679698, 0.6130486336107825, -0.2659686409172764, -0.9411621599228425, -0.5848663605011147, -0.3451243065179874, -0.6462325377692296, 0.16484677344395904, 0.6078013088717339, -0.33242689057865205, 0.3540471317640156, 0.10376779400518406, 0.5337005645171364, -0.5186556315032428, 0.4003286828399339, -0.11555767533589381, -0.7582523490387695, 0.21806985479577737, -0.024355938232548006, 0.13716565960236027, 0.038523075764776024, -0.01698678745388684, -0.16492372155754617, 0.04882857139104381, 0.6010430221742222, 0.05306345558034506, -0.616245814604759, 0.5115473764350471, -0.1103533020439985, -0.17434035073088835, 0.9900094543529113, 0.41273055942998016, 0.9315123974515177, -0.5865620772242695, -0.3912380576628021, 0.4903940086760329, 0.48748563530043826, 0.44323750902540365, -0.8202941512435378, -0.7888547415402786, 0.13723853756035256, 0.5949822052831958, -0.8701103663165548, 0.2849758073349204, -0.6006892605290768, 0.618214736157145, -0.43518196374397117, 0.28887706330437574, 0.02018382313352533, 0.8298103523691003, 0.3722839351394838, -0.17766794509469602, -0.8047170470472379, -0.24839066259022302, 0.29025897331343703, 0.7966348000851331, 0.9431506015107007, 0.3148439009779907, 0.15178202870964783, 0.07889943337555781, -0.14202464882546334, 0.19132281446171273, 0.13785688808860125, -0.3373629169012768, 0.3186156553591947, 0.027711768957009254, -0.5970154241912573, -0.8635659568712675, 0.30596277772869884, -0.12046189045335787, 0.9722995037207618, 0.9444119684837123, -0.6646492670112012, -0.8502641266649893, -0.7358840518139597, -0.5389886338411181, -0.1667053770914191, -0.9989985443654582, -0.7897649281037821, -0.3082549047533843, -0.9027378661579474, -0.05878385023502639, 0.23773020120553406, 0.9601944552751716, -0.14825099674641795, 0.04353140224935051, -0.8795159851310856, 0.9942135060325209, -0.9679176806287935, 0.8797765003689562, 0.5191657949173563, -0.835511095857145, -0.3122270522232889, -0.5492214787769901, -0.2455779803863723, 0.47742121278046773, 0.2696301223246474, -0.7696479258657128, 0.22416591972062241, -0.5699657609487262, 0.6267590318806283, -0.18643988378732862, -0.8957206180131077, -0.1996756347181693, -0.7597963742615291, -0.6829359209914302, 0.06516164766009627, -0.2641909201363041, -0.7650110467655928, 0.12232085802830123, 0.9535108129824548, 0.3929734241760741, 0.6876942842256023, -0.4263337879364201, 0.5242542940339098, 0.19360083588491114, -0.04864316920477098, 0.48327172370431437, 0.7194168311180723, 0.48218460831965737, 0.048363842463921544, 0.35227996176949605, -0.7325261887859265, -0.5743117372867269, 0.6552948910487325, -0.6628878138888948, -0.11316804907404172, -0.5255122366666848, 0.10385441821872546, 0.12424331589407674, 0.6872160072859458, 0.6800593518329241, 0.7186449119718309, -0.7507554120513906, -0.4433960619322594, -0.6597871310676898, 0.32476273597442684, 0.7596050995371545, -0.926187045732322, -0.4428477708168085, -0.6993764172310433, -0.1445848943762263, -0.7732003878616894, -0.4136382726584336, -0.22208136317950405, 0.5017943169208137, 0.06233083516039134, 0.4143196748063679, -0.6878177425316986, -0.17510677510638337, 0.1020459150797104, -0.9712267310327445, -0.027243278498547265, -0.8302289753715892, -0.7734711956021194, -0.7888747840726452, 0.709379207060758, 0.19956087209347695, 0.3679564830671615, -0.6753620875220231, 0.994540519834195, 0.7466772991843881, 0.15090012038144524
-0.7063906659381726, -0.14139412265328166, -0.09545473835234267, -0.7402447742019477, -0.37519074587872053, 0.27103353841278827, 0.9697968594279699, 0.7021082760236715, 0.064962311740644, 0.6107613617401879, 0.9956821624122679, -0.9696300427701137, 0.7578181295150355, -0.27289920838856757, 0.01203618523656684, -0.7515204944989913, -0.16900838225362236, 0.4647515586672441, 0.33546899744603836, -0.841092244654168, -0.48965739397627844, 0.16824963111063795, 0.4276455873892411, 0.6454906202196735, 0.1688549974850811, -0.7064879022052619, 0.16246989173474208, -0.35351756457683886, -0.4579632893190608, -0.06865110375433595, 0.9778534214466899, 0.18872319206743637, 0.13741095541932036, -0.8163570272200242, -0.2013232897859154, -0.7921571089314817, 0.4397406335583926, 0.13336977402646413, 0.29134667190378494, 0.5209979375768299, 0.6725697714224503, -0.013819251142858664, 0.614252046298467, -0.4123856652252491, -0.37644460848852523, 0.23401986288239368, -0.42986882838226, -0.3910652640474161, -0.7413085842745725, 0.8647763245054833, 0.8343003237948107, 0.19175270562858904, -0.930871801926398, 0.5001413361152989, -0.5770744567833989, -0.6112427304992882, 0.548851577117072, -0.6032661323047027, -0.08899485095336154, 0.10972515251213606, -0.5919958359177888, -0.2943585142528959, 0.9502629970870419, -0.6599924043537784, -0.41502324258722073, 0.4658212560481314, -0.5882078775109312, 0.08322198960737145, -0.5250107900480246, -0.007701598558727265, -0.4574270361452332, -0.05355422254855749, -0.7490661340437855, 0.5728623260267125, 0.5705568127956616, -0.4703575308078411, -0.4886303360226397, -0.6362483884918451, -0.5963916028858162, 0.5957210689803614, -0.14237309434409867, 0.8296262191025165, -0.5885771430530404, -0.6581718190929777, 0.1792732763925367, -0.6104970992846344, -0.9057372228906362, 0.023818704039891447, -0.42306880693814275, 0.11947410118460575, 0.4046393667598218, 0.8361954444688166, -0.7485743960352228, -0.2114202561865241, 0.811733011274888, 0.6876518127159098, 0.5858329395379042, -0.34604411805497026, 0.7542671036843963, -0.38723091105203133, -0.35548623325357137, 0.08221424484288156, -0.8723416698287852, 0.6928473766737062, 0.25974531193387745, 0.7018331072277353, -0.17423601471318523, -0.6182197703075493, 0.3680557655398374, 0.6963739866040274, 0.15230211578236616, 0.5964077492614822, -0.865379765444848, 0.27603027358755133, 0.7545976763747677, 0.8706199669870575, -0.36194893487530017, -0.9493707281823617, -0.5730390544842885, -0.7418180167661078, -0.43106172771690127, 0.698445675762231, 0.00636286683244007, -0.8935785243210659, 0.8483998958936979, -0.9158244856403376, 0.3706598153808829, 0.8614752992962929, 0.13907414922125855, -0.2919712904249903, -0.5536988331660923, 0.931252340958319, 0.6259548155218436, -0.2788856346043493, -0.48356748761267854, -0.9858340061675752, -0.24958762186060807, -0.9671204131864765, -0.5699971541071862, -0.943249724927751, -0.3171112052749611, 0.6870766747518415, -0.03820176330096188, 0.638057957440105, 0.27704894545354997, -0.5910785915222938, -0.11581869310675276, -0.1758223999480113, 0.29210392952898523, -0.6538122362873122, 0.5377564883567394, 0.7656995045199131, -0.7838004105074377, -0.3742874131354078, -0.05558261039707001, 0.4905948075880033, -0.16099112593794201, -0.7849049701185049, -0.6181316442487934, 0.5893140107266667, -0.3282427971986519, -0.3243715877030839, -0.5140697628812094, 0.5239508935915769, 0.6228434074609448, 0.16837693203629658, -0.3279984887742272, -0.869831946447407, -0.33346226754667213, 0.9765538205255898, -0.06719722663742304, 0.16870445618075233, 0.7681713004855045, -0.9107494741013699, 0.023619420506061594, 0.9024842721972927, 0.24727637816350814, -0.910091349528759, 0.43261261731632505, -0.7669849952243163, 0.9158203620573999, 0.8657723883013819, 0.983663115889659, 0.8272599020727562, 0.19381749151940655, -0.6459106865290631, -0.3429180733633075, 0.7975760652291595, -0.22015633559860434, -0.43164607330818705, -0.7390107628506575, -0.04693408217207288, 0.304218114006543, 0.5067538452456196, 0.6400754932238559, 0.11375987321456545, -0.04830289734258158, 0.17288514405101613, -0.6594525210659316, -0.06266096463230152
-0.8946878769786906, 0.25612484753328285, 0.2901443509761593, 0.16319818901519384, -0.30539484836264347, 0.31895021119258515, -0.840616646134417, -0.4787289976896801, 0.5007019508333221, -0.6142592155863479, 0.46348479885120886, 0.9653931767195055, 0.5052703141019922, 0.1594967539619777, -0.9042538533324288, -0.9721327395795453, 0.6773402960045147, 0.6090633568395504, 0.3139896009905755, 0.10177601232126084, 0.9864656928965857, 0.2671751400665526, -0.30385016563137573, 0.9357654452454413, 0.2640137484666074, -0.5379126707359647, -0.3288272198225639, 0.6875970310507042, 0.4533846197622412, 0.9828018728396068, -0.8312314196491369, 0.9257951988748643, -0.47896345255504313, 0.2469132788319445, 0.04371355366156429, -0.12255479719933486, 0.6110546865882176, -0.17388355860484345, -0.34843953964199437, -0.9480665082339159, -0.8506909515440014, -0.4567931712767138, -0.5968188804269643, -0.48972911839859595, -0.6030667863002787, -0.5437122061639885, -0.46847837867596726, -0.71178657019772, -0.09226478553006547, 0.578364877506913, 0.5327904980614098, -0.4232049148589153, 0.22028909150727655, -0.11601852583585318, 0.8625936969903792, 0.8909028332006177, -0.2554523377914512, -0.6697808862659698, 0.5135347947891397, 0.15454601150952368, -0.3091131527441374, 0.0012953796680676823, -0.9002432521795765, 0.4271142375883615, -0.6363296966247803, 0.8010414866026022, -0.17907572573362635, 0.06993596716969035, 0.33246214378101896, 0.24095058758677207, -0.13018740861140088, 0.5334969482118751, -0.9285459582340403, -0.5946511260673355, -0.5792909839881478, -0.04934236164363181, 0.6318124670532409, -0.9380938495326697, -0.510315752488561, -0.11221493747164459, 0.07828999178758747, 0.8597445004558537, -0.47469084728828326, 0.4738859850551399, -0.011924993040813644, 0.693189584807688, 0.5333205134314921, 0.5413118686181612, -0.863747253833357, 0.6529304829669326, 0.3708069591680375, -0.4719053616694958, -0.8018354056290835, 0.5799314796761115, 0.3043207878681592, -0.020796022356924397, 0.2365663496435841, -0.8451567790014, -0.8173770765871679, 0.6915061366430749, -0.47760030676586884, 0.25097290665660726, -0.8332602541796428, -0.47991327657070404, 0.8863969027353259, 0.4405585670072293, -0.8767049047660744, 0.013531585967617155, -0.09183530114095544, 0.14785525196246074, 0.3315483568116273, -0.8525672248232313, -0.4991382449234699, -0.6191933687984602, -0.767316785231076, -0.8491189701987308, 0.8987957135832856, -0.6346958717257248, 0.11636023314435626, 0.6479978475815632, -0.3426727692529802, -0.349451535905149, 0.7762218732103138, 0.33172185263415893, 0.5127182385500396, 0.4696062703458111, -0.11571623836084277, -0.3993207740094373, -0.39216286923995286, -0.726594916371306, -0.43571725490378194, 0.0872447363911117, 0.7631735553198161, -0.7541597205501804, 0.679130408697961, 0.794380712254984, 0.7405490170034923, -0.8301935469218477, -0.8191665241443133, 0.38571741159712225, -0.00010365725638044712, -0.20063162658368408, -0.37921591267186217, 0.9402820739073585, 0.0791613141574671, -0.6915434617295555, 0.025526266163438154, -0.03869477320361336, -0.49731056588695866, 0.9877040400764667, -0.8107632408974367, 0.19628384466133028, 0.8407912080589135, 0.37149373135636105, 0.8488986523487887, 0.7801056743642425, -0.18748877793191077, -0.24698265230555994, -0.5458338017045404, -0.6868908309996333, -0.21018897488042504, -0.3176012632228827, 0.3233312052037285, -0.537810127504031, 0.4292966544657406, 0.027458643621425905, -0.1274505647348589, -0.6014711972671788, 0.9314262806136898, 0.046856243985220744, -0.3500425073165889, -0.657617191125145, -0.8814030172031395, 0.22557213084269062, 0.4658798120296246, -0.6609714380828124, 0.3051000532813808, 0.7090437923778344, -0.48860990544969074, -0.6225510218532935, 0.5898487315094669, 0.7245504675366069, 0.08610916986184516, -0.22071220312923207, -0.8377497749272931, -0.8877739189973372, 0.5596545564127462, 0.1718748721120748, -0.7532518457473429, -0.8696851999056259, 0.7740679446216104, -0.7627128850747439, -0.7767761750847297, 0.25675282895621065, 0.032202595291188865, 0.4416911081301476, -0.310863544619257, 0.5508740095117988, 0.0879100380971742, -0.7013727534200375
0.14024368098311749, 0.0053739413502582566, 0.19068807172423502, -0.2445156772569095, -0.875893506915939, -0.7908520302162128, -0.12472185908686244, -0.2311222612879064, 0.8836417877066848, -0.6678912458637408, 0.6202916314601934, -0.7903977466878461, 0.4291578835855165, -0.4971543863981865, 0.2719131887340029, 0.9623479105553099, 0.6823041870815991, -0.8690717105976098, 0.021361060791782585, 0.933645242600662, 0.08029872861196047, 0.2647839924236215, -0.6486702972870851, 0.6030248887344699, -0.7433896181264311, -0.7439414259786006, -0.48773424367328544, 0.20365794329179904, 0.7731786959177176, -0.7274839450760383, -0.30306586391600326, 0.49955647714599505, 0.12243898894583695, -0.8596972629146993, -0.3786062491575003, -0.16893149223479292, 0.621910468768529, 0.5803922430028735, 0.933301871663322, 0.123260528285774, 0.7184536775199443, 0.18786279525993893, 0.36530119167528996, -0.7201291236664279, -0.37933157105049503, -0.004203262764674118, 0.6798983356282365, -0.16823691473226882, 0.8140911631853538, -0.360245640887421, -0.3543419459454382, 0.4702567752795967, 0.658960214865455, 0.42659313847546876, -0.5138604119926867, -0.7841748797711412, 0.7436965641600493, 0.36008954788714564, 0.12655347201306313, 0.6331399488199346, -0.17915156770699128, -0.9641327985770158, 0.5417173121111793, -0.6713610902865782, -0.4864890475963283, 0.39292169511940217, -0.8323422075692215, 0.1333704436088407, -0.495916467106754, -0.4197468071831182, 0.029662274255858226, -0.06817817442683496, 0.723850239272011, 0.8872496242171112, -0.958152047839939, -0.35531186014027516, 0.2218823139907649, 0.49521184827558856, 0.5939981049375123, 0.663399223585043, -0.6199871288877227, -0.4762845343757832, 0.2230357756611203, -0.8759372682469525, -0.19533059025511862, 0.4493937655983758, 0.34317082312958397, -0.44648918278914906, 0.3352999159704158, 0.40365440447553563, -0.4670981517861251, 0.6999366797184315, 0.7070917414096535, 0.7240914020307283, -0.639648677405197, 0.11870953749232512, 0.29877547031404567, -0.8721763484675382, 0.1762196531506711, -0.5171569740497038, -0.6533605617193036, -0.15579924670809142, -0.129784387551764, 0.02180411239696203, -0.08927432610424076, -0.571492770970224, -0.8738624312446824, 0.7822600350406773, 0.9351685714777151, -0.6430432108233392, -0.34434918101204637, 0.5623878777314585, 0.7651061757757528, -0.9609577761820771, 0.2673080318970148, 0.15358813116191095, -0.898765039915549, -0.013580182526719914, 0.7645664307257499, -0.02781679136456551, -0.29946618677070796, 0.6288283231592766, -0.6868056473501518, 0.5744424699186462, 0.27682745843674655, 0.3621090548245964, 0.13875621409659136, -0.22170134666793592, 0.5472047743392783, -0.711606682513763, 0.9381037625922377, 0.8133911681727419, -0.2409911581673192, -0.3063248229626643, 0.883163837459773, -0.2963419942699001, -0.5611770241592636, -0.01666313656616812, 0.18515817490412192, 0.05064655528790096, -0.7509040852201461, 0.45679069943198, -0.8168046100704791, 0.2295608650271645, 0.6868709881863551, 0.09877648170452877, -0.43226121382081734, 0.6224057232356025, -0.9801518473254226, -0.26381831845594417, 0.7018077947215521, 0.7607942122969837, 0.7380589660921075, -0.8651074593290518, 0.5314109821206094, -0.0011746797964990565, 0.1847310933556438, 0.43807599330214914, -0.6395355640802328, -0.9896996133826077, 0.28245451049095666, -0.8665087274005558, -0.1342570689299914, 0.15062980999722908, 0.4186747158906582, -0.4945928386663717, 0.533879523214379, -0.0964453560270506, -0.5901441549681843, 0.12469105000358029, -0.18717976344129628, -0.06725327871729964, -0.2435140263655893, 0.2980891472799318, 0.02230368100855793, -0.6562493914986224, 0.3191489319543902, -0.9963139440901422, -0.829099735826048, 0.8548155667029511, -0.8217388138782362, -0.6448462976857346, -0.7991636134138088, 0.9956546817711864, 0.18284853554125144, 0.9676482457860504, -0.3886621918272714, -0.08644854130642861, 0.315841663871805, 0.42541983771230907, 0.7827691010517085, -0.775205186249492, -0.12009056253355099, -0.5331879138961242, 0.8260038103323625, 0.9328062202805262, 0.776467354312245, 0.13032103534796685, 0.8221630409991333, 0.7171288945180665
0.2712839080300574, 0.5255659551842955, -0.43751761057391775, 0.4006176093168963, -0.7066759056055485, -0.5773055428421375, 0.14642633830438465, 0.7588242882821976, -0.5647032420553968, 0.6858432907093124, 0.4159285987890872, 0.6740585493413689, 0.05932898926495344, -0.009830188382006824, 0.24539421901819997, 0.32972278334229355, -0.22942896567207088, 0.3266494363482651, -0.6581754689933285, 0.6835590436314862, 0.47156127613222876, -0.7886028845393505, -0.8578002373598045, 0.2859357363839343, -0.49551815595025495, -0.7040544228157378, -0.5175820592789327, -0.8293962839603812, -0.5643419702427673, -0.14578983251831845, -0.8568034472474712, 0.4101023132692495, -0.6618705949647029, -0.8875156478128977, 0.3988249215122916, -0.12172567158846613, 0.5821615302614458, -0.5717053721528836, -0.3521975372111232, 0.5752727024506372, 0.628409299752499, -0.07037315530846915, 0.8490132595812392, -0.16283001986449652, 0.8709465140415861, -0.5236788198399069, 0.02288593619449478, -0.8129878912869947, 0.1996614393454337, 0.6910712320241518, 0.6144960678320961, 0.8768908949256504, -0.8400031207690576, -0.5167426130816565, 0.5692966058051026, -0.07635308359717217, 0.8171174477379833, -0.6907583514381018, -0.4956826822132646, -0.06601163090269652, -0.2472462868617886, 0.29532676448455414, 0.16597758142625713, -0.15641769950575526, -0.6447855741416794, -0.2947314938097371, -0.6166835243073268, -0.742070530180757, -0.2626540498293096, -0.07632900493503311, -0.2808461082697308, -0.5122849227442504, -0.06111232279725907, 0.33431629047205574, 0.7389318836900499, 0.2448774318138581, -0.15436440526690862, -0.09589420867701878, -0.5220465535018207, 0.8448255761067592, -0.44993798928299084, 0.26256162373566844, 0.4206722365762132, -0.10647464138985689, 0.2979872150242649, -0.05184736077301177, -0.6887261243198571, 0.1438627001178754, -0.883872740281972, 0.18562573766955606, 0.44001709709919506, 0.7579072559186845, 0.9697643804520447, -0.29943567600110593, 0.9870031960299728, -0.2994847974968035, 0.15428923184740953, -0.4882244193206772, 0.5257593556593584, 0.023108306043713226, -0.909332242185762, -0.1968355709669653, -0.5974854627787354, -0.047915814916329465, -0.19876326606613037, -0.488208758853254, 0.48255393790715306, -0.38001072756900484, -0.48848451929529435, -0.5947528501052952, -0.04562089050031584, 0.3102768118536113, -0.1678626006808713, -0.47929757785951804, -0.8172491697702466, 0.2050467745992027, -0.7182080386146625, -0.14781047013548929, -0.8297868926983072, -0.22295388690724616, -0.6048025531896856, -0.7517308946197118, 0.698028618754799, 0.21003000718114687, 0.5824087384901989, -0.3017594081515323, -0.9342026018674147, -0.8954783790906418, 0.47465789805958813, 0.3599392016239064, 0.0801006126964861, -0.380115001222786, 0.30940611532683876, 0.8730042969214092, -0.9643722413511153, -0.47184205445194705, -0.306480419783547, 0.3370763282682989, -0.8512443158054845, -0.38699575040361056, -0.46687854507788074, -0.12187303537193443, 0.6679114447760346, 0.13977079944713036, -0.6984666122191426, -0.33030993984522217, 0.02563794239823392, -0.5371473845706298, 0.5074751731150037, -0.5497589289446919, -0.9998835291401207, -0.42496851780369516, 0.9694581745318942, 0.4828451930008866, 0.43185326834461163, 0.40280473341276435, 0.7057253538067676, -0.8080066137863949, -0.9570223823610161, 0.2278797950397986, 0.9360792899691537, -0.8684409279732694, -0.6968585875090049, -0.6766822854743765, -0.20504870147185894, -0.3089623053457372, 0.5764387670908265, -0.6968077843649867, 0.3411920501633889, 0.1537060683785399, 0.07875505823606581, 0.19250071523724524, -0.43378638025101873, 0.14740370995322946, 0.33260221124193035, -0.9939201758385265, -0.8610637452207971, -0.002867309912871874, 0.017222117353717512, 0.04758481753137808, -0.8627953883818471, -0.6725236183942057, 0.43941659177480125, 0.8928791446402822, 0.37370218819869916, -0.32902146505325114, -0.11158982225645933, -0.603399811317574, 0.6223845848972931, -0.23813812655469938, -0.8801071276176625, -0.7723048998475565, 0.6149894403484707, -0.8086617189403525, -0.7420285163133383, -0.8589500542479822, -0.00809647753956602, 0.17143138979741412, -0.832091914554972, 0.7403064951833709
-0.05419286389077382, 0.38710617364865013, 0.8895923417189688, -0.5665805568188367, -0.5229346846555691, -0.7121531485079965, -0.36512702291620136, -0.516593624212269, -0.06272067097163203, 0.6635488104563971, -0.7229904550330523, 0.3120701075095055, 0.37380227595002385, 0.7020692525990634, -0.731559464767564, -0.742172616818735, 0.10692259311283066, -0.4120690931686013, 0.6434937784130519, -0.9335618494992206, 0.03305183750359991, 0.39618387601969457, 0.20833759055755266, 0.8746842045701023, 0.211081345204857, -0.1520359881444577, 0.9002785333806771, -0.9394538647334788, 0.29003699626880663, 0.7880748636501775, -0.1889774899276151, -0.24411130505579906, -0.8906886587791657, 0.40245149922079554, 0.48365013021763814, 0.4355026686047701, -0.06509150743902736, -0.4726939971616122, 0.8619012468904992, 0.03666016086384854, -0.8298554739640549, 0.890745625188842, -0.7892590896297036, -0.6224084245537291, 0.06069344334834057, -0.9323614961762434, -0.34631410275271984, 0.8324205030338456, 0.983219006317559, -0.058481459411560306, -0.3596574236127232, 0.39273214156661673, 0.7770446577488039, 0.5845850358962991, 0.7775943782943675, -0.4261575903485704, 0.7321103452961566, -0.6046880986556009, 0.9490949433948015, 0.08206808681607215, 0.13778774536314778, -0.29306497975742873, 0.12996688059787107, 0.7924861851908881, 0.02340249422661807, -0.14633989289265273, -0.5834849970574274, -0.9904119672022311, 0.8375884750189055, 0.13664402277543145, -0.9911500307164848, 0.8467180285714603, -0.06834448490611751, 0.32675041491941553, -0.41489311748024443, 0.2474675430943408, 0.06366028949730353, -0.0816362088338837, -0.39205729291620517, 0.7394914435475397, 0.3743049684757043, -0.9291002991596954, -0.9466762129982392, 0.08574578056724876, -0.0834904359568302, 0.46761935009235694, -0.28806701112841815, 0.6632668571783384, -0.6763206192614939, -0.5834984007099692, 0.5141331143699123, 0.9610923590170256, -0.47071187803708164, -0.5807410138349107, -0.34439910047858885, 0.7366465129858744, -0.6191328646838513, -0.5420275729679637, 0.829700217262891, 0.4571022202102926, -0.7556018949474381, 0.6935328192146138, 0.6992419598711438, 0.5176450420977994, 0.05382593719136467, 0.6610385449946844, 0.24505559632585486, -0.36647227951124456, 0.9905957810906774, -0.09601377491166309, 0.2054988208810345, -0.12197351830044134, -0.15757575735518675, 0.26686471554942, 0.7233657095174011, -0.5777185185297234, -0.06594320987657395, -0.7527238761732128, -0.06651063189503742, -0.4965745001279519, 0.04576353184238227, 0.3739202232654309, -0.1203923474326677, -0.9591176808003309, -0.11251180088585071, 0.7458556190991364, 0.20059150086825614, 0.9886236882542577, 0.32439086508773957, 0.8162201665177916, -0.6948657288571147, 0.5656802368031351, -0.7620749781386862, -0.3153307370663779, -0.010962383533956212, 0.808385608941192, -0.5538727828884484, 0.7782298922417067, 0.9709843505777886, 0.7989845969462457, -0.21197846028764433, -0.7736499319734443, -0.9132343651416199, -0.9982749259458326, 0.2639378539445411, -0.9444018096465562, -0.1855985152160035, 0.4495703251336857, 0.31805806729816893, -0.9681793653689824, -0.5685382126788576, -0.2773176408815227, -0.27416161704535086, 0.42965528211804255, -0.36359969229712163, 0.20276553155100366, 0.7479187326034474, 0.7395649901561053, 0.857575027086762, -0.752800734569428, 0.37291071726446756, -0.22137094369853105, 0.2903235314331933, -0.33568979726620346, -0.16346681200088073, -0.5519482213342184, -0.4404543704733878, 0.4042054779779923, -0.7905323761130268, 0.1599302998552256, 0.43954503272671336, -0.05541525342190526, -0.7834094082808251, 0.7488545462486836, -0.9481153455081504, 0.9412662961539549, 0.7205847411279885, 0.6699003623826685, 0.7597639392056588, -0.055533376531978554, 0.7175134292851206, -0.36538474621004935, 0.08806451779298427, 0.13157692714559804, -0.07321779660306953, -0.7968141118235754, -0.6188488704038788, -0.35346874872899037, 0.5336982347989748, -0.561305970925756, 0.0011431396430183719, 0.9177451608247857, -0.9731929187839843, 0.6096137119788395, 0.8233779370150281, 0.9857907706489102, -0.8336792230432573, 0.3325070801413788, -0.7765006525043501, 0.5360607584653825
0.24520518355714718, 0.4588306981707601, 0.43153705340064624, 0.509821690036666, 0.8196843374197965, 0.2812484401676163, 0.3345859189520228, 0.36787183243901933, -0.26808223377845625, -0.48587615041600213, -0.2815374383896637, 0.994833302812919, 0.2768096911505827, -0.2904938616282497, -0.12366313836919424, -0.8715190201010277, 0.21239632234627978, -0.6407193651029909, -0.5022179517588921, -0.6061891233638887, 0.5433497811670159, 0.7833542288508334, -0.8893999455613025, -0.013944134590412863, -0.23775340355635105, 0.3301461566444354, 0.6901911645916671, 0.30605207250288624, 0.7696438709303806, 0.5277235482889658, 0.48024046346442895, 0.8655724373048302, -0.9843490007275717, 0.8988523290035285, -0.9492620929334585, -0.03641797861764289, 0.9784667008559563, 0.12521834949948796, 0.7929909368455687, -0.44888150180079694, 0.705028741622847, -0.37342325524482384, 0.9475533113636098, 0.5241000792830206, 0.11009084598312739, 0.7019532136047182, 0.591180494249848, -0.7903193755896867, 0.7794966046999807, 0.20830214163975275, 0.08756852280014486, 0.6856878792742497, 0.008121189646783593, -0.1435493920041052, 0.03527115825205801, 0.310309410626251, 0.8982050974567424, -0.03225925980659119, -0.7683443633287664, -0.38591570413985143, -0.32900606616008193, -0.8789742786067573, -0.3731262785210599, 0.5641836592591313, 0.4843905977251875, 0.24754531651056413, -0.7621058317852163, 0.4192619638197423, 0.5378235711217482, -0.08683245840329558, 0.5737874503680953, 0.017182538303686087, 0.9372427991526097, -0.9155252361640174, -0.6348058731931264, -0.12469294567603986, -0.061604701820584085, -0.8811711700460862, 0.9300498457275178, 0.7721247661480379, 0.04164041739326106, -0.7448667879594877, 0.4614936877061356, 0.4266961369005035, 0.8157475448177097, -0.45113592649377576, -0.4007645645199419, -0.7008968568417693, 0.5772447757703556, -0.16447175174490253, -0.557477358436729, -0.9726687658677335, 0.44264833411135435, -0.48751261925235095, 0.730022563517804, 0.4939823368808394, 0.8364493698677681, 0.7489245481753902, 0.7925735656836967, -0.29322493145175965, -0.15102318574571064, -0.27992886916678794, -0.723848614349081, 0.281616699524694, -0.5845495655365226, -0.3266977358857119, 0.5418980611785131, 0.5789233432990895, -0.19370706116232148, 0.00907807157978313, 0.8189294059639126, 0.06805548741548406, 0.10590432183908677, -0.6374661657531101, 0.011979960196424527, 0.47078919546891945, 0.365833149771709, 0.5292195663365374, -0.3796002612063681, -0.8697241020002011, 0.4460001336800597, 0.9696916908094545, -0.2914228007192678, -0.11430730817412413, -0.371234790878168, 0.1935973007822083, 0.11181082181802753, 0.22654659424027607, 0.2719618027868178, -0.9098077702504925, -0.27146785072947865, -0.9020217874743897, 0.7961290873913333, 0.5599259098797118, -0.4040607375061425, 0.9229656051192189, 0.9543209349171101, 0.2757580745258274, -0.3339050710692895, -0.29720235785999466, 0.47779941184280733, -0.0320711992735565, 0.5794426393907133, -0.3452863082269389, -0.4553870511926253, 0.23113450966970142, 0.4178864549440714, 0.731278909181526, 0.4150354396629857, 0.6724241643450918, -0.9382030989685871, 0.4254814127003148, -0.716945864381541, 0.44233854475908396, 0.5391430007408701, 0.10137123655986634, -0.8278098778983324, 0.7906400121147218, 0.4945066823500227, -0.1832424341240963, -0.6947095213623593, -0.038558446009154555, 0.9921885200895907, -0.4480824790170263, -0.6100314511628622, -0.7484461476917007, 0.05371738290655801, 0.7374829383778878, -0.46730909902119566, -0.7274999380476398, -0.3991954330509801, 0.0488331051562986, -0.14210374475406184, -0.8707683259095723, 0.5567461293198379, 0.8466351845931791, -0.4883132833042799, 0.42940895377987115, -0.3718951391389626, -0.8110552982517859, 0.642626490208395, -0.4878247411455646, -0.2816570530420874, 0.5224084660110924, 0.9543794475151326, -0.25618601989651985, -0.8617541289359238, -0.21222007270822224, -0.649731352638723, 0.670960217186132, -0.7191781408919434, -0.9445084253843689, -0.9023668660860227, 0.803987476613724, 0.3453984025886762, -0.6759645820452918, -0.26208154256825444, -0.35179809588384825, -0.9290098587602253, -0.6687976904050236
0.6790705838404616, 0.9548587145445803, 0.9435527865036771, 0.6250461096136326, 0.0001743219052029461, -0.5762164210911479, 0.8917413022457937, -0.10499599402356836, 0.6291053481441689, -0.30468488396773663, -0.8762388433939826, -0.8216003940360872, -0.29125288858032844, -0.21698919245545892, -0.29147812631643, 0.5770657016757097, 0.2057585847501256, -0.17842033382132133, -0.9566487621956163, -0.7866915360568524, -0.011444958885418946, 0.5874273356427687, 0.772964811523724, -0.19088137909032973, -0.6936848861272437, 0.6593431581803376, 0.14068373974891346, -0.8737364969469636, -0.05459737845256525, -0.777262990353048, -0.7565789617799542, 0.5257198490611051, 0.9204960854157039, -0.8866792086496216, -0.07495351758259884, 0.41783179072264465, -0.28667530791512047, 0.13913446143043576, 0.38345167451787626, -0.5562269828760056, 0.7258762787140719, 0.7671833931665364, -0.9204341696775689, -0.4529735603161467, -0.9912045716464339, 0.5390638657853029, 0.5331701690860174, -0.3494660798153135, -0.7546805807055372, 0.9724114809996249, 0.9228645808215681, 0.7273813809632484, -0.784447630462954, 0.05889734952002305, -0.3157956833241042, 0.644501601872604, -0.3725675390090089, 0.8419383134999249, 0.6611639511540053, 0.7124756117763827, -0.4965076834237973, -0.9136041569112238, -0.19812001528333503, 0.24278455585750477, -0.2162375763571622, 0.5889093280066273, -0.029830418203157873, 0.4582212470677594, 0.650774981138408, 0.10776841172259562, -0.4206313247467529, 0.6612495577193378, 0.04886890189794473, 0.5978072696685918, 0.5771729837305233, -0.027411822800120635, -0.6437140408580152, 0.826999515547303, -0.3520136400123618, 0.8295149999359318, -0.017870646224213624, -0.9547887427168441, 0.808984523842171, -0.04916912177763736, 0.543581831751012, 0.8478914625721241, -0.2700197973227226, -0.05815554978159597, 0.35918413445415887, -0.31319079827605817, 0.23634397366288754, -0.5165585686221442, -0.8375134941632666, 0.6981566066226756, 0.5533975433355657, -0.39878740690850906, 0.2653243256616606, 0.8493667887421835, -0.014559188340962433, 0.494115600412166, -0.34813001309671027, -0.7357536976759593, -0.1754801589009934, 0.6603538284579807, 0.2652758686680928, -0.5146238124895948, 0.9959552734458772, -0.6525538457155325, -0.5173279931824696, -0.033800954441177956, -0.6278434859570331, -0.8242631924520123, -0.8660124338637875, 0.48547409945748055, -0.31591640359542184, -0.6758844725252715, -0.1980207079946125, -0.9393074466732039, -0.33900412069012936, -0.36363597657843005, -0.43951218281218196, 0.054799523932842875, 0.8250000346167977, 0.14569101545971322, 0.5426045744015956, 0.8583052272687388, -0.5562455977838476, 0.2824107148446716, -0.9425097840753847, 0.8098474494299852, -0.700965330213605, 0.2748974734677517, -0.1306354996193351, -0.6750300799658073, 0.25835908662358514, -0.008161153386192502, -0.675793802469329, 0.6752916315151525, 0.7166642493865841, 0.29731711894350116, -0.6563293563855415, 0.6428962992994988, 0.4357684623745445, -0.14999850997350866, 0.24333143803565824, -0.3450153303565709, 0.5701784278308581, 0.25303679679718827, -0.7311704750307303, 0.5501663314629843, -0.6491280179645716, -0.6820364390557835, 0.9948514022806446, -0.410673916423991, -0.219655493473451, -0.016230798600429138, -0.272643926708316, 0.8450741241895384, -0.3410299055978051, 0.4347316974374249, -0.0918780698343014, 0.15988369428984175, 0.19094352549995697, -0.5882243798763325, 0.9944467505771851, 0.618124859686462, -0.2629057249702725, 7.51919940055929e-05, -0.01740929183785625, 0.04863567832727531, -0.5639616679236461, 0.5405650758443737, -0.28708196029600014, 0.8420680493512399, 0.8891196012590264, 0.860149620137008, 0.8337329875264264, -0.8545037511856464, -0.5983015876661826, 0.5155303155569749, 0.8021547287509598, -0.49178854814420625, -0.2854218428238308, 0.3970916410786064, 0.9672341368151532, -0.14787060250379747, 0.8171370513167551, -0.6216371384083965, 0.10330428021843492, 0.8505912382476833, -0.2770108981347953, 0.5190996402523026, -0.08809301056511527, 0.37469569890873716, 0.6425446484333133, 0.3929202873947272, 0.14306346748131385, 0.3899290868645538, -0.4086351511081678, 0.22995052675028713
0.9302459856417239, 0.5924957978467225, 0.5985045435581401, -0.5310490145547503, -0.20187247279771742, -0.8333560368048342, 0.4537519719207841, -0.07956735333183845, 0.11018854557362084, 0.4436367118704323, -0.9045999289464562, 0.25672263719459487, 0.9118048820351479, 0.8904802596464664, -0.4532552041374753, -0.6121073460435232, 0.11712530612375123, -0.15341443388158305, 0.1853646050704992, 0.7808728159116987, 0.5383768674069495, 0.05971641257021543, 0.3386772956859746, 0.8568406387395238, -0.4735212721157601, 0.9844225467609155, 0.8949049553445967, -0.6047983476983516, -0.2986078610496965, -0.7338323069727943, -0.49426327259903335, 0.8064271323469204, -0.9828916449896349, -0.8624515611832224, -0.8758356362380465, 0.04450814895322488, 0.0736529352693709, 0.7348355627854586, 0.6476890569602093, 0.9183249144433878, -0.09031831545404258, -0.7270880115103832, 0.44596423799777546, 0.023904495068807357, -0.1321756375793787, -0.07870532074244563, -0.7417499655568447, -0.8471430957935663, -0.5737237725752987, 0.6407472290518642, 0.5436677141472014, 0.7184387274094296, 0.2731975798355711, 0.7672206755178271, 0.29090619724804684, 0.056174450298862616, -0.4927719189607522, -0.14477052264266493, 0.49317669295539046, 0.8132796384363111, -0.3054986189361097, -0.17647530998900457, 0.4196336134283542, -0.6717997916463178, 0.4293781307734002, -0.7680700810251101, 0.8909719554388301, 0.4196465029978618, 0.05426377820094388, -0.9563597044494634, -0.7818965543615797, 0.7781690556140856, -0.5622912063403966, 0.4350976036107861, -0.19831984845218242, -0.6603427914585888, 0.2853491690530138, -0.2956355458586474, -0.2862836378052793, 0.32671786888878085, -0.14724832766374357, 0.6149234233218943, 0.27103652202423834, -0.8307210966027628, -0.8061759023868478, -0.264928540392397, 0.9896620630311572, 0.22769652693648815, 0.2126549981768973, -0.9877141831867939, 0.5284348009201588, 0.7960730848993472, -0.042765470474010955, -0.21015934442884018, 0.7040461968408119, -0.8565930408876588, -0.5590254547469479, 0.9414246820240117, 0.49009273464867364, 0.08846510591101661, -0.2007620533072108, 0.014290392600952391, -0.6329662373802224, -0.2130855076267651, -0.4103635528956388, 0.36235276671317224, -0.18608793605166257, 0.2693195872959264, 0.9525655544070777, 0.7569798402994775, 0.10052502921542705, 0.4271429109055275, 0.2532888092185527, -0.20845883647550728, 0.5326063864231511, 0.2153780610861637, 0.662795433747961, 0.5172950591405779, 0.5968798450214614, -0.6211517770054864, -0.6844440762239482, -0.9537224171331836, 0.3891723744481677, -0.4196895440501583, -0.5061839956918783, -0.21622191105788197, 0.26408356567668906, 0.41574760651942666, 0.6020374515816721, 0.45137839815979475, -0.7361206296431214, 0.8142608861415896, -0.06807304225442551, 0.9754360410058808, -0.9574174635610333, 0.39298953107624485, 0.2458081542635419, -0.41188588158711925, -0.24600697603672547, 0.4670850724280126, -0.9875836781848938, 0.14160278449125094, -0.05608858000349735, -0.227115381175828, 0.9599701023185104, 0.5702152393350768, -0.9207144623435926, 0.4849370492063363, 0.47060219045123025, 0.7913352172040987, 0.9286898770970382, 0.8978238473880542, 0.9953714564144465, 0.744780387772382, -0.5469016007456523, 0.36857450122626984, -0.30321799719102294, -0.8643367505726635, 0.8412418053330356, 0.5776782143585899, 0.9847258532225928, -0.1040154740519429, 0.711376862537308, 0.4334580515671911, -0.0444146868759163, -0.9859527788278221, 0.5569481006636384, -0.20609669472929582, 0.858148413845443, -0.9376714208990805, 0.4034889284382727, -0.303844990490721, 0.4698905374112599, -0.30831212144957026, -0.8464043790487618, 0.9939937529769823, -0.03273516735443226, -0.4081757684691583, 0.44299291529720547, 0.27851774312377475, 0.3032749117329456, 0.8104540563742094, -0.13273820295127142, 0.09112766974753873, 0.8364388397062971, -0.8531119988771132, 0.8747672968747331, -0.19608397572181377, 0.8929576214573557, 0.6866776352983585, -0.3238369667003353, 0.49053728322254175, -0.6818656291844252, 0.18424089210545685, -0.9255812483681924, 0.2995300034967043, -0.7315431108093114, 0.9941445500911469, -0.8495767743855097, -0.32665481724927803
-0.5107415144748401, -0.05421652413207119, -0.3127730536343612, -0.02839755121724743, -0.8253685448056505, -0.4306828656395713, -0.9994302529694462, 0.13554068757315807, -0.4241110146354164, -0.5890998430944806, -0.09878791646186033, 0.008561574407351434, 0.06132443597565979, -0.7313278799345827, -0.6947002306630453, 0.10231224838954987, -0.39827134042787726, 0.3019520492376908, -0.7853251290819029, -0.005745955424643603, 0.6590028706739948, -0.18782861730377146, -0.6468299787597565, 0.6623263685977957, -0.2801240929848343, 0.7276723111524096, -0.33148022079975276, 0.8009505147066729, -0.81847634377876, 0.29187624961687814, -0.4559523671257159, -0.5030427983605958, -0.527232133188134, 0.4423187875131693, -0.28819705842613547, -0.5465077463331455, -0.9205183062785081, -0.289818240024468, 0.5193878191824755, 0.48961411401079075, -0.4860059122806548, -0.7441266774600397, 0.3215659628900032, -0.5364894245902553, 0.015319266970769872, 0.6067202743192263, 0.524571798202724, 0.17560014708796357, 0.03279296761404955, 0.9401962827859895, 0.21338942453143578, 0.48675156984555096, 0.6305189900386112, -0.758318294250367, 0.8622089428777695, -0.7367620708919302, -0.25794548983015947, -0.1954635320700803, -0.3179242242913311, 0.06719611320041904, -0.8526466327044289, 0.29710534237555164, 0.9335170612673852, 0.9275570070688326, -0.36817125142659773, 0.9107433844193736, 0.9586576122006444, 0.9610073025759621, 0.45394352611446837, 0.3581138146542238, 0.33074669065276, -0.7752923670263915, -0.6157675341925446, 0.8997234782218239, 0.21389050048434013, 0.27218766102966313, -0.1825569950804751, -0.5726262805912942, 0.4698430755934823, -0.8130847037769641, -0.5246639684448894, 0.350001827574495, 0.9574869887354671, 0.43463863855585516, -0.27282447451896163, -0.6287654542426003, 0.2427751896890738, -0.5966259679697826, 0.043541129213770804, -0.896349200354732, 0.307964214696444, 0.5308304315584348, -0.585789004212325, 0.7341881742969463, 0.8054119470199362, -0.8520777377312128, -0.9022439791760983, -0.12190346017960195, 0.3110207565375549, -0.7569576456072923, 0.2965896176937789, 0.3424806053159009, 0.40485291945330104, -0.8792964904197773, -0.8622419776294503, -0.5252879315098561, 0.9021841622193622, -0.7078659606222705, -0.9307968268868582, -0.9023175131123542, -0.7809468864829537, 0.6479749243298013, -0.659128405785566, 0.5198215148293812, -0.5093309693856303, 0.5464695364655965, 0.964192001610472, -0.7099415210101317, 0.042725211410892444, -0.23306072351145224, 0.986440812859161, -0.11540008251734536, -0.9835569244628314, -0.7896873343762766, -0.7544502172093505, 0.04777441827746674, 0.07426718240600275, 0.09989523676873943, -0.6268131974233064, 0.16158936649150266, -0.6258661657498333, 0.6793335335805213, 0.34195029984267483, 0.7621183499385327, -0.7366270819453546, -0.5621538493479408, -0.6243001456250422, 0.2668130113355537, 0.6639826853352137, -0.9214835002889655, -0.5083926099545085, -0.7242651832718738, -0.418057709511749, -0.8465599005458466, 0.0806057111714672, -0.1307869864888217, -0.8700681486419725, 0.7403873784057309, -0.3929433448265373, -0.5614875625446181, -0.4168004246737206, 0.7918708246073974, 0.1647490965938137, -0.8967391650583503, 0.3635037499545817, -0.9625368787120756, -0.23190751140554516, -0.6819791161603638, 0.17148737044615683, -0.0037405621697806195, -0.9188177554748731, 0.32431922030771426, 0.2970642127000479, 0.9041216870669951, -0.6662026952309312, -0.13414543450723332, -0.9388751267586101, -0.4080220903385044, 0.41415907416832015, -0.5735770923565162, 0.7225327585572601, 0.5663425483165377, -0.7600073285628796, -0.3100593398807108, 0.15288308860940392, 0.026317897587648364, 0.5007251362586782, -0.3479964163336518, 0.31825286776307643, 0.8262571446499877, -0.10973403576530297, 0.48963027245024315, -0.7941152477394479, 0.5317456941411656, 0.08588863525420827, 0.7352785171026698, -0.072175266809225, 0.28546531830672645, -0.48943515542350763, 0.2527212825611623, 0.4136558373295017, -0.6319165744713379, -0.8026091283052319, -0.035248122832840394, -0.8546041189722358, 0.2889620384622367, 0.7605204946840504, 0.052124363170388086, -0.2614905263200187, 0.4700978993120884
-0.8160612821860437, -0.10994291565323284, 0.9037453850365439, 0.18765488779580405, -0.11079323716447717, 0.059991196230270494, -0.5267914757146974, 0.4986016811586244, -0.18129482185700677, 0.27118786815385193, -0.45872181306886384, -0.4941722910552683, -0.8376728304187572, -0.28781573072448496, 0.35410373069475215, -0.8610976269656447, 0.602876765302944, 0.4018985241849624, -0.3436842028004327, 0.010193844293803373, 0.6805310381678049, 0.10851967056421893, 0.47645851004904327, -0.881462269622876, 0.1351790090919629, 0.1659444568715636, -0.9532667229856053, -0.3705463510624527, 0.7647856976544671, -0.6836568233488451, 0.48932703516117554, -0.22304140640816605, -0.7786108096107635, -0.20237010192294452, -0.019305794853118535, 0.7735393247221387, -0.22348694610829753, 0.11350224978360196, -0.9216012696237436, 0.7799215609056628, -0.6373012419577735, -0.5125601389311544, 0.37538584254239155, 0.056670376764058984, -0.6772212909972516, -0.8539023105841814, -0.26312336274065673, 0.9267703634544724, -0.9632733367747375, -0.3090713644999875, 0.031519138525643906, -0.36209650697931695, -0.4668313799813733, -0.3923716252467018, -0.9996183485617909, 0.5228483372041747, -0.34414586804348846, 0.7189971883877687, 0.6737079029537392, -0.28281014378779123, -0.7620772365506825, -0.5515608585535091, 0.7087637430533057, 0.20029401960896034, -0.7601495068140621, 0.032830309095530766, -0.47676268081493833, 0.3296945185075291, 0.8404499024615972, 0.7692249585282038, 0.03812710496299029, -0.23063808547619677, -0.6102048263180616, -0.8469447140593579, -0.8450448646893984, -0.550523236868662, 0.8502483602800655, -0.4420016449076724, 0.05063419828937905, 0.8295424762978164, 0.9655958484431153, -0.08742126901670993, 0.5892788356844282, 0.7980300329428937, -0.7081720285785466, 0.38548790479279516, -0.5058617047593523, 0.3927789074218485, 0.8534565809920813, 0.09756819591383989, 0.3309105978839018, 0.08812809490291032, -0.43021080839040104, 0.30104516801982995, -0.5889941846031986, -0.8435912790366094, 0.01684749892968038, 0.35624949924367527, 0.796063590282317, 0.2265965561044469, 0.7455484512753989, 0.7455242769472219, -0.23622750383631366, -0.832771804365819, 0.3064829601610203, 0.9468227571364445, 0.5725592917199136, -0.7214707751865195, -0.17211875205678273, 0.7771995858009475, 0.9894304842446293, -0.984759434677069, -0.6695615694068293, 0.3355465120822521, -0.19262394842216146, 0.40995354831316727, -0.16073213889234997, -0.6670203906643976, 0.061048087421187745, 0.21603936678784103, 0.8825683305497765, -0.44020084126030384, -0.9407577413022545, -0.9425041031628071, 0.20626478479203014, 0.5084523636610603, -0.29307539635521485, -0.4044147953712507, 0.296793851639132, -0.2628229484945158, -0.9797685483391596, -0.09706091393101642, 0.670942842774241, 0.3858710785531704, 0.393848744287774, -0.18185818117337577, 0.98000035551445, 0.8461716198263185, -0.049162139920400125, -0.19028758858587128, 0.6072306978267017, 0.1737440856525897, -0.7632437083923054, 0.64542806167451, 0.9140690966223479, -0.45989178504012446, 0.14275037524256992, -0.49420785774380654, 0.37387402056127783, -0.2969592214754343, 0.6644869333937997, -0.8787590738059277, 0.750286667127563, -0.682104544811823, -0.4299760027409566, -0.5069478885399987, -0.1431145344259712, 0.2902467146235317, 0.34166744236996494, -0.18486422821144408, 0.304121636296378, -0.8246285789534312, -0.751090216535767, -0.07795130240372472, -0.4840542598168287, 0.11579042538864116, 0.5598834380172202, -0.7596533588552826, 0.813173505889919, 0.05871008629415309, -0.7307413861620631, 0.5349603885544718, 0.9522579755813763, 0.6095165095477256, 0.5053124160390277, 0.24647320820305782, -0.0347326904542329, 0.23433313093857217, 0.6428459144189231, 0.6955245267264946, 0.5338314242558578, 0.8075058072971646, -0.9770048323753587, -0.005306823380877608, 0.08681634493417646, 0.3578843711927558, 0.6262207592987106, -0.46943972841353243, -0.9552733792733833, -0.5789459853608163, 0.26133228195848746, -0.8127906837823322, -0.47618287896408484, -0.24003806189454016, 0.7483099220851392, 0.16246999462338152, 0.5324340115724426, -0.3834266618487961, -0.08523353265987418, 0.7091019246034078
-0.2413780625885861, -0.9391863409176248, -0.7887680945886516, 0.3998447131873253, -0.657215582747652, -0.2979150618831069, 0.9507733908711709, 0.9546622724837925, -0.8180497909019964, 0.04756872090088102, 0.5558671841291286, -0.656414556663358, 0.09671997508965491, 0.09342870452111278, 0.17812632316030774, -0.5323060882484766, 0.2686299201165494, -0.1268713899711737, -0.9786962958327476, 0.3083736054162584, -0.8704091746577576, -0.10788006283328741, -0.6509082372509899, 0.66741875588327, 0.510244411901114, -0.7432759276223485, -0.6670089789046072, -0.49153006091465856, 0.5741395523806068, 0.5635459388153388, -0.152663028560106, -0.583101406181238, 0.33522340539680073, -0.38018536730224456, 0.0892553160729537, 0.8355475062081387, -0.22927350883239397, -0.09756485620200166, 0.42405242726507636, -0.5332249350057569, 0.41613139155334194, -0.5651424765027848, 0.5724660145751925, 0.21811361703273338, -0.07142229376143812, -0.4738600032597433, -0.4109246053533729, -0.09208110979464387, 0.6428788375861463, 0.8409591277629908, 0.6197859298784386, -0.021532474604917976, 0.9382961841186761, -0.7318368899064529, 0.9801748845129763, -0.41804782622887227, -0.04711927459763649, -0.8586417110840706, 0.4185185050307015, -0.1674057941535105, 0.8062211975494491, 0.7494599578529567, 0.599881777740617, -0.6255998065532746, 0.2902082504210007, -0.09637047998053835, -0.9649632951822085, 0.49004067426532166, -0.5479735153906612, -0.02817227630382073, 0.25902605836546955, -0.36924568709569544, 0.04642321841187659, 0.3259868860925046, 0.16123510703971083, 0.11011650247191597, -0.24907321676952443, 0.738404872027417, 0.8319047156412923, 0.033760675175983655, 0.21834315195830176, 0.9081921075382705, 0.9215124238053974, 0.9965027744499825, 0.6044270145706121, -0.4165022206295258, 0.11378832886629002, 0.17543223277734424, 0.7820958473984004, -0.11165690842721195, -0.9506999402621443, -0.492747124419807, -0.1765672823025495, -0.4922221658186648, -0.4514058437189082, -0.0331493382482312, -0.6358546463879197, 0.74552310306096, -0.41406965343223195, -0.7287978430944928, 0.5971307493734719, -0.6694943568675429, 0.22805668803572093, 0.8730559143683208, -0.3524161415411957, -0.2513178910776482, 0.4650503373570621, -0.2844745740723626, -0.6082125298972174, -0.06806604506830065, 0.4839722003896356, -0.5552898208056589, -0.28597385288834887, -0.05375511335183041, -0.2025218618979425, 0.8419691383998742, -0.5135523859721883, -0.12800078420076055, -0.03470770371545639, -0.13771201564807525, -0.08598417740850332, -0.40371423065702616, -0.5932960690000627, 0.1066852052476231, 0.25604254598321924, 0.18880574139688605, -0.48027679223188025, -0.539830778580227, -0.7164603192021207, -0.8744496018220705, -0.7386641126827015, 0.2531712141313681, -0.5300545184387985, -0.36158907820476555, -0.185366177159644, 0.8332318144977796, -0.0779526133040342, -0.23926424525317253, -0.10646470387999164, 0.790807503823518, -0.8687594195131144, -0.34387331716879005, 0.47822036309884547, -0.7387931821135936, 0.8677664163643578, 0.6388457595819141, -0.08903613658771864, -0.5721564228213813, 0.7434612945130847, -0.13609064121818173, -0.9921233116182107, 0.6489588593032425, -0.5209198465886493, -0.4030236826288094, -0.3722574148000724, 0.6586556683806688, 0.937827718460108, 0.8122962979074091, 0.41640306688919576, 0.8738800661991268, 0.9152436861545572, 0.31463936518971203, -0.08727710935604407, -0.191164217208894, -0.738358475896785, -0.3595924572106464, -0.0056751400183655725, -0.3351723476094936, 0.4126999677244451, 0.24841035679894796, 0.3881530538428981, -0.8943045386777839, -0.43226434746174824, -0.05748448334978811, 0.5550027467945212, -0.5980700092564705, 0.7350149941167067, 0.3488206118108863, 0.31791453274689435, -0.7552537110166867, -0.2836826077989982, -0.26946585215205665, -0.31304770184007846, 0.7510016770616635, 0.31236952635852466, -0.3240357746348891, -0.7577148350945093, -0.22970619458975416, -0.5517342878948791, 0.09171127950182029, -0.012320898757967526, -0.12033107634199894, -0.6459111601900396, -0.7016426961074615, 0.885730995955532, -0.17141072920909048, 0.9871079793639346, -0.6699042622158503, -0.23405669380365565, 0.6216669748250648
-0.8137742469659444, 0.1267447437135334, 0.6108986526562518, -0.984890537392602, -0.13066323262478788, -0.4630464193943482, -0.44644895257087963, 0.8937334452120994, -0.9120038468397829, -0.27094698929266314, -0.562950771339359, -0.9808204176448317, 0.5338043924449859, 0.3878628978277309, -0.16371790079883775, -0.0323796942742419, 0.43602737884055465, 0.4658949705576066, -0.009818649920089073, -0.5112437716038769, -0.310411945976028, 0.13534116808823363, 0.845606687187549, -0.009723401871263233, -0.9751165038043735, 0.9263295811069322, -0.7511917765189785, -0.4602331526811456, 0.37811311713947937, -0.7760756419406187, -0.9547355705804841, 0.10664584899535555, 0.17824601191440292, -0.9982637374632857, -0.6644118050798393, 0.7255736608464143, 0.0884799248145919, -0.13348311711818828, -0.9676158868623087, -0.42250960139031773, -0.4963194434672385, -0.2991505766845801, -0.1143560938633711, -0.49380340704755693, 0.9871698912624421, -0.27638287549956064, 0.5067462525096054, 0.4208820620221744, 0.6844409932864908, 0.7151693145042831, -0.9244341903385657, -0.9017556524369493, -0.9762235954935143, -0.50992120885528, 0.8404234444769085, 0.34612314785229686, -0.5708278229642377, -0.9300811032131405, -0.29497737583063105, 0.1862876280021442, 0.8169160613873556, -0.1315043832706666, 0.3814789267427488, 0.6436606727602888, 0.8825024608930926, 0.40876948378774625, 0.2158498260784941, 0.8669481521853273, 0.8997300458288244, -0.2507021252931434, -0.2965911754522593, -0.5126012110949834, -0.3240564544277257, -0.12551067123469795, -0.46661771406894104, -0.6781275967695253, 0.6888687715262368, -0.21422628364454363, -0.6288897067574457, -0.8051604966779972, 0.8986224004179022, 0.7007172105026681, 0.3582981622561264, -0.0945164969997415, 0.1427856794218196, 0.6044802345631062, 0.7307164411050815, -0.5077564436782345, -0.4076262391257413, 0.010181596573325076, 0.5413435839719609, 0.6243584769552218, 0.9473471652293612, -0.5285593838420339, -0.3801953842877671, 0.189745032934039, -0.4085278102783154, 0.12180219303389918, -0.07667276430236265, 0.9278351933557402, -0.5621317496441415, 0.3866386813483824, 0.093421209203986, -0.6088966702176422, 0.39773994466260054, -0.9354917301335844, 0.9102257401064963, 0.7118750114544026, 0.06915467528987713, 0.6655297316787878, -0.8552345314841064, -0.9112835987492373, -0.07484272028682977, -0.723733588721708, -0.9179611833322242, 0.6103095599637491, 0.15707259601543452, -0.21116479642083152, -0.6759664454164496, -0.2983487888776799, 0.14208674934294332, 0.17116909206036748, 0.4331182023508168, 0.7306689863851384, 0.5440002273283012, -0.8835798061002021, 0.673712110226582, -0.9515540143751425, 0.4420072271644962, 0.3035741495949323, 0.8988462618800479, -0.46145631784336866, 0.5750504472413372, -0.5791817779719608, 0.3812817872874379, -0.3608324922313605, 0.30764352716981286, -0.09397292894997085, 0.0135069715482196, -0.8039746617845671, 0.9495350715279335, -0.18421721055263912, -0.6485212256944399, 0.6369070995603189, -0.19859252840535077, -0.8234771474616475, 0.9559521113841626, 0.3755061444999404, -0.24490292791598126, -0.6770510914238916, -0.5094462908426364, -0.97896425596554, 0.8664835036065798, 0.9767714762149641, -0.9543208044718076, 0.8672528760774819, 0.9481651014611349, -0.2951814594980922, 0.17925845057724746, 0.6585811952978097, 0.04830095329225614, 0.817803539220591, -0.11172398884595981, 0.16691525440913668, -0.780654247280093, -0.4922221154642866, 0.011689671422931047, -0.15054693748764186, 0.6781856360828041, 0.845252431512371, 0.28071094315002787, 0.28926783460545014, 0.6019575041971009, -0.3235110946098844, 0.5980119114831512, -0.8883950459774287, -0.1942702494778463, 0.7299235365411311, 0.7484952101729578, -0.7119485105123471, 0.8484852247953109, -0.5438198231819629, -0.28304536786709017, 0.5024925786654661, -0.15851635787911247, -0.13178101778229329, -0.17334226136054096, 0.7309134576547192, 0.3058861812175985, -0.915779771604611, -0.4452041113991151, -0.5482591347561775, 0.20565603002535923, -0.06046533135536944, 0.997329999916583, -0.06110496073721544, -0.5639213884118579, 0.2951074148415261, -0.5201725054675442, 0.9736428057208307
