0.6128453633018842, 0.8155818094267042, -0.6539055721988115, 0.7425587741057881, -0.9376749796721215, -0.5409725061358918, -0.4687275466593007, 0.5477434961784294, 0.8272014988410489, -0.21686505966854341, -0.9048566722740617, -0.04913515546144225, 0.3749143745515492, -0.760400303276332, 0.8127221741240221, -0.5012028783779287, 0.5886755505766429, -0.44400989810295177, -0.16602039618771602, 0.18941736512074522, -0.9423932002755404, 0.01462515603036482, 0.42163734551706455, 0.6037564999831976, -0.232926005737821, -0.8725033325275835, -0.46417749582558787, -0.1465672581108123, -0.31299091449710464, -0.6452031496072825, -0.7550583227507851, -0.7943805315935459, 0.5842538141670244, -0.01768551845924992, 0.5945743372522183, 0.9360048166681678, -0.25454022258378406, 0.6336865243169774, 0.2935259236936336, 0.8468589030115548, -0.21229725712445702, 0.18791339791792683, 0.08830058659165818, 0.6096713199362822, -0.27494197462476544, -0.8246361566232936, -0.9227593834621972, 0.2505098680191742, 0.38343427821704634, -0.4447846768497967, 0.4158112202705275, -0.731480266172291, -0.5961473421158625, -0.09164007336986835, -0.6153083452377213, 0.6701999950121051, -0.740554313331099, 0.18639044289406792, -0.30632172757737086, 0.9508423317364845, 0.06171562101171513, -0.7683617311156681, -0.5679019966976464, -0.43811106986410797, 0.8182807804887302, -0.502258027407289, 0.20559934462965024, 0.9689917865385989, 0.45759499446557217, 0.21846055239436635, -0.928062603871425, 0.46724136189833576, -0.21136011824629963, -0.7001929504194333, 0.9594716695719581, -0.6236023095999503, -0.21720085353346996, -0.48570934080065675, 0.04556364945368818, -0.866251524319988, -0.7105331296407196, -0.7600337520501605, 0.6502378825610744, -0.37898029938504374, 0.37941496835991284, -0.6205738613508496, -0.9162396819780103, -0.5099425635459136, 0.8162806803725129, 0.7851113377098147, 0.5343978482686014, -0.42774639860303343, -0.3856180139048422, 0.03530285831103552, -0.3841271795053256, 0.8677095773503873, -0.4074423426382936, -0.10671026630882219, -0.9719710941420501, -0.690803974330154, -0.42955849915126, 0.3716803223512235, 0.2857125929513924, 0.14228690388009024, 0.9330475451921212, -0.20667748758173232, -0.3446292700981455, -0.616166642823766, 0.5860963260517458, 0.7442142061561594, -0.5479455255409333, -0.46940477046556417, 0.19870862079397278, -0.7199780001498046, -0.003874111447691675, -0.06624604074380591, 0.47235300438802885, 0.5259140606985504, -0.9275908940678179, 0.9606832404909187, -0.27199719434663416, 0.8106379370284476, 0.5343682838404964, 0.4364207928854802, -0.46810850312665075, -0.6726790006804664, 0.7572131110096081, 0.5668846812330137, 0.9036976229775706, -0.07265490591660351, 0.7224185362937894, -0.836351685140716, 0.310491366045452, -0.40732147735367263, 0.7205096588302613, -0.27992231991689764, -0.43263272535125274, 0.21985977357177022, -0.30631553591485794, 0.028664902476137843, 0.10158930827243484, 0.1351997474010067, -0.08392053424478485, 0.2436124360204437, 0.9080752528164806, -0.4902951089503098, 0.6865468272868969, -0.10798837916095083, -0.9724199788048176, -0.7862599338914968, 0.2510339094211469, -0.029392977776947493, -0.3651744889669193, 0.663425270797676, -0.918262718838498, -0.710801897264473, 0.5182031314679563, -0.20436389363576923, -0.4710248391114882, -0.9096588497647011, 0.5500917756881056, 0.6073100521064803, -0.23605502890048635, 0.8697148002777388, 0.8206758231595854, 0.9778812237551451, 0.6323188391456187, -0.704296031361529, -0.6758361195765041, -0.48401126388348836, -0.005838907500903545, -0.4681280484858048, -0.6758479337052354, 0.3647045258858499, 0.46113786002434165, -0.19528899932501353, -0.022368729028749756, 0.37825048083617885, -0.4422062616885367, 0.7168976077133593, 0.6972764317554256, -0.06217485179726112, -0.38767235531686595, -0.953775203129066, 0.7809035954147272, 0.10593282156445505, 0.923143856581826, 0.21275521219473803, 0.12046346307785649, 0.07070464920089914, 0.5647483939492943, -0.8054923647158396, 0.24646875522752265, -0.7372536493356165, 0.128935124426647, -0.4306053385983124, 0.25982195115850715, -0.6983766934404727, 0.21524828283073894, -0.3011527985025513