0.10924001104881878, -0.17726088582324315, 0.27141368957380724, 0.6240839431389145, 0.0361522936236929, 0.8147096051812807, 0.43361412788709425, 0.8684612950683833, 0.7482727986212531, -0.44948791044503583, -0.13544616672988888, -0.4853587952323519, 0.587728253899244, 0.5143720017666337, -0.15064130338553886, -0.10196908393398801, 0.7276716756678672, 0.1737643165026434, -0.9151920341557467, 0.31218259745093313, -0.9450928992229248, 0.4095158823212265, 0.17064534573357246, 0.33390565501060876, -0.5655905867476667, -0.8245761809139427, -0.251119099111301, -0.16264851658559404, 0.10554498796818798, 0.5484938379846314, 0.6790166190170313, 0.3893679783377846, -0.4890868059297923, 0.40579953014715503, -0.43209483771961843, 0.5753465624901156, 0.9044636827190016, 0.7479029287702947, 0.7316642554126817, -0.030400019922120377, 0.41596985689258026, -0.8075216221025503, 0.8063719980784049, 0.2610709843079982, 0.5255742276229921, 0.4020374454357312, -0.5842242599144772, 0.3413714617260925, -0.851914198272001, 0.660862074965187, -0.28707870040139133, -0.4606280285402585, -0.9157540550242592, -0.5337467700092471, -0.2745443892631449, -0.023124988656991773, 0.3236950855566707, 0.49877456793781755, 0.5311879511851185, 0.3322091622488591, 0.4685244367224276, -0.16210150216604413, -0.9243419278490181, 0.7712128032481366, -0.9905162754213326, -0.1571190048393201, -0.5938083892834775, -0.5969787941384744, -0.7852438795729725, 0.19093337448226422, -0.49520390492332295, 0.9139358893704377, 0.44208399288611644, -0.041258681681835836, -0.25136833516970125, 0.4270771797240653, 0.5603758004674484, -0.0013530197693344863, -0.09319638604429871, 0.9085902411961024, -0.7179333271581556, 0.3329323905851082, 0.6478263323705998, 0.4304756420243684, 0.18320859232760583, -0.6700930476151831, 0.4449019427619065, -0.650206814212776, -0.30886263709574224, 0.7435397368648341, 0.48803751224425046, 0.1054701952731015, 0.5574959903304513, -0.9997382955228704, 0.1423767861040993, 0.461212011222404, 1.0631943880074728, -0.5511488174243836, 0.986931535024459, 0.25029464389918293, 0.9563453162214348, -0.6126276699576022, 0.8283198839597203, -0.9335036895665272, -0.20787398418448613, -0.46701714204453687, -0.45773291431107144, -0.21418977935053446, 0.5144453100965407, 0.22291352357896232, -0.749529693599565, -0.27925462000417833, -0.36366321931989937, -0.1922500366698313, 0.5823921530230053, -0.6601888597286916, -0.2974440489328693, -0.09280728438156827, 0.6846239635938214, 0.7044746148563589, 0.24216700990043968, -0.08907365153048306, 0.44311324688203113, -0.15312054768818373, -0.08079991220475916, -0.029912690606715094, -1.031312670917825, -0.7248744575618367, 0.7342198795741637, 0.6321934258749565, 0.2524222240305822, 0.15879503820625043, -0.6946968360498751, -0.08402215963594402, -0.20888966999109432, 0.9984073297902643, 0.4763561707736636, 0.8608432929341217, 0.38653186493845537, -0.3911751682054379, 0.7334838474954103, -0.5522122634561157, -0.3294701809684684, 0.9417038770584396, -0.3968495153430711, 0.704614504998, -0.6255285057624387, 0.6424985390425539, 0.2580867655017788, -0.46514672682121183, 0.5698383132965378, 0.26048404687650917, -0.8801060964458596, -0.16904952264019404, 1.0564350364265995, -0.8603363085100831, 0.40135575075768604, -0.45549424566799607, -0.6171698579785135, -0.3506168683225332, 0.2198268308846345, -0.6114907323851898, -0.18390021302982187, -0.009334497425465929, -0.4267523072369384, -0.23666357128430188, 0.4361121348776539, 0.5308348067897423, 0.8723851357454434, 0.3558818270585529, 0.7900914546619495, 0.891588368414734, -0.5670697710235715, -0.7411504926654943, 0.7236676327507033, 0.7151587616623872, -0.524556441232285, 0.0991759525503269, 0.0184528320969019, 0.8909183687153612, 0.2692670444476363, 0.02886239212498723, -0.3687506913819166, -0.31536285808891806, 0.0800794881169958, 0.5519012447534383, 0.9808388875496029, -0.569108015574505, -0.8221968596958705, -0.438514065844232, -0.9283481811569786, -0.47125581946240586, 0.766550836408736, -0.5865001407373185, -0.47011781450026163, 0.7595881620097268, 0.12920056250680187, 0.43360136020754503, 0.9425384835864153, -0.7794516039284974
0.5700465010526238, -0.09913534409193869, -0.8368168827186375, -0.1795756084113149, 0.23612252952191554, -0.061912616617270995, -0.19576144477143245, -0.4680753703265478, 0.40720638893110234, 0.7663840629641734, 0.21771441393687593, -0.722453460843077, 0.5517817776591817, 0.914869347767853, -0.9503066567361158, -0.32038830694855763, -0.9681464800553309, 0.9127873166443189, 0.27885756080760915, 0.2727074427101551, 0.6519510209564647, 0.20785238993559954, 0.38032848135238306, 0.4425169492752854, -0.6459618148953434, 0.6959458121213674, 0.434974629829532, 0.44176060721847127, -0.13775957468581393, -0.8449235862080906, 1.0003929532936062, -0.0641618798604308, -0.0634004622361301, 0.27208108678587933, 0.22839930322482926, -0.27885966755703523, 0.351239828430454, 0.5858543661289313, 0.07566678718846401, 0.32545212019006575, -0.1774360277000273, -0.17215542919990842, -0.22431905554515752, 0.5662868321001467, -0.8973920558018922, -0.7536537104022241, -0.34313161956093696, 0.534937735452154, 0.6493753951047339, 0.7688615306843902, -0.557276444796841, -0.9000032335380264, 0.8911014209019921, -0.15409754149813024, 0.7848297553476175, 0.07783557073990478, 0.8285836253091637, -0.6354036917952187, -0.2286471046401138, 0.05819639577391972, 0.4592467697581963, -0.8334517153713391, -0.264735212235138, -0.24789730396033308, 0.8475286712675862, 0.2039842727623246, 0.7116858437290546, -0.8154335636122777, 0.09646647783211584, -0.6631670178602034, -0.7127334640210373, 0.07727852582606458, 0.2510584967308076, 0.8573415817178534, 0.6733257922905025, -0.05988551143102876, 0.5084874564053885, 0.5941506379512758, -0.5247357300354591, 0.1015892949514131, -0.3834120705919884, -0.36332534436444797, -0.3116688513940653, 0.18731182671967217, -0.42495909276036553, 0.07507857135467542, 0.39882212655644506, -0.7049766953237868, 0.7700266333968421, 0.027570924112504145, 0.34337280754290406, 0.9746437773073321, 0.1881295133448719, 0.7341736084093261, 0.5867414417643873, -0.0714397858877189, 0.45230547606951726, -0.06384299028190223, -0.5929873573266381, 0.2458617170598653, 0.49813340224082026, 0.5862443792945272, 0.7558980910927814, -0.7114121780006334, 0.6629978579745454, -0.1547666942006322, 0.3670946490904596, -0.919241252168194, -0.18315745013298404, -0.8132812868641452, 0.2814965904520618, -0.08929009905121423, -0.08436377214031986, 0.4530188813714453, -0.5449844795103584, 0.0380629817897027, 0.01060768646348709, 0.3718000764141397, -0.7113446187097301, -0.6603642861603437, 0.6673949685419494, 0.9508544534911688, -0.2563945584330457, 0.6817938016979022, 0.3028317249328081, 0.16988649159806146, -0.8403647510718965, -0.1089225918636854, -0.835702910742296, 0.04683211802529014, 0.2515230568322819, 0.7171503658627137, 0.5785161476059604, -0.11212157344402633, -0.9133800378124015, -0.0701582993290499, -0.3557135211153848, 0.9913223935160611, -0.8103679854942122, 0.3608088149461831, 0.05456405635930942, -0.4984799832979484, -0.8949004543371166, -0.5071573770024876, -0.5794400777753206, -0.702677302425043, 0.36020350520762917, 0.8018838999102965, -0.7368461894315956, -0.11514215162973443, -0.06028262154452151, 0.26491380270874504, 0.3996277747893016, -0.16140371754208394, 0.002893817173060892, 0.800296350588494, 0.5148632657542399, -0.6668808703421208, -0.2690056547071401, 0.515534721806471, 0.8846043976018017, -0.8412180232558605, 0.9577772978130027, -0.025454340946461523, -0.3995801659927604, 0.9207625938109194, 0.5836374232047294, -0.27532279555673383, -0.5423833327027413, 1.0001114149045531, -0.5461250421991418, -0.7973180049945622, -0.9181798463527432, -0.1879556516501864, -0.35796489410250487, -0.8576546296179981, 0.5525528262024909, 0.6702761452101745, 0.16194879945731994, -0.8038597480844019, -0.24278564387693422, -0.9217538342435537, -0.3311774770328705, 0.46068671950434464, 0.5440356843613996, -0.15014814491706552, 0.12319192619733794, 0.18944110458906854, 0.015195758400941704, -0.06119309293424608, 0.16265641789091362, -0.7575502201617806, 0.5393766891616426, -0.03247343367586336, 0.23889108646235932, 0.2107257215715832, -0.9312705865347843, 0.8269955921925088, 0.9624625274078223, -0.10690816645077418
-0.8276744875720385, 0.7485163389489027, -0.03318122188977927, -0.8124144534245384, 0.12609652956100778, 0.8848482936245757, -0.48169241805915886, 0.3114290109936606, -0.7823577804936566, -0.8908725433523816, -0.2222790020818281, 0.2057626710791099, -0.32240962157426856, 0.8078830592868207, -0.722041781948949, 0.48186138141705814, 0.7075315276507527, -0.33378066962685105, 0.8183140059212353, -0.5851200231501053, -0.17941206100203788, -0.8406016783061786, -0.36870858099263876, -0.7236170885221271, 0.5126289663348342, 0.274971516936162, -0.10893672301613545, 0.018414322457249284, -0.7345560657684176, 0.3464611690197621, -0.18072017944402635, -0.6135794404938559, -0.6384883428871756, 0.9254443254651175, 0.9307675307373073, 0.4894498433518435, -0.9359435055189458, -0.14780970641305724, -0.8134582314649618, 0.1695114637659889, -0.0840420556257728, -0.7673009947535255, 0.8944899051781592, 0.2502312005869386, -0.989962003754543, 0.46437212940417716, -0.6360991780077593, 0.07480725603168917, -0.30642368180075436, 0.3813887534661088, -0.3560813075651555, -0.9816060682223979, -0.7331740297173956, -0.3142901727361819, -0.6534033054001491, -0.8454634424626941, 0.12023848930766999, -0.6426398361669711, 0.9872622488875841, -0.09431192152308931, 0.6299647899028625, -0.22218838758079246, -0.003850381514803576, 0.4690240487871561, -0.10770709402093351, 0.41342315682268593, -0.5887062073155075, -0.46178889939445517, -0.053094943188546115, -0.48559737506972145, -0.8216199621829238, -0.26943809445695627, 0.47018663197223115, -0.1034528389256717, -0.734714476798326, 0.017815375703962768, -0.5343213591969794, 0.9767773485733391, 0.7395128398345425, 0.6090175342252062, 0.30807725914601086, -0.43779624195804745, 0.7374490573171962, 0.6383716554629378, 0.22215443690749237, 0.4256724598806549, -0.46031628281301634, -0.6608965453353998, -0.4281090798554983, -0.31062583660782955, 0.2352047585207477, 0.5815709315772635, 0.9549006498282944, 0.08873215477034582, 0.5064051741838052, 0.4902195371731965, 0.013686778883924042, 0.4212144982307549, 0.6743958451378238, 0.5373063941420059, -0.14264598511968027, 0.8601344810887823, -0.8715148738831663, -0.4407558770872995, -0.7337992052307533, -0.63657854931544, -0.3987648250251041, -0.13429547120956298, -0.7978576679495945, -0.5852401040534218, -0.2483731832393253, -0.429595947448725, 0.6998142573062965, -0.7931205634155284, 0.5788221377038926, 0.47760944034603214, 0.31241904581381313, 0.7037540406734565, 0.41601752027378297, 0.24376112930375193, 0.5758481267380107, -0.3859749804839604, -0.8266488090464441, 0.9787997124082944, -0.963231115031907, 0.8918864180642643, 0.8156880579392192, 0.5370152006215417, 0.5463738472171115, 0.9068628245132336, -0.6427529855550709, -0.9801025019456812, 0.7430416307019253, -0.5824240461822149, -0.5284150309245054, 0.4811225129545291, 0.3402100518190214, -0.27179762611735003, -0.5076433649522768, -0.40429705346672334, 0.28328590695006933, -0.9836658185857109, 0.8105792149307897, -0.3023670909538848, 0.6402922809217053, -0.9061032032075559, 0.47237758090886073, 0.1285405331933634, 0.42993430031964197, 0.9626941135977287, 0.7009448287933858, -0.4144316497311114, 0.5674065340742621, -0.6501680006548618, -0.7571952436086278, -0.0775851593020437, 0.23255635487272053, -0.11311246910261553, -0.6894485283011682, 0.24131650591225015, 0.26513577219172907, -0.6419032687123631, -0.2504258880667042, -0.06241576736724075, 0.5643608603345718, -0.041961439702269746, -0.7421799019601028, 0.9039699668110822, -0.5845312659987026, 0.07311622685257745, 0.29286867283943835, -0.11125218163031385, 0.11215525504773263, -0.5029938809312033, 0.3107889197721749, -0.4143835996364724, 0.574904231438351, 0.16134490153823114, -0.4014042183817334, 0.8661690170022078, -0.38053755807666473, 0.22830658359051767, 0.7548100462169463, 0.488582658169346, -0.6526027951728196, -0.23362564311773432, -0.6579684425992065, -0.8253393674814482, -0.819524518256206, 0.58379793912354, -0.6192309627917735, 0.4416073663756738, 0.20715824012536413, -0.781942078339951, 0.04888117531726947, -0.1920079793802228, -0.06150050326166551, 0.7888904230197871, -0.6182102163318368, 0.8360143063171491
0.6464986597801168, -0.19008388827737158, 0.20049545794568016, 0.05514924713553016, 0.19625897990111935, -0.6979844236178193, -0.01792167114931419, -0.8140802846216216, 0.9827470150790226, -0.28609294412747466, 0.35886797158602074, -0.9886336166162717, 0.30221773436386956, 0.4454885482507386, 0.5058619231280669, -0.12138814568629734, 0.8611638221789154, -0.5951789778575031, -0.8068530509586179, 0.02762035941406247, 0.5999945046067688, -0.1629582590228695, -0.7619569000763066, -0.1714031647585215, -0.5080350081044093, 0.38872708381135646, -0.9914882764862945, -0.8513325787644522, 0.14738303738410352, -0.0028817973201947737, -0.3553186135288198, -0.6221278933670193, 0.9776614877270504, -0.6452864858876907, -0.7501405930645583, -0.5832305626919957, -0.2778684218107594, -0.28215582910234843, 0.11351048309819842, 0.6089939740003195, -0.4654287803170253, 0.2643722634238076, 0.2245120428100504, 0.7609984196639993, -0.7813381265761202, -0.8881829438873851, -0.3170594982531326, 0.09371816532132111, 0.09468823979000039, -0.5366370782996738, -0.8583561019056671, -0.35832805877854457, -0.5251944061254593, 0.9640753719944596, -0.27646577249578347, 0.6229459066441161, -0.27242642278220247, -0.32727372668161503, 0.3060902170283056, -0.09638521987902546, 0.9447523648999927, -0.7602678819672871, -0.4631118752019526, -0.699998124004859, 0.06547057186107616, -0.30156206658068524, 0.5785181022643777, 0.43975307263108415, -0.49973811798649936, 0.6574062989769697, 0.26141630846294134, 0.18530243785831513, -0.7034577012186429, -0.4067799838822138, 0.823776149868796, -0.7148460600096339, -0.15041502399545056, 0.5389828093943838, 0.3121101857225499, 0.7161408617922984, 0.40680145584926375, -0.7641329811351746, -0.4239619239352224, -0.984679190499972, 0.610950498182509, -0.1765818053152832, -0.9162102973815829, -0.9781585294232431, 0.18708392926833353, -0.12656313897984647, -0.6417429314770772, 0.4301493518057365, 0.6290926306956611, 0.9174947784782617, -0.6675310558798132, 0.28116852986396645, 0.454919732678724, -0.786761615540056, -0.32812366154097844, -0.37689608987741097, -0.7698778719928994, -0.6207903292692546, 0.6249120830087027, 0.5563850118909921, -0.44961694304180355, -0.5822834590791066, -0.7757032897327565, -0.02384722007966176, 0.8554689194153016, -0.27795645081972015, -0.13374672356123377, -0.3403067697879033, 0.5672643500491299, 0.770378586950901, 0.09758198368945376, 0.20279989326109493, 0.3502837782306087, -0.31071091833753023, 0.555354962996518, 0.9616661228145523, -0.6655599766533339, 0.17873520945631238, 0.2214441671624348, 0.9667187701454781, 0.43277070436108017, -0.9012294590601186, -0.96074768074955, -0.9633784867122129, -0.9938492448191496, 0.18593572055619176, -0.9729930037678332, -0.12521512114969655, -0.6329241794234919, 0.36493196187988514, -0.2692038748681458, -0.8369250533958353, -0.4906920804667376, -0.17713171704816424, -0.2139107345475559, -0.5052357414769449, -0.6126057503213391, -0.015444235896499474, 0.33277873040269185, 0.021588274413108708, -0.6257069985574895, 0.42048705714652174, -0.8542259296885235, -0.8062712878438302, -0.2386247061190337, 0.5785759001675257, 0.14493333669841837, -0.26337948783326365, -0.8448688383475289, 0.49440808741544107, -0.7530282296936476, 0.009324645318701464, -0.8728227677559117, -0.6924680328832249, -0.39663168442883795, 0.8155894335093983, -0.5826764593664125, -0.7876204735648206, -0.9932659333936636, 0.8963437667057882, 0.5853789266077057, -0.32699671753567683, -0.5096175459502587, -0.8064797280531595, 0.8259131935464409, -0.33932165453973623, -0.09182506125196167, -0.9596452335235468, 0.7899418105972572, 0.7194786568894677, 0.942508054340251, -0.8812645765864584, -0.21176607562930205, -0.15714610332765883, -0.8368060348463866, -0.6409686220675247, -0.9477860152237012, -0.9374674803991198, 0.8241027446942065, -0.08182004986383525, 0.05696402139915412, 0.03662952432252424, -0.26326706264190225, 0.21115872100413255, 0.6776871490856093, 0.9332494008702001, -0.8933312874167022, -0.20354826654697725, 0.04435275983849485, 0.5890136681619924, 0.09037651625067815, 0.2961046072732659, -0.7150167774634815, 0.10817324777084551, -0.9330088191325995, -0.7643177979336931
0.06146665491426157, 0.061954333781395074, -0.5319750645875039, 0.7213939912045021, -0.6146988224077681, -0.3641465069972438, -0.6909888629447363, 0.9179551926614179, -0.06405748953360253, -0.9475656990737082, -0.5870271201386107, -0.6521527700937628, 0.8896115058968626, -0.1311600802197894, -0.08848376318708506, -0.8579792785242017, -0.49693397192563077, -0.4756321828260716, 0.36006038195962375, 0.7562531699645257, 0.9748996478063622, -0.05859240504655909, 0.1611083951529251, -0.465318726868031, 0.7224042834786928, -0.3399271519853747, -0.8381733402140427, -0.11961845592637708, 0.6926499205272207, -0.3071026778782965, 0.27611473211870685, 0.861713744237717, -0.7636680399296307, 0.8000690358384135, 0.9299511017118138, 0.5960122686495994, 0.6205236618301948, -0.9036593689813263, -0.33957626275570446, -0.5733334750866471, 0.8501805135545569, -0.680913310899555, 0.85158645765594, -0.6278883373108314, 0.1604646384565768, -0.727965024360913, -0.7675563877043219, 0.5939130039247382, 0.596225262641312, 0.05463978784668311, 0.08541742030734865, -0.34784874234774227, -0.8043954925460395, 0.4170019632643454, -0.777443831367213, -0.7267639693878215, -0.6585960430558415, 0.6069362959838893, 0.5955918841608588, 0.2788739885734931, -0.9359990235740628, 0.3395832673196616, 0.32650936017836274, 0.23470776578403482, 0.14148531119312105, 0.22559003206405262, -0.739374456591589, 0.002950966375748259, 0.9895185212154386, 0.4395670823295457, -0.6993995743274445, 0.47536128510408165, -0.5716334480897128, -0.15803121925377828, -0.8605509615426276, 0.5100090336509928, 0.4294300919906834, -0.330106872048246, -0.9988800248173745, 0.4547596061042592, 0.16364131708253793, -0.6788016343365766, -0.007935469090956375, 0.6471307684171477, 0.9817903626140291, 0.7025817179904952, -0.9097168728695872, -0.956442631488179, -0.7914189185413378, -0.8356704446490192, -0.592345941670479, -0.9816721423709636, -0.3131140868440663, -0.41835727831090613, 0.5421362146721426, 0.6497821944748968, -0.2687697908495663, -0.11209374938880401, -0.3478438741971994, 0.23818367204817442, -0.21448924208818765, -0.6251930422178251, 0.32517569459406653, -0.38472286293354463, -0.45266652487903825, 0.2093760958013319, -0.11832055368592381, -0.7860393405911376, -0.5655512365916159, 0.49860304969959646, 0.048017338776138334, -0.6003161121275695, -0.7137570390281145, -0.9490647614996103, -0.5465350599874792, 0.43377920487182536, 0.8125169929973315, 0.1235564318815681, 0.2668112887094271, 0.9137836224916284, 0.48975725410540816, 0.43500588161129755, 0.677708073890612, 0.7485503643567876, -0.9164980747724589, 0.07364820313883694, -0.28651650637589055, 0.5749417172766301, -0.4571934858078757, 0.6660795580673126, -0.09486218284702924, 0.12153393380545557, -0.054966475492466985, 0.5767229715728539, 0.7724533463167848, -0.3535084917916857, 0.6567474503581987, 0.7261707233113958, 0.40940325102726305, 0.5463353230378053, -0.6225918918355399, 0.2866419984963239, 0.4487514529763064, 0.14104345180831795, 0.5357570715859352, 0.823162938240953, 0.1554325893398909, -0.528600675798947, 0.024473978433460927, 0.45552858333352975, -0.23546333085280124, -0.6199302537063511, -0.600258375597874, -0.07022549874286468, 0.15641209061329164, -0.68623789626827, -0.8910919343120554, -0.7323144816941207, -0.45296466123260687, -0.5267462744668492, 0.07811171067063481, -0.5161343674331507, -0.1650489533879001, 0.5400535439892711, -0.004944486937444955, 0.9238441957691599, 0.6684603609234401, -0.9684928677673735, -0.7210386956865824, -0.5327258140407684, -0.30220310079772417, 0.7962285184156784, 0.02722280671487734, 0.1825344270197127, 0.0689299301690619, 0.49545973570334056, 0.7509676849081104, -0.9261799302691173, 0.10652719508011413, -0.37284241544769436, 0.014432191494741384, 0.724883895998368, 0.9852366913744128, 0.536698266342132, 0.6504133841040175, -0.1810401770575604, -0.31068369338273505, -0.7374052299460754, -0.5682361210361799, 0.9588591047163609, -0.1167222211095624, 0.55990618133573, 0.12905455740426422, 0.8847405811215857, 0.6905121938668266, -0.9459495572769849, 0.5312929460282138, 0.22540880007451916, 0.5667291503381501, 0.6425822866950512
-0.6750379823629921, 0.4156286512058668, 0.10784805715687014, 0.21387534656565188, -0.013412681180852832, -0.42539637310473605, -0.0903232715343717, 0.913678468977728, 0.5912214962760248, -0.32507973816687724, 0.0071949485647202814, -0.38595768535071334, -0.8379783187330979, 0.07789739633332723, 0.5278166824613032, -0.09341511432352949, 0.19274281753396824, -0.5773630072413749, 0.396913478981554, -0.22596532416727064, 0.5758511212883024, 0.18356362635302179, -0.11593020492154774, -0.19854688355584793, -0.8545576291365226, 0.173264986062635, -0.088350523577008, -0.0876592823797695, -0.769405581623326, 0.9375136334578498, -0.026567268356749052, -0.8462067770570924, 0.0016619618894797084, 0.2773308448515529, -0.0695654218523815, -0.32221278402382864, 0.5107439496830839, 0.8541406602564348, -0.5520096946415121, -0.4254262944302322, -0.945035618339899, 0.19143749283234177, 0.9406927361980602, -0.16835640983607458, -0.39927979376900957, -0.468298204808491, -0.044545775223387166, -0.6344360150168332, -0.2649057218544452, 0.305618798804464, 0.2052716322318791, -0.3523629127049397, 0.6256064737888166, -0.833789812410081, 0.9470777477948815, 0.5717266596515101, 0.9145867275964512, 0.950597977610893, -0.4545572451732326, 0.3096736460677347, 0.3703919491098186, -0.3212263787807301, 0.5428718829284591, 0.8122449481888491, -0.850346861606812, -0.9117803068592382, 0.24954882181307722, 0.8524654360382807, 0.8448274227831234, -0.8645149173168423, -0.9106141854705032, -0.9804380228546198, 0.12371959115768978, -0.3233417122919625, 0.7366856366191197, -0.2651739460516212, 0.7660461275399025, 0.4354503052915323, -0.7525747209829177, -0.03404368679928305, 0.23571059485373305, 0.017560188654188704, -0.9170926187187717, 0.29542325173745393, -0.45814027671693275, 0.1507282866132374, -0.21713191277806246, 0.2311750478371544, -0.48921171072059855, -0.20230506163338963, 0.8144741042643165, -0.3753251925465973, 0.6129784091953392, 0.17442953532639052, -0.2589653234487928, 0.07802355053321319, 0.4784540937533477, -0.9657786211690896, -0.24948996057974315, -0.7914537052725713, 0.8833876886092877, -0.5166418922922269, -0.9162307990175237, -0.911500651151846, -0.643306498306231, 0.9407836749201695, 0.06326230526343263, -0.6289480660986411, 0.9381896650176372, -0.9908742799144533, 0.4665858016744206, -0.6438128148600176, 0.16013301837660843, 0.7276669347130453, 0.8539652219198082, -0.03594065407499189, -0.5665665059445211, 0.09303289412864064, 0.3619615392017461, -0.2650446440083341, -0.7701070028460344, 0.22734406265233073, 0.36802529600936384, -0.6773288436054209, -0.19535661108690633, -0.16365986106197974, 0.8995465490018945, -0.6122862255625525, -0.6366260818386021, 0.4734790573533387, 0.2242414361985631, -0.8659759120330066, -0.9371221906804047, 0.8907528574509751, -0.4302027389358912, 0.6818275842350815, -0.4390496698160817, -0.33939085642414935, -0.5785130752709389, 0.46284011591947566, 0.5218138892502506, 0.5387854118247212, -0.41651354210976366, -0.049431629978169696, -0.4462357571837626, 0.45289952058018756, -0.6751897961599027, 0.1447355235199274, 0.9663014784009477, -0.7996119973969478, 0.1798011687587404, -0.58376029244611, -0.310894252244181, -0.6978032398074769, 0.25266239550603053, -0.31912865095651843, -0.5216192841339643, 0.8771238716194804, -0.7462556659119798, 0.5424043461056369, 0.4136980055288501, 0.42622526652135223, 0.14381475828025864, 0.34193800477425895, 0.3623997116000888, -0.23128375435282625, 0.6955643747513853, 0.28372916311373364, -0.5223465057847376, 0.350359409916146, 0.5517802132112083, 0.5529471360274123, 0.9560292434379334, -0.10806394708335308, -0.41325378728570666, -0.7614380673064717, -0.6225020702906231, -0.8715988295263314, 0.6993844546386111, -0.6786652209636301, -0.7485696489803594, 0.03482010486279924, 0.683313632303391, -0.6710959988810485, 0.7495905423522154, 0.5268693501365878, -0.5035053898709668, -0.5815251552668735, 0.9020521875008457, -0.49298045359750425, 0.9500772997678061, -0.7374883878563674, -0.5696320256616261, -0.6836715868539716, -0.452218743318536, -0.027128300198664895, 0.03236333271923701, -0.7203140209637522, -0.9299949142857764, 0.9382269373880091
0.07492153633884636, -0.41309438175797963, 0.5671328555949601, -0.3006250692514032, 0.7350557981865219, 0.23127464288061736, -0.6319686161929363, 0.919458764489201, -0.38548785966360083, 0.1640208734047069, 0.05725564291377755, -0.4634875475927821, 0.6889229141946537, -0.43444892669806995, -0.7734573265957191, 0.6206999194714399, 0.647442188339868, 0.29219575826526334, 0.9905460524954443, 0.6656910928817439, 0.9382110301200103, -0.6904605852561303, -0.04015926312994428, -0.9891983836964132, -0.4787645571825977, 0.10784937615007212, -0.7119188878571913, -0.519949515443204, 0.9712721733370764, -0.6695313797882879, -0.5941389992761135, 0.8709415203000644, 0.5629644175900065, 0.25306709362391255, 0.639795799961645, 0.8903339906408767, 0.8707379521733213, 0.5400054809162731, -0.4488071844988971, -0.9034240174808262, 0.6249901425771757, 0.40688737647932816, 0.1023767086012822, 0.00701841887176015, -0.7164725053026401, -0.02427681341563922, -0.06154842120355873, 0.4639346559643276, -0.443287511538929, 0.3145684470636263, 0.031804403827707925, 0.5435405504023523, 0.19999849713112555, 0.5053311125766724, -0.028571663632521525, 0.711868025109833, 0.21149533349067456, 0.005161966227418324, -0.6228983664024885, 0.9683457408354312, -0.39425639412725433, -0.24083742569286465, -0.21962270324287766, 0.3188371426176038, -0.1769759131073817, -0.2657118534419664, -0.6643463662600829, 0.6684445147627797, -0.1765494552419803, -0.7527871740182172, 0.4617764503875932, -0.9984309195132611, -0.1187478053598602, -0.08223751303655714, -0.7385138676070255, -0.11255117859826201, 0.8405813494410475, 0.48418324020138676, 0.6137578350381102, -0.44656318445930065, 0.7631621371877729, 0.26194307070343625, -0.1499341119694417, 0.44686521020078296, -0.3690800358398255, -0.2483094010431019, -0.8247964339492152, -0.7374675919886199, 0.37973431238961625, 0.42370552875846723, 0.5312420682406254, 0.1389035178140019, -0.017588498759131665, -0.8204996233269888, -0.23960798541381695, 0.7300113582510996, -0.43856779494307513, -0.9207597574241937, -0.25676354846096755, 0.6348289039034855, 0.3136647772870378, 0.3574188749167359, -0.39793429720832024, 0.502695995433814, -0.851738596295236, 0.8539450822345463, 0.10494413059524459, 0.5974854542481299, -0.3830516632588189, -0.21801649843963336, 0.692976167025292, -0.3742344528883275, -0.4776291427926602, 0.6673028291157387, 0.86482788103921, -0.8263696764593729, 0.36552900356221907, -0.42332271272184635, 0.6956929170316716, 0.5221700006227514, 0.44278781675796886, 0.44735405223670616, -0.5956008694526586, -0.8408811217004807, -0.9707065509178842, -0.36058026054991665, 0.969245373869328, 0.47792437035642354, 0.05670666418370213, 0.09365867226509378, -0.31645790860642325, 0.3729771464759319, 0.23124505346984828, -0.44903315674561944, 0.0640313054723857, -0.9506812735028418, 0.2442519122441669, 0.7163416443933446, -0.8315880894576901, 0.9411604953833536, 0.8826959908652114, 0.9997909866881807, -0.6911451287712475, -0.7855810217096997, 0.9778831256936116, 0.35315065198124124, -0.2186463495838661, 0.05514350654219138, -0.5975179214787079, 0.9823285006198371, -0.525493532251678, -0.7440559911554584, 0.5597836487018724, -0.2621582935282599, -0.5256714795586916, -0.0022989969002116467, 0.3167310796366992, 0.1960636556452842, -0.16017342700191034, -0.1986515124608066, -0.3368763822439959, -0.5782820950467898, -0.5624053117374902, 0.06238290240174252, -0.06750099655530611, -0.7251741353217799, 0.6730228802342845, 0.4423572558038334, -0.6307344461512743, -0.3008263570005718, 0.8147327175569665, -0.02831829136022189, 0.11710055946672149, -0.9396990628731108, 0.4840934850131742, -0.2630598770269048, -0.6724688734745563, -0.17421721657530898, 0.8117589422334868, -0.7895317784212473, -0.2075923704475886, 0.7369456640919502, 0.6933861255060555, -0.09397166147479315, -0.3819633110368825, 0.4434652280784559, -0.3306932061510236, -0.24367326220468924, -0.4037316230213257, -0.18720841990891018, 0.47868069831024496, 0.5732675260317343, 0.22607653519342077, -0.057580260009655916, 0.12049350440264198, -0.18396726648380612, 0.24608022771545895, -0.8441547360129747, 0.1128177800761033, 0.06228973778497054
-0.24821772721768898, 0.15176699300214697, 0.07527500485441489, -0.09865723104443665, 0.2231824573694554, -0.27595366252538917, -0.018729871263625197, 0.11819001254361418, -0.8672795631261326, -0.13156860406143395, 0.6916677921498365, -0.5512553761028719, -0.6063553891286778, -0.34352654041669056, -0.11374392185294029, 0.5114264289802068, 0.7219381455043242, 0.5127630354727986, 0.030533185107839044, -0.27468527413875826, -0.30702102815809307, 0.7921009321858534, 0.08689431125829934, 0.1569611458660601, 0.7215300587649027, -0.1222417214010502, 0.4113160864028629, 0.38991137192149655, 0.6728677226591728, -0.4361536900549657, -0.03741588080831348, -0.20721141284535965, -0.4695286545443832, 0.3615141679398343, 0.4979118506469616, -0.565402734648027, 0.2825209969816827, -0.14327765792710692, -0.00688603021480368, 0.8599071085581187, 0.5194165300310551, 0.24761082705595755, -0.00856940244118504, 0.16173598222071495, 0.578182310702073, -0.1394474833821712, 0.4956360266218265, -0.3852514718192499, -0.34605223146903286, 0.7460756700089982, 0.05665046055391815, -0.5371661154116139, -0.40617616228533365, 0.17026529168531138, 0.39161104635548605, -0.6162177010759721, 0.6231006160019968, 0.13389229032248132, 0.16050056373019, -0.36611306794322274, 0.6998320428803446, -0.009963340452231337, -0.8987881177879288, -0.5763214289921086, -0.440530412009671, 0.9756516481099025, 0.9607175834755005, -0.3738136499811947, -0.9392563808783894, 0.8021453409431465, -0.45693373919226293, -0.17894730156397573, 0.99537289134663, -0.8919294180079851, -0.9965544067772375, -0.1273261742457401, -0.8903273787538003, 0.5990277017501665, -0.5944906302269951, 0.9615651741152415, -0.15549117710382804, 0.47129925120800836, -0.42482969830791906, -0.18904105964778425, 0.4438530799242314, 0.46726304692021775, -0.41805830605450806, 0.12486898068865436, 0.7154401327609546, 0.9282270911172282, 0.8852069576599632, 0.5388982782489955, 0.6876834888381674, -0.6802647621374496, 0.01007428312179327, 0.3946795136889696, 0.4168494781572627, 0.6071051464484433, 0.44056160658414883, -0.3913325002220275, -0.1638382371500247, -0.0730840804094985, -0.873842264686956, -0.4289338707013352, -0.21114202405825624, 0.6629691677402615, -0.644650010719687, 0.5910435658127912, -0.3039499352239099, 0.6355893179841612, -0.5965793835872402, -0.7746882225468997, -0.6677199924119888, -0.6323675404408313, -0.8299874699345806, -0.3234751943860582, 0.9003119544614447, -0.3691516231251071, -0.08936179422691906, -0.26202777697784985, 0.3001986338688939, 0.9443939576041986, 0.8444259075280743, -0.29157788282969394, -0.46707790923982323, 0.11498020241151719, 0.7435492853906139, 0.7148839355386831, 0.45325454657027664, -0.6563845758822948, -0.7416666323534924, -0.4099099674247857, 0.38213690962697744, -0.796943986008402, 0.08148623807301017, 0.9768416790702817, -0.035056720164766485, 0.11218667141570358, 0.8451489003827737, -0.2970519653834092, -0.4513974804994301, 0.20116255290580112, 0.7929713164337411, -0.2192755541358036, 0.3940567537353222, 0.9612059479282824, 0.8693726547560802, 0.8896118242072794, -0.10670453092306714, -0.10416363852219522, -0.23364159288474584, 0.7994300471223311, 0.9738190712241988, -0.4303638027454754, -0.3461053422356885, -0.9805627383105672, 0.2082932832126875, -0.12933557279814284, 0.2353509669955918, 0.42715080214261625, -0.38784165933425396, -0.7187963171500328, -0.8990878422766393, 0.6711485007454486, -0.5739367795782445, -0.7385144419078219, 0.39907307733369063, 0.3612202905514801, -0.9409655273585256, -0.046408028867180894, 0.6233893705232519, 0.6773247644561963, -0.5541173968213596, 0.9682054177673983, -0.6589937444322176, 0.06223881795749588, -0.22763133001515684, 0.7639556481975889, -0.4364926162683176, -0.3142694630781534, 0.6717274389327397, -0.7238976260851301, -0.2612753047354825, 0.8500693079739926, 0.42744772631630346, -0.7629689415569537, 0.8738630836115623, 0.9560018744598655, 0.7781802697300897, -0.10208195261120433, -0.9619976780886788, -0.06815072348102806, 0.003422336281646148, 0.6882840046814018, -0.49053079463828075, 0.27287416211181803, 0.0033021759652009704, -0.9681469336944803, 0.3288271646658519, 0.09846907375411171
-0.16850129817381274, -0.8562263432832419, 0.09152576234737805, -0.8618199198568649, 0.15070143340918998, -0.8195098793461819, -0.900867974519451, 0.5092425065984744, 0.48532631918651375, -0.033029214935336546, -0.08102561503418065, 0.21381978179189487, -0.016075792267738784, -0.17659862927672712, -0.44087903203604556, 0.476427793956689, -0.7582606147245524, -0.2954660560743706, -0.3662519654306402, -0.34941955860764756, 0.15801459630553982, 0.11953967271517707, -0.5298049561042647, 0.8643252430812701, 0.33486360922079206, 0.9411890515954434, 0.31380396274331024, 0.43000992061785953, 0.5874476599882011, 0.3816303912173928, -0.5740936552553046, 0.4603352516601858, -0.5095690084600604, -0.8782951801519081, -0.7370831213561831, 0.15578867095872317, -0.6846327213769193, 0.0914926146223273, 0.1862846820721942, 0.36342478069652356, -0.13793960007176875, -0.02246870907981427, 0.020815044928282497, -0.939906913230486, 0.4447587794215936, -0.8854798008169272, -0.2956780887459797, 0.2390120663188767, -0.1112422578057234, -0.623859500637704, 0.08932005704795153, 0.09131959720353565, 0.6341685587274111, -0.06203727018368276, -0.8032688460999665, -0.0066635373326858465, 0.05398702333097423, 0.6567950544344949, 0.880556949192499, 0.2607567482308293, -0.7067291091868089, -0.3225016273217936, 0.4770860578316911, 0.7825289555817277, 0.27764164917372847, -0.635699778603869, 0.5305595129755506, 0.06977831598497318, -0.8472779688518943, -0.7489179701801638, 0.018868985035404153, 0.15413331393459553, -0.5809475290538966, -0.14145789040508475, -0.6887255183392659, 0.548389533466234, 0.9224547044653202, -0.9006440122863633, 0.4207461765536241, -0.5665784355991512, -0.4185896078731067, 0.6336280972788874, -0.5713514251044131, -0.5820468974675747, 0.033368697925294705, 0.5618002504961852, -0.3299848322236191, -0.9269669852129258, 0.08298601837141506, -0.41542443629489956, -0.41341353332864983, 0.7824192078934632, -0.579321569439902, -0.434076500297718, -0.27304100827013944, 0.6137882577601531, -0.3609633355776368, 0.48101185121967305, 0.4606437062477656, -0.34654812321876116, -0.8233622818140667, -0.716510069029501, -0.39743461892017623, 0.5432516844868811, 0.2207536405948038, 0.48432522155279484, 0.39543405718608804, 0.15621148076337263, -0.41237653567490845, -0.8761348685717968, -0.20775725764513836, 0.6618078887663893, 0.8238053068405046, 0.17556077356257316, 0.6922036475290119, -0.3348382570215723, -0.23064148127487188, -0.15112050080619316, 0.1298658153405543, 0.34834655915557555, 0.7760191676156466, 0.8609478092133865, -0.7826982708673401, -0.4120965020752499, 0.043864985355594105, 0.4700926370024517, -0.6754633084268443, 0.7096757677086137, 0.07166282249178664, -0.28434999210656253, -0.5544754742623602, 0.1963488619405482, 0.5640871216183552, -0.38490559829902876, 0.8069035685808086, -0.2182796035082656, 0.5135438792218404, 0.8232273020767756, 0.2958580512425297, -0.6938549648540435, -0.5530868814812481, 0.01689657394837463, -0.43160739705044576, 0.663758403725917, -0.9384396173341204, 0.6658636188258207, -0.10040834843326948, -0.9466439262603926, 0.06716924926777196, 0.6840753888116595, 0.6589258322115893, 0.9197009947731029, 0.08727773978809866, 0.1670455499578067, -0.4471695667874505, 0.9699720268460635, 0.10122088413114239, 0.43646602351632924, 0.1662476584527823, 0.632933242869588, 0.2951253676825656, -0.5946314092017104, 0.27483769601494706, 0.73157543633381, 0.8044436184705845, 0.4073791871496884, -0.4722001227157481, -0.7586321919012216, -0.4350285952419702, 0.5379381781215861, -0.8709335631054632, -0.8434263310680438, 0.8743229284900047, 0.49359514215514216, -0.5913770002662814, 0.7249231477666485, 0.14516588085139445, -0.6864912504420295, 0.9315253560366656, -0.3858941487849531, 0.17431124349800892, -0.30977606641056155, 0.5603950236471896, -0.057136060177417985, -0.1105564603178475, -0.35904359338450176, 0.5084638074496068, -0.43361382274405763, -0.0847228803557667, 0.04800911518083581, -0.2227028903501173, -0.415423461132283, -0.08956668372846589, 0.23904532107486817, -0.655266092051824, 0.30890025233203583, 0.1424036007425276, -0.0465622979538044, 0.04168413690617522, -0.2568688548505044
-0.3275332448815011, 0.13445246924096774, 0.37193442461030946, -0.8219492909599021, -0.5923474175024354, 0.8885843134821614, 0.13163508806364818, 0.8015777212479874, -0.034510277987822705, -0.3130899891794142, 0.5402951550198324, 0.06510602383817757, -0.5610367752115214, -0.7834745592391014, 0.8900227705988524, 0.09579612578897642, 0.22849134936064822, -0.5077656310820935, 0.9099518491269922, -0.44659566824458774, 0.8351700114026716, 0.1086739619289617, -0.06907687300821534, -0.4200361259477457, -0.7140513582908226, 0.32973257703755815, -0.9118872317753416, 0.7040532380151674, 0.4589565386145522, 0.13660820589854336, 0.8630220964810156, 0.5895424072515266, 0.07039995531621918, -0.4411391706176718, -0.24510000287663886, 0.4778325304425215, 0.9305054405832437, -0.2001012448986613, -0.18712953077976593, 0.9125676249562581, -0.9634627649564598, -0.8530997001090164, -0.37630326636775124, 0.12022382068523717, 0.15472538226400837, -0.024677242950206412, -0.21857410532795535, 0.6738309382414507, 0.3540368962264927, 0.29262082982321774, -0.2862123854782091, 0.9453671095647154, -0.4447966342296481, 0.6615454544138359, 0.21333169186608392, 0.7349930091463925, -0.19612269101153426, 0.7105138899518518, -0.8199302268444271, 0.620102815949316, 0.9026291101780335, 0.840347348786912, -0.8894033187877123, -0.271030840264763, -0.2557408240660342, 0.12775294984752072, -0.8358585049757546, -0.4292751198416822, -0.6825060182421845, 0.07856830261302168, 0.7371300509175733, -0.738187144377699, -0.35517080847125, -0.499313473654741, -0.6395858823489279, 0.10518825137710928, -0.27083165139620813, 0.8208344550719291, 0.3240561596679732, -0.6457585720210423, 0.3466862466806806, -0.15473700256231382, -0.31331989137973604, 0.6670093980836044, 0.5917228582553588, -0.6230213607990887, -0.13258898185174278, 0.730878270971219, -0.28670620999688284, -0.7857498048192592, 0.5335315652967071, 0.3092623473044293, -0.6904911890846571, 0.04160965522912712, 0.4865478581096028, 0.8952352317054465, 0.48540566260716517, 0.7605017563028278, -0.9359097014060168, 0.886692731467961, -0.15846869608445563, -0.788333747719748, 0.9425647533867655, 0.10451448723856897, -0.029065407299036193, -0.6732108380026002, -0.33827867659669847, -0.758673027785838, 0.35156291308927584, -0.9766020762377555, 0.9783853860001094, 0.9523657853773461, -0.3525691211105993, -0.4278115782515062, 0.10165207142469283, 0.8893384624427936, 0.6920427823383444, -0.8256011117464369, 0.008096046881741563, -0.5009408867164308, -0.3628542752828408, 0.11278919198957102, 0.44795945664689335, -0.2967853393253527, -0.1164502994742882, 0.7835588588860085, 0.25001711770407486, 0.6386088582651848, -0.4898178252415727, 0.9206124285268763, 0.17603775224045273, 0.5278149007397759, -0.7158306501905262, 0.29316249282361106, -0.044261076011377444, 0.8763893988278818, -0.8423937403555875, 0.17083139295656177, -0.9116509862335133, -0.012450386523611063, -0.3834832353815324, -0.902033952995276, -0.10530971859614714, -0.6633229096324299, -0.5013019606897324, 0.33393322492784044, 0.47999393148504693, -0.3164806693283136, 0.8318403232480305, 0.6628570884464969, -0.10438011934993151, -0.6889039913598463, -0.2614113396731618, -0.4628904703772406, 0.5927241341118891, 0.3030677241369216, 0.3395645474109709, 0.16200193657612239, 0.9559210794577673, -0.4056276480038199, 0.009095175879407296, 0.24606567329598858, -0.6303857772908786, -0.8534568965049801, -0.18827305904591438, -0.8948526382056429, -0.010035291556887947, 0.7872687240397516, -0.5655751764372156, 0.03446177832233541, 0.7464594984830353, -0.7228369512585442, -0.17580994180505471, -0.8539355872346769, -0.0011908037945724643, 0.6092572461164535, -0.44956754364284307, -0.30182217323017635, -0.2600324285806976, 0.30410763161134846, 0.9369439728188865, 0.7589772058448417, -0.3179492773055814, -0.598378224845793, -0.42016848019951647, -0.6018402088376988, -0.44047522715586396, 0.24548147983123564, -0.05651021694238672, 0.7181822748376805, 0.48503987280179833, -0.2992266202853679, -0.5874695612191541, 0.8088737135929489, 0.4175299650119153, 0.8115880137890453, 0.6205978777279245, 0.8673868417144979, -0.38418882083200195, 0.8529611212180108
0.566018993694865, 0.4952161628027129, -0.7032380901964804, -0.37386914458033865, 0.3183427213289536, -0.19931759724704085, -0.900055273708325, 0.23511120973299712, 0.5844606250065691, 0.7691146980920556, -0.8959312911110107, -0.29376942041063364, 0.17658068357061735, 0.8476593106081989, 0.8559478986959603, -0.8270208607026964, -0.23785083018362044, 0.7386079833172224, 0.43235900217581663, -0.8639392996631577, 0.14182105961314215, 0.3721321205156871, 0.45187040802988976, 0.2941769371327611, -0.44358631616006244, 0.44465590451852804, 0.6423264441756187, -0.36649547523476506, 0.3714006678473095, 0.5269672115435918, 0.7340151597239726, 0.5140816911963183, 0.42687791995013996, -0.021246131680536, 0.08264869404434509, 0.38357592399522655, -0.12493259262423415, -0.15321198340295125, -0.3530387310446129, -0.3022531212449224, -0.7824588904340342, 0.2477692443137275, 0.17465103510945074, -0.3452754842098856, 0.39008165149140556, 0.08246998565355348, 0.3953639781578582, -0.34898147144660085, -0.42004717803275005, -0.011305831033119884, 0.43871787628516656, -0.5834311816906337, -0.893734660504568, 0.01120637112568871, -0.6990679047649155, 0.03147515370859146, -0.5877408478998098, -0.8607343677478035, -0.3558823809061956, 0.6061976718313694, 0.00380457257408879, -0.2188148247474185, -0.6553999262293869, -0.48933463641251235, 0.071212802375656, -0.35439894519128734, -0.7523137786627949, 0.24481802169882563, -0.6655530695227483, 0.8129394322178836, -0.28474226429881333, -0.983123123247627, 0.5296749142857934, 0.8600064237020526, 0.8384989805119792, -0.41879852428624187, 0.9000941342686448, -0.11662415489671152, 0.7253886580567417, -0.15790935050847224, -0.9448554002866206, 0.4580752431772704, -0.8181124860527105, 0.6387600549357199, -0.76355112036373, -0.4722010018930794, 0.2452850338166176, -0.6476719125210905, -0.8006657718204736, 0.16312391940809515, -0.8410209114714305, 0.20911990447457257, -0.38021747740368683, 0.7342503545871556, 0.8037578743635101, 0.1989730305406817, 0.7506738619744798, -0.694297162083356, 0.5087420481018718, 0.2647395992765813, -0.9041025123688669, -0.29762285441774633, 0.9023301349569747, -0.03312261433320867, -0.490696869914403, -0.12826705661984591, 0.8091784340774804, 0.4643852237818195, 0.2876847061659486, 0.21873899177037098, 0.24210554386187327, 0.24180638822090506, -0.12784066360347993, -0.33668873117556797, 0.9098564052652136, 0.17949610194232538, -0.948078098976307, 0.4083232132823281, 0.8583865931442745, -0.5781132683896877, 0.531830623353172, 0.4979612436805955, 0.15715316379865965, 0.467733741611097, -0.7871679571079135, 0.9272205693048149, 0.444810748509314, 0.4397142113091245, -0.5287382770793133, -0.7264841950676318, -0.18530547632465855, 0.4467468673040939, 0.16928820904287376, -0.34358661015694797, -0.8951973877671646, -0.9798676937134727, 0.394725129414304, 0.19511675104031426, -0.5077879326312192, 0.04101577592132481, -0.946097081499154, 0.10873123311156294, 0.319709341992358, 0.9021786360418664, -0.2265268712294052, -0.5555275389446473, -0.26623811461535407, -0.45383113059311514, -0.6891744614950873, -0.1301539249444821, -0.8234850697517355, 0.2560204577561346, 0.818366809998008, 0.9244903397309585, 0.41769546869355656, -0.377890025167191, 0.6915131304390941, 0.21943514293085375, 0.37291801131312635, -0.42020757054359165, -0.8108604734930877, 0.47677213705379246, 0.179983820011543, -0.5274505500317958, -0.8984025973998008, 0.6979997392599209, -0.7973262427096267, 0.5856755778218978, 0.1485134048174593, 0.8263291784645006, 0.1669081805637339, 0.39214100525109613, -0.06941926131525086, -0.059456281166242714, -0.7225042049445355, -0.08805462813347238, 0.5854174062553795, -0.0917793205607817, 0.44532430341046164, 0.9739239768194762, -0.021689067833482067, 0.05072541738504831, -0.12548884520921108, 0.5410809724781795, -0.20079216813060402, -0.22932990341624088, -0.16439521055747652, 0.37224129167679043, 0.1783984911882551, -0.42586628911368796, 0.34494774687038837, 0.9409262552259279, 0.5243720972117066, -0.42225824231189957, -0.27086053941479005, 0.8792773816752767, -0.6992541238269461, -0.6440337643316915, 0.1123229003157296, -0.051748078169932425
-0.860880464117646, 0.6699509772642777, 0.34325818439521083, -0.09610314081048713, 0.42467082275466445, 0.8782594557180045, -0.268102635423669, -0.07150870864049333, -0.6911640222412733, 0.5881412988266987, 0.2494107947608101, 0.9650084995297561, 0.3938271328401083, -0.4814341896228931, 0.564452832541248, -0.0880557741662712, -0.22518530240649323, -0.45404532956138, -0.03773373990186332, -0.48506509388438956, 0.4940453990296196, -0.13411718729860106, 0.3344957261689391, -0.1118680245877916, 0.9155976713878932, -0.5652201309797772, -0.7647528450166435, -0.6633462303387142, -0.6029819368392477, -0.5243369666952592, -0.2855269021752057, 0.054478698684700885, 0.261956059282223, 0.527412921631612, 0.28541909335416893, -0.5092263431602877, 0.7313928616425301, 0.2164951407158127, 0.7638263317648116, 0.20655684349170064, -0.009908874108167718, 0.10169136961773978, 0.022498012614044317, 0.804740790510614, -0.23925543975205027, 0.8434140106268097, 0.1706718790340175, 0.3091465477651397, 0.7397590937199295, -0.7957456504818717, -0.9515570556127991, -0.7646098703743665, 0.11779751680592719, -0.10523487283170806, 0.6562688565361686, -0.3801415897007788, 0.2704708154095439, -0.9824639891182777, -0.9501720542776768, -0.6617739359029472, 0.5484216218982998, 0.9350029961611414, 0.04493941235336767, 0.27714618159601895, -0.6032477999424524, -0.39556012939941076, 0.7556237156353391, -0.06480606773990988, 0.9026583192493601, 0.2023923678782243, 0.24486039122191047, -0.8437828719089709, -0.13890482330447707, 0.6686042657871754, -0.9177461866980573, 0.4221021027220118, 0.9347177462702394, 0.6500498124053006, -0.28855342244796817, 0.7010667795925579, 0.9770790280144307, -0.5476986269735616, 0.6512822331645647, 0.7975930848130258, -0.6215580358952357, 0.25337200847267966, -0.5585010253313585, -0.6572365650898256, -0.25502574467003114, -0.11389324036681037, 0.921674646027697, 0.7312728175041074, -0.7663715721524881, -0.9654089398807255, -0.33477922093021684, 0.5741668301358238, 0.3085949400367424, -0.16445886709572122, 0.7971012958412409, 0.8934096902494728, 0.6321393958588776, 0.4247904897361715, 0.5727891655789897, -0.036831095580027784, -0.5085373844234986, -0.5805605029518169, 0.15082303980895945, 0.8726397197797353, -0.24629786335628778, -0.3354637558856991, -0.944149885582078, 0.6353672766759532, -0.25694083005076424, 0.014214938679767164, 0.5591043236565963, 0.779566280641191, 0.323165165823957, 0.937156373165525, -0.4912716095243443, -0.1723566524966609, -0.46516920439969217, -0.6588114203272337, 0.8919477685156788, 0.4385080691305066, 0.8785629030950959, 0.005682806514343598, -0.24696655870657946, 0.8006982847675215, 0.626425207046277, 0.005307571118490876, -0.4052626857117338, -0.40621783713742526, -0.722463405009635, 0.06807678668235656, 0.07089653461384912, -0.3287597358042853, 0.0659386886139486, 0.9833723195615377, 0.01012720039402153, -0.14871347411573016, 0.16301302855964153, -0.8342240994595869, -0.42420461086006356, -0.6519283014581752, -0.9808984673255536, -0.9830289796490482, -0.13482783573593068, 0.6175679832478548, -0.7812404906826123, 0.7487467710936462, -0.9529582244566679, 0.6301981334126464, 0.08561603263481939, -0.008829560971655116, 0.351815566277888, -0.5738607013173428, 0.5955482987606773, -0.2992594941294683, -0.3511812653376396, 0.1119763946930066, 0.6127854107483228, 0.490925083965865, 0.606131052530929, -0.8960520302914814, 0.6119216656379498, 0.9825486657886269, 0.27074617965557984, -0.043083449081030706, -0.12127149441923621, -0.9783923955697904, 0.6686759671419555, -0.7667942696168881, -0.8214290614133716, -0.9825475703686999, -0.574668545564125, 0.8171537848350698, -0.1807660132443232, 0.31107233346891316, -0.9107216919728455, -0.6065350485689769, -0.3841683688155341, 0.9925828392157305, -0.7624154733135688, 0.9154055453160143, 0.08791460933445568, -0.5814156649359842, -0.5049770282288477, 0.6824423829319992, -0.9490475903461753, 0.3949704115039534, 0.19125142451855523, 0.7642339335593551, -0.49680972851068317, 0.3001408984304579, -0.4617320511416821, 0.23953122056773324, -0.9301706925781529, -0.912289475678993, -0.8911600194835728, 0.39699744648051527
0.5683553388389373, 0.6627719201744041, -0.8035079348471773, -0.7384338356618654, -0.5672885181349451, -0.10360879297449205, -0.20494418528568686, 0.33799448990039377, 0.6048946493850421, 0.6521551385554802, -0.4471109575996061, -0.09489413530725437, -0.26212689405205947, 0.3135259181231926, -0.727672642289837, -0.5596626486364804, 0.5265450560911819, -0.11012969202982885, -0.16663955912324124, 0.8795298250985328, 0.47084228995054594, -0.10715945081154434, -0.21262725171074592, -0.9456771225134272, -0.005247867276896901, 0.6261668908925291, 0.20164016387486203, 0.13852700512252708, 0.7336944422281815, 0.11378214887701302, -0.9666646050283675, 0.4880149557793046, -0.050805641419945875, -0.15994865734081365, -0.354790004665828, -0.8756247260668983, 0.8139011588578507, -0.08486457388726824, 0.7189061228830256, 0.044968909170224676, -0.13368631890166915, 0.8451368732820708, -0.05634588227377179, 0.504618120992467, 0.6042674594954706, -0.9279184643172498, 0.8859339918969573, -0.6452823511664241, 0.800596987281449, 0.5570969675442111, -0.6478106802952202, -0.13913329548395514, 0.13382306851728198, 0.15225853135703857, -0.9842431782748791, 0.9494995873779991, 0.17833533280728647, 0.845863008986765, 0.7608881768606475, -0.6658700458418498, 0.02328102764625683, -0.2082875871740353, -0.18707771238192228, 0.18383425615828594, 0.4055250970640796, -0.8891005907267215, -0.9564666864215198, 0.948818142815614, 0.9734546464812033, -0.24643490630309428, 0.15145156447421382, 0.04425190517227523, 0.03567027753360188, 0.07546331179971844, 0.936550050971573, -0.4452509143934028, -0.5484234011326782, -0.2536176301249225, 0.8204816362574733, -0.47193292370415074, -0.3228257332333126, 0.1350277729584058, 0.9998327048733503, 0.8257337932278233, -0.7343317220075557, -0.38601924353255984, 0.3683280162761466, -0.9670644762851345, -0.2440242771768493, 0.4240406885127584, -0.7889665661041101, 0.5260443423137846, -0.01179960346839582, 0.16862063163011606, 0.49280907019867853, -0.3086733602224358, 0.4032112529744323, 0.18162103666934407, -0.7703582497641499, 0.4356441370766479, -0.9337299102094706, 0.989997779562945, -0.8664852996659709, -0.9374276424624091, -0.8061304712211618, -0.9252051633050925, -0.34160067647503045, 0.8415601815267449, 0.27752203243762236, 0.7427420343343375, 0.36927289398805685, 0.3814581819713652, 0.8346175046488382, -0.2977980290746531, 0.43528690653983565, -0.38447771101301503, 0.24776653620826072, -0.9967793407038248, -0.309229597484254, 0.0188385923426569, 0.6205637865389592, -0.05501316283170109, 0.23267827114534956, -0.3627419492909253, -0.1828292641485971, 0.5437086071901734, -0.14215963458062983, -0.6598500609898701, -0.5411016052940406, -0.17398681773163333, -0.5185249117093789, 0.8940206726400669, -0.0879778332662157, -0.4456150273254915, 0.9865645951764206, 0.3362013935939526, 0.21927305061900668, -0.9677219185460216, 0.5070421428754315, 0.7408522332424193, -0.7899310941337401, -0.45215201526724663, 0.45064030621767376, 0.6969751328716073, 0.6825078824221207, -0.7495429839744511, -0.39073838436930286, 0.5634137701186136, 0.9735088694446672, -0.2514568102981101, -0.9079422300623428, -0.33426444404149597, 0.49660730871022174, 0.3948374610692435, -0.7535550579750867, 0.42061285959322564, 0.17445496894264878, -0.8570790858163365, 0.580906411455853, -0.7816839487324944, -0.5021596102507662, 0.15966448908338451, 0.17351927040870588, -0.20867467980276988, 0.19021047251906992, 0.8704928543831909, -0.43255735995105576, 0.8602087854916635, -0.5069629155150349, 0.4404601309044545, 0.6674812351037032, -0.9317631845998315, -0.6919209367678623, 0.4254411043261763, 0.7378917850982062, 0.15132942741327954, 0.5885126079542926, -0.9392774718898246, 0.6046413327712986, 0.533069437907431, 0.7397928056646449, 0.03831191573039769, 0.6148561709379943, -0.35212727122454796, -0.8346530772414226, 0.35202441765883147, 0.19297287103383823, -0.33080034754436044, -0.5069703464148051, 0.5034303213363331, -0.06404066038139904, -0.10676470782473099, -0.37965021225132833, 0.665075223865975, -0.1649564817935218, 0.36993069224496394, -0.8348461513528065, -0.5837050089899336, 0.9192461106213172, -0.3370844589310035
0.15298063979882826, -0.049707967890715375, 0.6717104396703082, -0.3281714989475189, -0.18001476205904413, 0.30548724528348803, -0.0013658725403693623, 0.33389575504760965, -0.8543247898002495, -0.1451591100165424, -0.4347836106060643, 0.04106737795809081, 0.3980484147893213, -0.6086540370860566, -0.5289175581961941, -0.47791897216985063, 0.5555829207973332, -0.9936352484278635, 0.42702437835039814, 0.8276686529249477, 0.765594056871239, -0.23041708104177394, 0.48316828998379846, 0.4548972925386969, 0.054624282057171195, 0.3669731547352888, -0.9361431425744443, -0.8363550179579983, -0.03846876215236515, -0.15382213736722233, 0.4848387144763598, 0.6515792574938516, 0.48993181314329853, 0.421139552998735, -0.10566328647545148, -0.5134864707971737, -0.15243188681846187, -0.08317306162522556, -0.3903084469213029, 0.913779200581617, -0.3361330107433069, 0.2251129263854452, 0.3367635547613395, 0.18500578184171007, -0.17348244254516265, 0.9290631751083148, 0.7697804127198452, -0.09714913667244507, 0.8176401221272974, 0.20188686651449617, 0.536024294310083, -0.48938657762339055, 0.6496468194350692, -0.6842371101873446, -0.7876452234678182, 0.4491146685739949, -0.5203832479291651, 0.07877924185448766, -0.914873283127127, 0.08320640288509659, -0.22718408327215175, 0.12414363483775989, 0.8380050558276594, 0.7827894075716613, -0.9832982070795637, 0.4973813169024724, -0.24472670021603615, 0.6664155662882874, -0.9195994417334569, -0.6227035045216608, 0.39442179572655284, -0.5434206015433608, -0.6666940607446488, -0.40191217680355956, -0.873698717756978, -0.055182826558228974, -0.06925338385377015, 0.18721774500616545, 0.20669625281177445, 0.8922063731699826, 0.9185600673943295, -0.6800283227577211, -0.8285819143575821, -0.493411299579071, -0.8395097089618425, -0.555340110004538, -0.68253670334224, -0.17544317173660548, -0.2573614325509734, -0.39038490728619557, -0.04319129072753241, -0.5989201002982139, -0.24042831088463573, 0.8912770799811679, -0.5708852979867308, -0.52656323279486, -0.09826389401685866, 0.7385790347952667, 0.8037683826326147, 0.011978847712444318, -0.7242134461278885, -0.5992196552509234, 0.41293757263293507, 0.1852308712925328, 0.2124309719504414, -0.5046663302078512, -0.14617011368652544, -0.23524694796322426, 0.2608686620605662, -0.12280043419025916, 0.6561004061800656, 0.25130157118120483, 0.5336177182044745, 0.6658124895689862, 0.08613198081045051, 0.20112818521515818, -0.7420225129084141, 0.5478944722210198, -0.6591043307178722, 0.9873937566938591, 0.6978843907908459, -0.5303042926985206, -0.4756923600061804, -0.09895996908125694, 0.6767332915263349, 0.9784342231926034, -0.687831135633075, -0.005928384997503024, -0.21394722503969335, 0.09751829888402244, -0.8609553339508854, -0.34993677451298943, -0.5051529235338608, -0.8443405497287237, -0.7942910350248755, -0.7596011364275511, -0.3199740084497057, 0.15453564889336435, -0.2472198201632992, 0.5875683221635473, 0.7911940444430527, 0.42795160290908135, -0.2793502831789047, -0.6961092645903826, 0.1453678178020556, 0.23568591812123638, 0.40408795134720493, 0.6610241044282618, -0.6806603308491934, -0.850256552323407, -0.07180570112737517, 0.0027331836277385397, -0.6247370626166534, 0.6139903061293546, 0.06347257170500867, 0.9733991005672757, 0.6808884675531702, 0.9455442706321362, 0.7787851875504359, 0.7313316279113067, -0.527183169448621, -0.1948708187119517, -0.766386160343814, -0.593282448941949, -0.2864201902736187, -0.6490112777794445, 0.8903139959289765, 0.5374932548431348, -0.890072277142546, 0.8807347256213626, -0.8520509778435839, -0.7787765973756197, -0.13947296146108976, -0.5798160159697064, -0.44775321762891995, -0.0025687859745091436, 0.8145158068600585, -0.6407447799454274, -0.4662686309384177, 0.7866108078304582, 0.938377275491607, -0.5887168926822544, -0.2594856962229871, -0.6008893258200697, -0.785758577090149, 0.44215592674266296, 0.7026069176447627, 0.13114614439173372, -0.8476175975938329, -0.6405521248127322, 0.017778301374199435, 0.9164272162444727, 0.6033334362146117, -0.36157274434504444, 0.0603025678934406, -0.0555558865003422, -0.3939642686702848, -0.6613669174678093, 0.48458701169786245, 0.4870890089030286
0.5459635016595581, -0.4444016493602452, 0.7019278114081854, -0.3785075804884102, -0.5138025389114387, 0.4928549330584198, 0.42338663399199566, 0.6375830142777438, 0.8449869137008079, -0.20061149112503449, -0.33210116208744445, -0.8608625296653016, 0.5582198797860489, -0.6620261017450639, 0.0624222255835748, -0.7124374754564294, -0.583083212023368, -0.8220108726871072, -0.6228208010603572, 0.8696958418336803, 0.5821063242403568, -0.21104398941486782, -0.25852058404184763, 0.15352990690975696, 0.1741703201413743, 0.9334126161151768, 0.09751686577266101, 0.5013097304789029, -0.8978259846396427, 0.3094649847682392, 0.9359803926337223, 0.457055107273357, 0.6973093693241696, -0.6171762940634172, 0.6879835637220603, -0.054386278842204115, 0.6784840320791146, 0.2707724788709538, 0.22411421543808988, -0.7629451593909722, 0.8883928358968813, 0.2046027048583324, 0.15521828581242708, 0.4472177285645033, -0.27057147098704215, 0.8074672688816159, 0.3740555311464974, -0.6719202019110018, -0.4283539823432106, 0.5206637977164685, -0.9168828985461619, -0.07479553197415818, 0.6266560594273701, 0.9048669634697003, 0.05540982621623347, 0.028837321524362507, 0.6888022788299537, 0.05494224726204381, -0.24712418784869847, -0.05687866479107577, 0.761826568028415, 0.8571508536737285, 0.14315086884664877, -0.8137932967769038, 0.22564374530454265, 0.7200215889513278, 0.9939670872073082, 0.06186900367948846, 0.966079879004593, 0.35139277330185165, 0.43540370226361236, -0.6879029556521058, -0.05993891828374568, 0.5933292950963908, 0.7269263977019133, -0.6924216527748535, 0.30146023000701255, 0.05950312575553801, -0.11748236901939119, -0.5146169967292489, 0.47380489272145293, 0.904212781908691, 0.21311813855244355, -0.2949146854031256, 0.25095196038306283, 0.261367654436671, 0.6227205287568858, -0.9808785651519021, 0.48454863512098656, 0.3018039019650531, -0.3977000987304001, 0.08115156710216992, 0.4922202139119832, -0.9468258550448898, -0.1378850911533633, -0.15156184984821355, 0.13771766043804415, 0.1804515096162861, -0.571708897967336, -0.12913388772151788, -0.6737502344252659, -0.7856010873654251, 0.46504148900880377, 0.9245593112140859, -0.40467102304223246, -0.3987560626656231, 0.5551589695716317, -0.7457994479338953, -0.008511158210296518, -0.24180997313867278, -0.644954746773542, 0.9242573380744126, 0.6279908757003396, 0.9530358773280524, -0.9903302624021469, 0.1985670460722619, -0.7473202399311858, -0.8318774089963481, -0.5262670816908812, 0.43474382674239626, -0.6890400046517873, 0.032044421185588964, -0.4445925756590906, 0.692998593467928, 0.2570885574315265, 0.7865939758535245, -0.14024619952025708, 0.8401041494491394, 0.015539067691109035, -0.6737481662582727, 0.40933690534417366, 0.08145010387514569, -0.28986267541351907, 0.918532502852191, 0.9858452288525099, -0.4491995779868734, 0.2542276447957673, -0.4157038556577044, -0.3981483287975813, 0.1256973472183532, 0.2592568409191471, -0.4087399680367254, -0.6470334391678132, 0.12062950075939229, 0.33917067432435893, 0.7349356313108705, -0.08202710290097363, 0.1616276967711284, -0.10113761558615797, 0.5404199962703967, -0.152370593261505, -0.31493737710791686, -0.44316362230219203, -0.9256434335613456, -0.17492874626656343, -0.3472873634655958, 0.20180978581223896, 0.9792666290417382, 0.49140077691570816, -0.2098305426370113, 0.34111230312748875, -0.9693577753887331, 0.01482246090373617, 0.6210031965583045, -0.11212396745118942, -0.24240243955621732, -0.7936884173999057, 0.7059816653317167, 0.02352491193712313, 0.935509678582759, -0.4978624807722347, -0.2635480248908241, 0.5725813656511244, -0.7345773292339439, -0.5123483736542638, 0.2025193383796676, -0.15580859889273155, 0.1065157394528781, 0.56827296321777, 0.8620778496312499, -0.5460295126071628, 0.763757979523803, 0.5809636381579079, 0.10324563301742279, -0.625066027216946, 0.29241537931242767, -0.9384703961687467, -0.34696422594733817, 0.1945219560484964, -0.9597785641321743, 0.7065161230898944, 0.0017716693637539651, 0.024179187066079175, -0.9256763302404194, -0.2981859704507517, -0.5098399183824388, -0.8673517606410474, 0.7083917561881573, -0.6542635319802064, 0.8764380251042206
0.26751618180937803, 0.022245171561982087, -0.42213803466817057, 0.06115348652172043, -0.4493118507965998, 0.7158506526920287, 0.36461410093500524, 0.6923797347984799, -0.2827494549864542, 0.1370780260421574, 0.5229989292858382, 0.6414155470562017, 0.24560380750820965, -0.47493484251890616, 0.7023138666401474, -0.14667123602846988, -0.788132735938734, 0.30697255964748926, 0.30796311843967306, -0.4462158255186334, 0.743608873636361, -0.9691147044141755, -0.8629818765580686, 0.19125381500800043, -0.2233378911916239, 0.5103616336310864, 0.8798432954515747, 0.37239577384463823, -0.6207916549919431, -0.8923285668122859, -0.023640977345506055, 0.8937153457376058, -0.9910868332026346, 0.22303259487105137, 0.9462644958824418, 0.27118566992342286, 0.3173756055979577, -0.48921774094587045, 0.6116187592038486, -0.1347598674592253, -0.5954834570063923, 0.01565849146115723, 0.07639891324193056, 0.9771283995032711, 0.18529549336954793, 0.7464352982099339, 0.9430836963792127, -0.5510377730193565, 0.24534441910653793, 0.2480749548999852, 0.15146083513853242, 0.9438656996766088, -0.04285516657742566, -0.10703134850947434, 0.3814838696087392, 0.8451731213171695, 0.6478321728736525, -0.12086421715084757, -0.34999023758422554, -0.624985845224819, 0.07743805785243899, 0.04092503701962564, -0.914691427812907, 0.6447084540807652, -0.8875164198584065, 0.5421356333526641, -0.2785407814105234, -0.3980919486734689, -0.9084801635036426, -0.3239432960128685, -0.42673400832345537, 0.8510172856832594, -0.4012878386094279, 0.7874205809081469, 0.2837985137349089, 0.6313935321346289, 0.3687234765296489, 0.46095834881073633, 0.025952469886892073, 0.14631524637547252, -0.4644437612869441, 0.8988060434883742, 0.8888251856655702, 0.5930582889085726, 0.897396509020739, 0.26595706761257953, -0.222403319314785, -0.42866530187295976, -0.5403335016629439, 0.013426899944825533, -0.601207633964052, -0.41608865151038127, -0.17621190350868793, 0.35718351944004556, 0.3069318778832742, -0.41865204254984123, -0.46961482639476443, 0.9359497456438988, -0.2041071941479989, -0.6995479111812116, -0.39960964476720073, -0.21942312808491535, -0.6115169744356683, 0.8576100689459921, 0.45067540932239947, 0.25728111586020075, -0.5453881070117961, -0.859096796457379, 0.0047781236096036865, -0.6322159914528687, -0.24457087265137148, -0.15663151120030713, 0.19228741738881508, -0.8809467702708217, 0.8353484967954888, 0.13296967977576335, -0.7510634734950534, -0.09086943274596339, -0.4953889879314966, 0.9957206722141283, 0.2717067251874589, 0.6555106332286768, -0.043753193164473965, 0.6061260291399363, -0.8306589343921204, 0.26237012427732037, -0.9557486277101404, 0.7919474911824622, 0.4383158711385224, -0.48072036833986126, 0.7853238310202381, 0.19647747841238994, 0.30088466034960176, 0.29267685435633917, 0.9554566126479237, -0.18566374991613616, 0.19111670631909658, 0.8342889611015065, -0.12716237952909, 0.4262593449007752, -0.4557343273001163, -0.45654082130942514, 0.12443425199453, 0.8273483696250653, 0.32821282696834964, -0.06109523935261035, 0.7390303410699878, 0.32819895195277154, -0.002657166771339029, -0.3099369802150709, -0.7585109304519528, -0.32459269825086084, 0.08888966640830348, -0.09755332934349559, -0.5508139151298097, 0.89858234852271, 0.8548929393782903, 0.8990428695967593, 0.24981263850045188, -0.3797375309065241, -0.8314152873626519, -0.806145032090084, 0.11025371463697084, 0.6749027357879498, 0.5204617881816107, 0.32298973018007937, -0.6965584543723626, -0.22362805833912064, 0.7281109855230011, 0.3046154333323267, -0.7499507510176031, -0.8619419703744242, -0.0956353594900485, -0.28815235936173844, 0.18123711925992397, -0.15683566111181044, -0.29354826893432073, 0.725558835831451, -0.25612362729127897, -0.056683556649458254, 0.8935541408637632, -0.05002095727509462, -0.06327959915271232, -0.803381848403325, -0.5372374390739226, 0.35179305044359205, -0.505629466917047, 0.6513188336296494, -0.5883172878748584, 0.31331027593394334, 0.6068761307278955, 0.1737878557369597, -0.6113277504219063, -0.24643012164202385, 0.282675004598622, 0.9601691076336053, -0.7670817853701742, -0.6800830443547681, -0.8835077885212166, 0.5249254367213313
-0.7967934281187417, 0.6676197769717475, 0.9396620827173129, 0.6936327906655296, 0.5715054015063245, 0.9180096787588247, 0.3726806851106673, -0.8739723307080627, 0.8408454962256068, -0.7214773342373448, -0.5355352269391057, 0.8263727602262373, 0.8769926306659459, -0.08543108944784499, -0.9163198170644731, -0.6650213460170398, 0.21924140816245904, 0.6592168243113644, 0.8542019713543657, 0.12561559739373238, -0.8269834340993233, 0.06878000788571657, -0.2380750994103649, -0.8999649860506936, -0.6080418080664173, -0.5792731170811913, 0.92216581483094, -0.27572552409277085, 0.9490799565795613, -0.5658345548255223, -0.2504345977701124, 0.6793452076796992, -0.5807462520666424, -0.25272553039504875, -0.6329813367748464, -0.0538930929777998, -0.7563523261114883, 0.7069753339393946, 0.6636964874652567, 0.5949065678307608, -0.2585602601980937, 0.3857821672989134, 0.7984544446348744, 0.0034526119771156032, -0.8325139479154504, -0.23955852035221709, 0.46991780364127433, -0.840238144402674, -0.09140935877813376, 0.20683028855113966, 0.6348440421069673, 0.022379794281444484, 0.8928195841474066, 0.3250553507134211, 0.07272416602904175, -0.9324752092778102, -0.3152914146131549, -0.20067912588265333, 0.958169132457431, 0.13764082488753115, 0.7539741865273459, 0.5089025678679806, -0.2460179690492853, 0.25313370071599456, -0.881041826624333, 0.25212929682742247, 0.2740256476707542, -0.06574314507334215, 0.3764856757528939, -0.37547191973644445, 0.18340791015892177, 0.009889000647582023, -0.8207679872357037, -0.7099574920705394, 0.5600224801896204, 0.26808341376675, 0.9625786587619578, 0.38412530889379914, 0.7662186572316414, 0.34451509172346884, 0.6178346261097608, 0.30847776049348685, 0.21233956254288275, -0.6558476488594203, 0.46188399520034773, 0.7339019794787122, 0.2956558613578194, -0.09585212144967574, 0.9384570303604904, 0.05885796049837471, -0.6005739148102293, 0.7858358966015302, 0.47378954050463573, -0.634290391692861, 0.41320022752804125, 0.35760994245309624, -0.9401078700612452, 0.5742192693196276, -0.2893532393416502, 0.529368493231948, -0.40859236770793605, 0.6842225590968962, -0.011190794513578439, 0.5466342159173616, -0.4103629139273291, 0.8953244425659583, -0.8487426530600691, -0.3201085260498763, -0.3568714068552437, 0.6375257377683895, -0.1206825918672507, -0.15091126562998303, 0.5472827313017303, -0.14158770373212484, 0.8407574622175109, 0.3264029209155177, -0.06889294595678151, -0.896333940453161, 0.12964693968061752, 0.3714316482747115, 0.3569901369978209, -0.7218544238211171, 0.28471692409200317, -0.8254976329978686, 0.5556052669521645, -0.4539381228725666, 0.9775537175304673, 0.6042516965808817, 0.39032130075290283, -0.21548442265079268, 0.6830889052411995, -0.9151808079071997, 0.2966783180587263, -0.892848311416563, 0.8226947032127232, 0.33437813337065153, -0.8325309860474734, -0.1795980880209488, 0.3087884237410382, 0.11526678467383765, -0.38015783460386915, -0.2679489362990477, 0.8845782161317725, -0.6147723049461342, 0.04788845295767016, 0.569687448227421, 0.4150041480856096, -0.3456458101800999, -0.2586292783657608, 0.7543701221611353, -0.9639573711953825, 0.19087303594468544, -0.22089864565607753, 0.3542548306748806, -0.17065706589481613, 0.7587097363887979, 0.9294132582760625, 0.24201551202148197, 0.27497788527527495, -0.9518565401377507, -0.5483719982254963, 0.5362444434752371, 0.1535745000276791, -0.34183153107559944, -0.5913677834006719, -0.32307805203281337, -0.33043720981269215, -0.7478475595301747, 0.23944945887324381, -0.3772332252544777, 0.6123291352708968, 0.5141444471375222, -0.7643289760809835, -0.5604631505370211, -0.012230025962114522, 0.430714052655109, 0.1929724376010668, 0.19575028380006745, 0.09954414534001199, -0.9786758541871783, 0.9893524613065362, 0.7907943455736893, 0.6350248649885962, 0.6063906338497633, -0.13708666367141548, -0.05107152598532067, -0.5878562962885072, -0.7944791965877025, -0.3421804993428312, 0.13465625677242116, 0.14461783976682888, 0.8954216832453167, 0.9146067385823531, 0.283866033876673, 0.44484921705737085, 0.8427739595156339, 0.9193534375602296, 0.09172664976755325, 0.22895778966419414, 0.8757801423186842
-0.1561339019364825, -0.4293856522862078, -0.6857398952945125, -0.3492082730050952, -0.8381473637942959, -0.8669032175660564, -0.0742925961308792, 0.2848890409971406, 0.6460616468508888, 0.7598226550389297, 0.17346724779769465, -0.9073840971667396, 0.08253790812750036, -0.041765012556629996, 0.18194311813230918, -0.8672377730609394, -0.5256417105833918, -0.12347198813098215, 0.033671134466852326, -0.8670911205835207, -0.9301309629785738, 0.0251950598514431, -0.8772781586536835, 0.5605619930637515, 0.29602975050487107, 0.5822490857822588, -0.521026767613504, -0.5042934559562858, 0.9480130055555034, 0.6439782645714962, 0.20643588871565452, 0.8773949624664451, -0.9335720507387664, -0.7951037817702763, -0.05961132833888787, -0.9545735979716005, 0.556606399811134, 0.8560466936581455, 0.823940563076809, 0.016454582019333037, -0.24439872239740484, -0.11819133792371313, 0.07594056422658509, 0.6595865548084462, -0.12307074263331913, -0.6750731297863881, 0.7848233832769219, 0.08371090109684709, -0.9754430182807177, -0.6188651920891528, -0.44053348787926094, 0.8257082426689865, 0.09155999862875129, 0.2250072749167045, -0.9867279151782468, -0.874609177044128, 0.9393171419755619, -0.6188468629399098, 0.33098445264714044, 0.1839371320815549, -0.5237465345741149, 0.7203647698570543, -0.10325747768474204, 0.1582214607791163, -0.3763695474945374, -0.8529379935922969, 0.7095716239265514, -0.03961729787650415, -0.7348567424589475, -0.20286102110616264, 0.896668532676456, -0.8535961549849842, -0.03483625819895789, -0.25052316813417635, 0.5672197300216668, 0.5002382169163371, -0.49549961689808336, -0.4832812831193442, 0.4951623354407322, -0.27054128481966205, -0.051139633934735494, 0.20011212792080907, -0.06599744404073311, -0.3643447566042165, 0.9327326494254917, -0.251942803192107, -0.6822067291615984, -0.3534929524553093, 0.5151300528874888, 0.005694784631660883, -0.33357733974580267, -0.35690458303581163, 0.5048532816854377, -0.9348012125624939, -0.3831078859120474, -0.5963930985694648, 0.2656537042684977, 0.3408622235190974, 0.1284245215912799, 0.025814244584480627, -0.2157598355344776, -0.43738168519593307, -0.7841892719085762, 0.7191759298187149, 0.569360260533767, 0.36851437065355275, -0.9967269967128374, -0.7993660611058003, 0.3162125694742931, 0.6984311445188559, -0.06384665564267603, -0.6366017189623292, -0.7452901972047905, -0.5214645245355365, 0.5242508180697408, 0.6688857409019519, 0.14199722235053933, 0.5687019141571914, -0.7748765650262417, -0.43863151157528074, 0.7220609845918903, -0.4963578401120641, -0.9150571002073393, -0.8617421619552197, -0.5901723562589427, -0.8577971993209537, -0.24911926866779854, -0.12701324865353947, 0.7358007617176365, -0.3502026742862925, -0.4297693181178219, -0.7384525850634271, -0.2686594432470619, 0.35400721640487004, 0.9932190463174088, 0.2083653846936551, -0.1611480643319166, -0.4115597719215048, 0.7228670413478815, -0.5337033076916596, -0.8264801979261387, -0.22291383989659938, 0.1979182568506064, -0.6018079218282469, -0.5320230951282944, 0.24715876640547485, -0.7153249460083482, 0.8941499187656559, -0.5071388925705074, 0.32400705845125155, 0.49582786309067195, 0.8875691110363273, -0.2906605598422575, -0.7816973452853347, 0.8376659918480782, 0.23667730522421077, -0.37446463097846455, -0.7743578977225979, -0.8751774605614545, -0.599545617028194, 0.7940830538694211, -0.43513678602829675, -0.9604137772336582, 0.8712896277991088, -0.4749990875635081, -0.6955919847573643, 0.35098881593768744, -0.7081278738072232, 0.2871443518839111, -0.5117660062038657, 0.23414955974460755, 0.19535368269895348, -0.2750425284877584, 0.4732924593096324, -0.8688843559765451, 0.03185299697647498, -0.5196014844594993, 0.45191531966101794, -0.08306122842976092, -0.6221498921049571, 0.2907800670512207, -0.3530688470456456, 0.5738288641907487, 0.5421369003853289, -0.5692920307600731, 0.40522296936434415, -0.7728017960243507, -0.7371271133549737, 0.003534200607974902, -0.5864671177124939, -0.8627046670153294, -0.24667383192096076, -0.3497597135965082, 0.20421962976804678, -0.6210085429769303, -0.0716584718085528, 0.3558424754609719, 0.9141024939108437, -0.16416009761297432, -0.20182073834103076
-0.11526070000862361, -0.10355434961103187, -0.7161367379838182, 0.742400544701736, 0.3839018043212528, -0.22058150625012093, -0.2781877234319151, -0.47934395940629, 0.9775229855213727, 0.6689502224153709, 0.2600953300260589, 0.6458596760279107, -0.08569010492486868, -0.1137749372411729, -0.48440943344524323, -0.4189097354682494, 0.7267584387277671, -0.9281624400082191, 0.2699056548425209, -0.7867945311788955, -0.821391459795956, 0.144127688008975, 0.5897299267484569, -0.26814114097642383, -0.1693431926497765, -0.3379504993826979, 0.6687617229872149, -0.07920366302683655, 0.23841763690410017, -0.5705165101401317, 0.7253384611996616, -0.48745736062381173, -0.10933689277547798, -0.4002180352472593, -0.9594052712760249, 0.4080137037418965, 0.6367291759264856, 0.09770921591380677, -0.3922749339370644, 0.9369766925563169, 0.42518368294240455, 0.09679863862475128, -0.750684590302994, 0.8153102420392638, -0.22668277442564025, 0.36993816615640057, -0.3357189782341649, -0.049804107412401426, -0.1608557160134082, -0.47270526397358453, -0.7247113819331154, -0.439536696072198, -0.7773200783130294, -0.26584830472083926, 0.5038041210580054, -0.6400877605163601, -0.8038913514741766, 0.02251821601719211, -0.23091597473538894, 0.3899655043308519, -0.3171063112302362, 0.06632627292251532, 0.6782132328750888, 0.8502247507949283, 0.1033852067246088, -0.46571209511968586, -0.610263367919221, -0.8575300823424299, 0.7435045839530776, -0.5761755336217641, -0.7424443530185394, -0.9973858023998275, 0.7680182460882101, -0.9834385162807271, -0.876507623558958, -0.4776429242688893, 0.7948462074124624, 0.30594285981466557, 0.13253427379545912, 0.7660030102737416, -0.4125350615519405, -0.7249046519220301, 0.22080848919392781, 0.4665249019528157, 0.22046852117969928, -0.7990307458978453, -0.061658465028543386, 0.9260940796445417, -0.12102592514424439, -0.020757859662672244, -0.4575519198245699, 0.7038958527593018, 0.01636775860262847, -0.9259952703924934, 0.4318289332487987, -0.5356969712110295, -0.010285337000922566, -0.5473850283667663, 0.28469442615310553, -0.8976621629365283, 0.007234513679291594, 0.7398740386834843, -0.9657976559789719, -0.3137994901970958, 0.05456420958392589, 0.8735543961442391, 0.017740492353166423, -0.7645276320099084, -0.8652927515270923, -0.6580076267435216, -0.1441145342711939, -0.870279048844088, 0.6648944673211687, -0.4135638891140424, 0.2409581981831483, 0.9157021636293505, -0.7932076140755517, -0.6171877110876062, -0.41579110287878424, 0.018207830436936447, -0.04541032377700819, -0.7633856691606605, -0.9884141125269976, -0.7549896880869066, 0.6554940404904339, -0.8858298650019821, 0.4609418089415534, 0.21818484559314663, -0.3100266592878048, -0.08529507309258512, -0.04580420330270901, -0.3508190543974487, 0.9053676395848356, -0.10662015185921672, -0.17293223897448629, -0.6226226543408955, -0.8206979146550645, 0.17985638900186768, 0.10966179560256585, 0.14311980422899953, -0.3384418511883792, 0.8036690241865627, -0.8049316259593199, 0.9867007088407952, -0.7866670748740751, -0.4620943403437403, -0.06667086833327586, 0.922630901525623, -0.9547315472030549, 0.5255310546019789, -0.8142899652063739, 0.13983695741070568, -0.8693658930083121, -0.4628829047671669, 0.19301264106075416, 0.9150454083281465, -0.4699072570142371, -0.7462909423534317, 0.2512766155232845, 0.6141761649055022, 0.2957379317250251, 0.4842030875618751, -0.4724157983182896, 0.08066130968605596, -0.5401207626007608, 0.23477819496944727, 0.9781877293181429, -0.04622638841832316, -0.049215648089018495, -0.9232728023145645, 0.11009292879373771, -0.7914634992432016, 0.6599379692353412, 0.3982880559415405, 0.6656335289089661, -0.7882564858491597, 0.4700965176507481, -0.03500345100041742, -0.7649295364641451, -0.8681280643631494, -0.6878225475096399, -0.2865998579201207, 0.9717950046270661, -0.7298500026920809, 0.17140886170007727, -0.14456611269840947, 0.10405526815493579, 0.30295598736238377, -0.7235612033322611, 0.5700720651081953, -0.48615720545821356, 0.6965991844597214, -0.6416721475935786, 0.0010561956077448408, -0.32130775163898206, -0.7832015400574684, 0.47538566239357327, 0.9497437261182041, -0.3957047022469791, -0.18951786089754974
-0.432832119114301, 0.6252832229141362, -0.28171237594040843, -0.027923083433968668, -0.08049636833326948, 0.10515609848113666, 0.12842396157124622, 0.3494559145531757, -0.17760133488780877, 0.17547128742724039, 0.14747590956598933, -0.9494578578621796, -0.08492131595109502, 0.15176378472511814, 0.3434537840276703, 0.7251390730649905, 0.18436982203611876, -0.5375663477004445, 0.4834031005544113, -0.9433730415124356, 0.6807201011258244, -0.9410539571373361, 0.11353907200513254, -0.14140590878435827, 0.9432811972008603, 0.6854798776570774, -0.5355590927440388, -0.16379014167559403, 0.7599499193327819, -0.2825964957753698, 0.43894560141448785, -0.9331996153209805, -0.5457806722893115, 0.15735029880295254, 0.9571098288657172, -0.7219078327463873, -0.0184195144421838, 0.6634159139697824, -0.6185577293991978, -0.5381002218096641, 0.7460773070098348, 0.7213880016766984, -0.40037713566932637, 0.7830017043211324, -0.5701122557110638, 0.22794958912801883, -0.17769120154529913, 0.7866131986715812, 0.016885727603385935, 0.3805304732521286, -0.6547987515295577, -0.007385933448132788, 0.4862219426588411, -0.36450333146035413, -0.7140625532210726, -0.5551602416121314, 0.9138044049087993, 0.6737270304902422, 0.27566805280807155, -0.8521263058952007, 0.14614133246661554, 0.29862325822386715, 0.9293580574732456, 0.6014717372075098, 0.29896490042549895, 0.6690635864965393, 0.8699657825066547, -0.028700723271086404, 0.5264628642613406, -0.24760184498636117, -0.08740305775065507, -0.05218709010728377, -0.34171283127136204, -0.20495360097508808, 0.06758641220912363, 0.011163567649520362, 0.019000951338345718, -0.9374568878357816, -0.8787550753762646, -0.8490242443365821, 0.0795083251304945, 0.35111000323474956, -0.6427302024022967, 0.3246912872878671, 0.4506915890877203, -0.5992718692491071, 0.6344836762017663, -0.7951625962725859, -0.7964034911621889, -0.8146031747897056, -0.16950302670952475, -0.5084163543952235, 0.11689954294153276, 0.8119582601829075, 0.41762076167666456, 0.43038101795075856, 0.22251142005017838, -0.1865008280956245, -0.6080831831538168, 0.7739649695548466, -0.19293506115378412, -0.7920882831276971, 0.5644143717486096, -0.4255612822488394, 0.8266349163986176, 0.1655685197428839, -0.6499477019447688, -0.24708530980750618, -0.1666281738864684, -0.6290409273810464, 0.2544807252103974, -0.04257254381550202, -0.7185391697950705, -0.8885724865204705, -0.19924396735069563, 0.10071787667291833, 0.9140355682382778, -0.7160390038378202, 0.9964913319762619, -0.43718509673699063, 0.08069848924255295, -0.6960354073208909, -0.17838930971515127, 0.5329524966155443, -0.4077456322696112, -0.295047562361653, -0.1339909260224084, -0.15863206933623986, -0.7026162850541768, -0.6543464184709487, -0.7149938561406447, 0.35569707875899814, 0.44883697067672323, 0.7485131015555058, -0.021855442091110504, 0.4396972235534335, 0.2969601168072061, -0.7429650875466552, -0.1429198982382712, 0.5432656458130536, 0.7047231107488967, -0.9832530001061589, -0.5799470689077671, 0.7674014319290533, 0.8047745780094685, 0.4966238208990129, 0.15886619906281854, 0.15799988519407684, -0.6814450388709149, -0.7533901823393855, 0.46656395345301804, -0.9225199329297107, 0.4472997688669023, 0.6184361116484627, 0.7327251628321114, -0.6334537589190274, 0.29151756720775707, 0.7697573288913496, -0.4356933603369401, 0.2736329442454049, 0.5297550492322685, 0.048642005159655624, 0.835655318681754, 0.2711204258024734, -0.3762876672317577, -0.5578402667356241, 0.8570706059897215, 0.3286517913644138, -0.05267606284338812, -0.7286623582724447, 0.6907059399820697, -0.43253702973193403, 0.9804525563886388, -0.511412570003587, -0.7288726626645974, -0.37592564307999726, -0.4863537416408416, 0.682480289791104, -0.8082639140574284, -0.6584541781741441, 0.3435269389320938, 0.5242352435647415, -0.19816185798927743, 0.9616634760780607, -0.4649375214241643, -0.5473112240073044, -0.6515775144938243, 0.7592228474681056, -0.175798611450639, 0.9101875679275111, -0.918727899401189, 0.6329254744238426, -0.4266358418373867, -0.7400122339215135, -0.6458873232990835, 0.23878290899359145, 0.78872425802362, -0.6616845640148125, -0.12848888479234977, 0.26555962473308825
-0.16972358548083066, -0.41303386644393725, -0.8621182519453191, -0.642741349322965, 0.4899323794086542, -0.8437025948247626, 0.11295381386692635, -0.05303038055662094, 0.0065558727224532005, 0.7934071254095871, -0.8146746698071968, 0.6481922365713069, 0.32314845420791016, 0.24100031132424166, 0.557268230969347, 0.9642137330175391, 0.3033212721668291, -0.5252996242023337, 0.9658105806251293, -0.5723194793256052, -0.7137735803676457, 0.23062986000916127, 0.9589336305431277, -0.2830359465229774, -0.4988947550590205, 0.21221513764138938, -0.9593207936085314, 0.23700698683019614, -0.5588635409517658, -0.10370968406186913, -0.5187648322633949, 0.7781813758207764, -0.3227462078308892, -0.7211145080637605, 0.34762054014455585, 0.5136594903807936, 0.6837017675721799, -0.2992953288577763, -0.4825323645411239, 0.6307399886293754, 0.6145902181517972, 0.11970093497441384, 0.7972968185585227, 0.5647709572068507, 0.8047581863163615, -0.9561989918003324, 0.7169402112963135, -0.13945094693762825, -0.18843050814474607, -0.03131393009711121, 0.6161607178253597, -0.053509425022765005, -0.02818248202266977, -0.28918295322680876, 0.748002157029606, 0.7079975439061396, 0.6171194908111044, -0.4859984308538599, -0.6518603367726278, 0.6047299793922314, 0.9638956345217954, -0.7459478497810728, 0.24062017863143606, -0.6673193614489261, -0.9747849976322529, 0.2209436797204748, -0.9804221765431235, -0.6973850948048723, 0.7593510251605318, -0.17706307100601826, 0.7514788502862743, -0.06079945425478246, -0.24268944717161942, -0.931301362651823, -0.8705599527846478, -0.10047357246086679, -0.5204461502173369, -0.6211777950081924, 0.40799589983823026, -0.4834348244064062, -0.11115762139298409, 0.33190259811353867, -0.829793769902152, -0.02581419799550397, 0.28186932452805596, 0.5350220462945855, 0.4695983358838175, -0.15316287079608754, -0.7681846830129264, 0.3457848158270845, -0.06934350005608032, -0.5503451854444787, 0.7044069395254522, 0.41556632763002477, 0.5228167388995277, -0.01250126388858233, 0.17496021285913899, 0.22440297731774955, -0.973591375234848, 0.43581781846134865, -0.24119136081093412, 0.0042631681250438576, 0.6312074437143287, 0.6717399641331752, -0.04969130684468081, -0.5609461784913401, 0.7575644527868524, -0.03449095269350515, 0.4319958068051882, 0.7315039194401646, -0.4513858725977638, 0.49190265379338616, -0.79146133102951, -0.5263013437621763, -0.17190903740479868, 0.55044649713786, -0.6636657432946631, 0.5259356141391682, 0.9201680370241844, -0.6296437157516075, -0.35364520258282783, -0.18255659697851512, -0.9650750613705394, 0.5544092074371932, 0.8422587869808177, 0.9095387415731, -0.9652555104492099, -0.27934787628268853, 0.9623632892786345, 0.7231646524504126, 0.1365616184268425, -0.3269292723384624, 0.7888730146438283, 0.4248140690800484, 0.36290321383369023, 0.765664791085142, -0.5397351320467463, -0.33626471937020036, -0.6076687167871481, -0.9036237582607719, 0.5920329829811541, -0.5415783498208518, -0.8872128491529145, 0.6737859457992086, -0.6084486091611303, -0.9485968415959273, -0.10302384443136721, 0.23871110897765857, -0.9550342484460945, -0.7891696754338561, 0.6003893069565428, 0.5860807882338926, -0.9451805244206964, 0.2530999950239252, 0.7404262493317135, 0.14324142804112583, 0.5386759523924683, 0.8037570873740897, 0.5153295147800502, 0.12012802202078525, -0.6231166485978239, 0.29006969787473963, -0.7348953645461594, -0.17009469144624093, 0.7641790191468142, 0.39980780223081797, 0.5368752199994796, 0.5476730538320175, 0.555833854090942, 0.5743463783074957, 0.9843100789323511, 0.24450227799837193, 0.25268095165869753, 0.38105595721806795, 0.21252338313452082, 0.26562228932329124, -0.7066040747265953, -0.4827311254271246, 0.8826668891881789, -0.8215550255787931, 0.7122284755118445, 0.8243385488969678, -0.4190832591162488, -0.2027395473586507, 0.7715527170414517, 0.08069748315091732, 0.5350393439562444, -0.3532873851297587, -0.5945527757064221, -0.4807286770502798, -0.04597707539024052, -0.2626397755375918, 0.7307691522092782, -0.2773972791514064, 0.8076401033810796, -0.48184561733513986, 0.610997847364391, -0.051475592203499586, -0.08504159820385983, -0.8765137970974242
-0.3019481121403694, -0.4753330437259609, -0.5995412701350268, -0.21155673165704486, -0.487529790539656, 0.9128941419166373, 0.662577545299262, 0.5028601694233497, 0.439228419941462, -0.6237623410035747, 0.8353491983969527, 0.3244851556598461, 0.11745885770877472, 0.9780350387508169, 0.1926358978728215, 0.7068054407715276, 0.8601198194335311, -0.3822635306633008, 0.8617939297946016, -0.5946199508594173, 0.9396958906619497, 0.23648429384772232, -0.7508657406160644, -0.13977443054873812, 0.17308468361933926, 0.3317531637204421, -0.12947546766576773, 0.16309107565101374, -0.566374415539192, -0.7107674665262579, -0.24481911182370875, -0.2338639395885658, -0.8358741895416152, 0.4416776608465626, 0.9382633495757136, -0.8009894488861344, 0.10495637856739203, -0.2683605222873455, 0.4641777800445308, 0.8211818640313081, 0.5139205830964287, 0.747011706686123, 0.9050703663512727, -0.26039954158188344, 0.017103852162956686, 0.21376637425744902, 0.45937228375222217, 0.358811793317368, 0.9061233771733431, 0.7157936270077856, 0.8219675206005247, -0.08072736955290964, 0.27543872686912635, -0.5668394552444233, -0.6892628132368482, 0.6153431186458866, 0.20353669670537364, 0.2144817488511258, -0.7726385043733508, -0.1967681006662378, 0.12962510301719116, 0.6798682715761973, 0.10839559265702685, 0.7515978522754552, 0.3820408171803404, -0.7471000183592976, -0.49018440249963485, -0.15659719034228525, 0.6009248260139145, 0.9358675359283742, -0.1282844923330347, 0.4522481905307499, 0.7444513887300171, 0.3475680719503375, -0.8065963078611745, -0.44031759441799234, -0.759923856034452, -0.328945688464725, -0.36713612903989357, 0.38139102046066864, 0.4665383089037291, 0.2964285039598831, 0.895338071571338, 0.7037588109425568, 0.2999394090373211, 0.5027569112156972, 0.2793383588727602, -0.1965810754948925, -0.25978366132089176, 0.9458714967489686, 0.49500755049651474, -0.015375747473359085, -0.8619406249308175, -0.5834285233122936, 0.10466270431477477, -0.30007066109359337, -0.07882597380953402, -0.5533703359043094, 0.44026928267331544, 0.48645962731571846, -0.8830776165779032, -0.2594368199722434, 0.32659466074047455, 0.34226075156805974, 0.5255384271728115, 0.09714901821507788, -0.24776873413568212, 0.8089828063456301, 0.4899247059344406, 0.5676534931062927, 0.4257628120453401, -0.7894524776898313, 0.6121486740664238, 0.7407572360307361, -0.6392772553900287, 0.7354870735217114, 0.22473525218959678, -0.40539995327932893, -0.6011472970212156, -0.2774397242572938, -0.4576826755953113, -0.29945524112143573, -0.8814280720572623, 0.06990341077728306, -0.6700783695785928, -0.6635441459524789, 0.8696593265956838, 0.870649521000982, 0.03079236304691398, 0.6338721658544978, -0.42043094430345274, 0.9660133200414353, 0.013260962207944166, -0.39770222795920435, -0.05024049920830633, 0.7077761980294477, 0.09779217720726058, 0.5824470655486091, -0.5083698021958483, -0.7834113980349707, 0.5130536413056925, -0.5343277803254817, 0.579328659276679, -0.7371145967395019, 0.020439916151307462, 0.538100523629904, -0.1714932755371975, -0.5075986177844627, -0.8254092474305976, -0.5285516122266433, 0.7071958212097039, -0.6392271339371299, 0.8323826026692647, -0.8492883305744242, 0.3077540130340041, -0.6082759317506279, 0.3159170123227225, -0.2530995095193062, -0.1685330616921838, -0.612495816166148, 0.4259793974432985, 0.4360160122286603, -0.6866044273760489, 0.5583788510368499, 0.9579639496007755, -0.08326155166450126, 0.6501430379834212, 0.10580277913985225, 0.30849908079975236, -0.7950421326358965, 0.8572377456170924, 0.3823437142542427, -0.274305296758629, -0.01156380708521631, -0.5645477609199602, -0.8089668084577357, -0.6149922692498171, 0.47542426659775405, -0.0975228694366289, -0.9626988047567077, 0.11347671142678704, -0.5673725226443092, 0.00551403898044196, 0.6149722356553867, -0.21419032025110138, 0.8264968516308109, 0.40790810141121975, -0.49099744726334404, 0.9861854890689155, 0.7202008796605232, 0.4028460410342345, 0.525682314802558, 0.911375717959839, 0.18544710105962228, -0.8440288023736938, -0.13909759287573836, 0.5757426841467658, -0.9257918665655446, 0.5506314615133996, -0.8423852959125107
0.09307041132885266, 0.828872734300354, 0.49611482453247086, 0.5859459523746218, 0.802585340350078, 0.395708056240634, -0.5423473270310663, 0.5163412687061602, -0.0020457749587194773, -0.8782031632524914, 0.24714997444188042, 0.9376444362282996, -0.07297047981230231, 0.533144088734634, -0.8738578726456673, -0.7576435723791906, -0.17440688434237345, 0.7656784822588395, -0.31141427751666867, -0.2954050642426149, 0.07273993288411164, 0.45778373039027515, -0.6752056196830776, 0.9084195691012232, 0.9117054771424005, -0.140526641923525, 0.9027188743847105, -0.5017598551110404, 0.04322327811567729, 0.9782968453959763, -0.3654082765156985, 0.8494161140529712, -0.5918371860147932, 0.7678404956526707, 0.1724697766316682, 0.11261518160526987, 0.9006127026661069, -0.30982950923955416, -0.7928741839887026, 0.7485176363757032, -0.15705363779659745, -0.6239569603457714, -0.705723188147225, -0.8937240114729902, 0.20276326759615756, 0.1551394521430483, 0.09205183306733725, -0.33762193161364606, -0.1462214135596489, -0.659278295402396, -0.4972944158696911, 0.9907213264219397, 0.3259973768871893, 0.39259767626665587, -0.6547408636531502, -0.4512427272083862, 0.8552610528341225, -0.9728252972367224, -0.007245362723695932, -0.9323008466583413, -0.1657486586115109, 0.6471734546663299, -0.8981542478443694, -0.3157772186894355, -0.004872963627851857, 0.33244001038022314, 0.2014274916045898, -0.21886053308567313, -0.11110863777128793, -0.7153641828047854, -0.8297037974416147, -0.6069075217519494, -0.3518586509151345, 0.8593066036713725, -0.2541488928318591, -0.9429982258216398, 0.667984280372863, -0.6935903072987495, 0.38920351780251794, -0.6474571237675413, -0.1373162669647164, 0.2587821845669365, -0.8617618363751778, 0.37946599136042686, -0.7209440515141986, 0.4388904763116567, -0.821677298217347, 0.5586884132884884, -0.15048568726882386, -0.8003278607575569, 0.9809991772477723, -0.3189615689991441, -0.08671740762820808, -0.4600143368450076, 0.7997746270643458, -0.23851709666092893, -0.8755446132691246, -0.8739174697376243, 0.9033119224855067, -0.3144870969563166, -0.6544128762081645, 0.9798730501278081, 0.7450661810837204, 0.8435286196661215, -0.340939157571133, -0.5173438903889429, -0.6043587837609194, -0.843850190710634, -0.7668255875312089, 0.7734303529551693, -0.7578379373327688, 0.05788140484810684, -0.9581462452304175, -0.33832310854092973, 0.010742196021960913, 0.9091940805787794, 0.7238647843367901, -0.1303941452966375, -0.5423192287523481, -0.2972643897788028, 0.2969627437361465, -0.7107712488218749, -0.22461384624031783, -0.2219568972325535, 0.10291895841021058, -0.6603251582855775, 0.39632614087551177, 0.8137565964150688, 0.4825201147897126, -0.8850305866735748, -0.5778736900367045, 0.8461297762075285, -0.7864018639676429, 0.5124851377657822, 0.6472354982921119, 0.7646066563263166, 0.22681607941925308, -0.30802055989160587, 0.47934984103716427, -0.05834617043300261, -0.3963869927406272, -0.09440175204845526, -0.9218595929492488, -0.9599687892922959, -0.2231267054152902, -0.44966362311157704, 0.594446960118006, 0.5878217418569623, 0.15219598225370867, -0.546110219423759, -0.21493525920177495, 0.9798969528543239, 0.40488747798591723, 0.38924941519086703, 0.16671381443222766, -0.8276927074496598, -0.13194919787734657, -0.5559186633626373, 0.41707490227010396, 0.5450863596658037, -0.9828213542405306, 0.9727226089869291, -0.39259405418503107, -0.10370587368083481, 0.18455568916086484, -0.13613954688267674, 0.8391149270502847, 0.13646827004836382, 0.8993473112937848, 0.7475136414464597, 0.31154207569221243, -0.7764701209941965, 0.17515120702086465, -0.5385417081757837, -0.3971346992731117, 0.6633683318728336, -0.5304923869452735, -0.12424026930597298, -0.5608228127221787, -0.9203497265986191, -0.6814792570224479, -0.9413524399036783, -0.8892355502436721, 0.4769817955917817, 0.30005422855814495, 0.04036830835012756, -0.5932773395938431, -0.6485604363366445, 0.06672483890332843, 0.9545340339479853, -0.42706296586014103, 0.8264364286375069, 0.6072572999426883, 0.4397102323062552, -0.21325080293611265, -0.26892040970509795, 0.018414306676440565, 0.3500329757442123, -0.8061932291809678, 0.33820734964444665
0.08503963853769358, -0.5251668917498821, -0.9798738248151135, 0.3798508403292327, 0.2479168009246671, -0.40800045725129547, 0.2680980167331597, 0.5328083946699567, -0.28410686337812635, -0.5864863363845583, -0.012320567935656586, 0.08356805509406957, -0.2313729144476659, 0.8655048707033272, 0.5570739662676794, -0.998883289379696, -0.6030752371869449, 0.35303811824434556, 0.8404868990272676, 0.7566771350336586, -0.8770465701160985, 0.7912396026083598, 0.13063327544655046, -0.45157445073526525, -0.3621496191494366, 0.6258421559759537, -0.5327649122051487, -0.30387719655315143, 0.39965677573103214, -0.23569291832804137, 0.7487895900057431, 0.5377476213226511, 0.786973579812106, 0.47426037686393063, 0.6944760932176293, -0.3166248971255652, 0.7049077483985886, -0.9964053570486145, -0.07402786487012131, -0.06871131913667938, 0.2706659524434846, -0.5349715141187844, 0.05472422900699543, -0.8860898623290184, -0.8832648896290716, 0.059056298762229696, -0.9830490381585603, 0.18353472123580802, 0.19097230078707625, 0.8240771585662415, -0.8947011663064779, -0.9383552994800365, 0.9744923447199396, 0.16458901097415723, 0.874771047870675, 0.10116729091098807, -0.41658494193461243, 0.9151001166397356, -0.5414593870368242, 0.8013878810627971, -0.9897911370527674, 0.5221626435341815, 0.5144182397970486, 0.1960652748346297, -0.07778603041594596, -0.3870337775496205, -0.7617152887037122, 0.8086491713459745, 0.9841263997008806, 0.10247081727293575, -0.22799965683370615, -0.16884014805889277, -0.40457106371239165, -0.8954259445313174, -0.7423710235286791, -0.46866644057933055, -0.0760393749655792, -0.7052985118030515, -0.7838619437886413, -0.4794738147306234, 0.8926090313261833, 0.20123735172853424, -0.08406458640831711, 0.1316324951721781, -0.09718287262571028, -0.8926483479030697, 0.8935696986676357, -0.6532830341254633, 0.5425073096438127, 0.8538990715178325, -0.06631123586496644, 0.48688432703328444, -0.010958606483492995, 0.35304013346660135, 0.2591606326843221, -0.3305400298574437, -0.2018054975092726, -0.24372760785777356, 0.21657161281933301, -0.8738905720837766, 0.23085863979636617, 0.20034430300733866, -0.7631164495618415, 0.45747916312030706, 0.39552031416919914, -0.5685251093565166, -0.55284587813434, 0.7561734084207072, 0.210425696069851, 0.805858122349309, -0.7186687133315705, -0.6915412686100029, -0.3900194348464538, 0.18567721252114228, -0.9582144691839796, -0.11108406577792347, -0.9258400677121735, -0.751238541323035, -0.7829196581506692, -0.39458649433867754, 0.3559005406933282, 0.0341521213645349, 0.08384995927254564, 0.9481345928459242, -0.37729301486446154, -0.8081865134119042, -0.3915235814475847, 0.4720975256683219, 0.4597049417325621, 0.4827401278293941, -0.09514752864532751, 0.07029886769535894, 0.2665401897604845, 0.014734322913913672, -0.2971778931663136, -0.8329865496817108, 0.10832402724756754, -0.9216822750212367, 0.05864568584532368, 0.9753119844007437, 0.5890134829890316, -0.21989471998333598, 0.3123934332685125, 0.3558473264594823, 0.8398337006183123, -0.6980406548165983, 0.3039301254766864, -0.7632106122112781, -0.09964575085788384, 0.38922360261463285, -0.7993408957455193, 0.1652298001437979, 0.2736102593648448, 0.3303981562004483, 0.21812192010630552, 0.0324744903225638, -0.5369333323405031, 0.9009897180819093, -0.9870291990815198, 0.9284864857998907, 0.36634949846834175, -0.8869897071452818, 0.33315710319883524, 0.972843469088923, 0.02507364167028781, 0.6227331591957812, -0.7229956578020699, -0.2520483108229819, 0.6237217655114383, -0.11579068174139644, 0.4010322068240802, -0.870513872386663, 0.21000245502659057, -0.9222324269613198, 0.4831165374154104, 0.9563493369041621, -0.5259184180410664, 0.5869346632358735, 0.9158453823653759, 0.22986055422368537, -0.10320569846759818, 0.8313976100060553, -0.15258293131300132, 0.7730507154461038, 0.4023299546489084, 0.7769416889777803, 0.09222295880320851, -0.38200327538345186, 0.28830155865329093, -0.5588241694126235, 0.8617535474343083, 0.368544688337146, -0.9899372169177276, 0.0062313579740870114, 0.6176035189125861, -0.39001208764491585, -0.7361865383294655, 0.8347513090004781, 0.918881082968258, 0.540791483136826
