0.3634953537633713, -0.2171231972509472, 0.42892016471681155, 0.1406120988336214, 0.24641679814840198, 0.4329696181924698, -0.060867776653599506, 0.808520904833206, 1.0136711439922481, -0.7757880216195078, -1.4570869130923731, -0.9280767907325267, -0.425592127844734, -0.7880082888761801, -0.13488775515977985, -0.47412437899247994, 0.9558472427843328, -0.9070331119662668, 0.27437203163456075, -0.39277000713354066, -0.49337132674988227, -0.5473990779042296, 0.7915970561393719, 0.08614379305631838, -0.08995474224786522, 0.576326467827306, -0.8867092011053717, -0.4726842175758625, -0.8090795761476265, 0.019588386159930683, -0.7407913540243419, 0.6997120939750052, -0.4654571053437566, 0.2894975969494971, 0.7082344184355339, 0.10341417535522396, 0.392670983490953, -0.48976926890665107, 1.0754439622051424, -1.5166744934761704, 0.4938274156825146, 0.06700164571773783, 0.6690157129882885, -0.026936127178224224, -0.50671282470646, -0.41225588334112595, -0.28566211636405664, 0.6957982071550404, -0.9541170287948726, 1.8870737701530267, 0.7433275349088182, -0.7143585877534955, 0.3421202409638047, 0.049832949092571736, 0.20657972003831987, 0.28885714559905307, 0.12137991302169818, -0.7737539334214779, -1.3117409266620454, -0.34057595591546425, -0.4584230706783071, -0.30020112011437616, -0.2931902029307264, -0.02536555139296064, 0.5088352102860976, 0.7999150734035242, -0.8486135323616997, -0.6460588484014644, 0.5483922616622893, 0.40898744020605954, -0.5291024174815494, 0.9168058921695221, -0.9274391829893859, -0.619363723991288, 1.0458116865644438, -0.032195254600811754, -0.44084375809857806, -0.534880808151241, 0.6067416561213552, 0.5552251559270757, -0.5939365791774008, 0.617016429362564, 0.44794654965764974, -0.14702111171367724, -0.5316772775229741, 0.07280311918682363, -0.3656507530295071, -0.569465003214745, -1.2178022360867018, -0.059721991357346876, 0.8587013881693585, -0.26597651421625285, 0.3635642353241676, 0.8400804151959773, -0.25224619240220486, 0.995793302725388, 0.5077822133288545, -0.2379839079730586, 0.8029051215769756, 0.7395567433675021, -0.1579523860760484, -1.0033082025811695, 0.6464736912489197, -0.12674838005736253, 0.016864127714322556, -0.21316630450961285, 0.8470764691866655, 0.55770053830559, -0.49890484443494926, 0.19776956749535113, -0.6114453380466781, 2.000923822800065, 0.6224484697651437, 0.4285899279250981, 0.5123363654141879, -0.0679787184155852, 0.8875519438324121, 0.8673450822892773, -0.555166771949102, -0.15410374786998352, 0.16119771472376448, -0.6138086163375633, -0.17484874061448205, 0.5543246154281594, -0.13210072626979574, -0.4067501522486265, -0.6750094888402761, 0.3355811836334703, 0.8275927982948794, -0.7937455988038349, -0.4185492919595265, 0.28552174253730295, -0.0943906070872418, 0.45230625675377334, -0.1158393529153192, -0.23075202921068413, -0.5441971363079076, -0.628874337093887, 0.8651305834271511, 0.3283815658846597, -0.4507653663671066, -1.0009465242336988, -0.9485161662457878, -0.8376419928512133, 0.8568467356529408, 1.991865926435313, 0.7144498929213698, -0.25721426406924036, -0.40950273453561165, 0.05768731950880248, 0.8774323026968112, 0.24036239098123766, 0.8187715779022218, -0.029803422584700843, -0.6934253396232292, -0.04761256685889027, 0.3755506826678647, -0.8369520132145609, 0.6950893059427314, -0.7244319929906992, 0.23082575219783052, -0.05992422375382761, -0.06767468193378598, 0.18662727108633337, -0.34562020250064956, 0.4496144692464868, 0.7096024699541341, 0.5290250127558035, -0.5633428050140473, 0.14831335425622572, 0.1950520694593497, -2.0498956518123177, 0.08203516832621613, -0.39052953449836847, 0.13569660093181277, 0.9706264554390835, 0.8570053515856599, -1.0347178046595333, -0.9030319615712221, -0.8431776041886576, 0.34335025657019186, -0.7754843384011284, -0.468163161136261, -0.8150132049635632, 0.7895886492606482, -0.7906126804119772, 0.37389265230634594, 0.14154722955165513, 0.024966163041499817, 0.5864925467735804, 0.3109372710052524, -0.45257108308616933, -0.3299017280860621, 0.8412879532620591, -0.4102820828531917, 0.8286278847294338, 1.7856910538123394, 0.37968940882455715, -0.9839103600921821, -0.5916424617085353
