-1.4679009082134642, -64.89928733254641, 0.729193587018682, 2.077471826180838, 2.394214429620419, -0.5903599695179794, -3.542341822152753, 1.2593425807308793, -0.13356494594375817, -4.674879036611215, 0.20490701390182547, -5.000092735387956, -2.798972048047992, -0.15997700987666774, -1.0169837271615259, 0.007429851096849062, 17.591320937058057, 17.593220614055944, -0.2325425351653842, 0.14332059666824457, 41.35687824266439, 2.0014554050213604, 12.428083997003442, -0.7738493912413374, -0.23694147199969612, 0.004885639956976842, 29.326242232549323, 41.28494634702054, -3.912622811790433, 32.82189447856085, 0.920292700260911, -0.5488726534054642, 0.2816833330360484, 4.950929718585278, 0.2044376789223291, -17.787515255347447, 0.049282202395491914, -1.4552017587379231, -0.06175135071922791, 21.256380340430365, 0.019366264831656266, -6.976530199310189, -0.041525419062453287, 4.05066242743718, -9.499106229406307, -0.7461778153445658, -2.5699465132835257, 11.443235191606952, 0.15042951707310515, 0.1825910188764934, -1.9156086305595434, 13.659214852415127, 23.906109258745847, -3.231074848182105, 15.222498121228007, -17.982143038290268, 0.2907837290879853, -0.6753677922198599, -0.3412961298429419, -18.220072977518353, -2.378413441202979, 0.6366205133647705, 7.495928363905733, -0.6454400046971942, 36.04750154159441